{
  "camera_model": "pinhole",
  "image_size": [
    1920,
    1080
  ],
  "fps": 30.0,
  "source": {
    "type": "interpolation",
    "interpolation": "kochanek-bartels",
    "keyframes": [
      {
        "pose": [
          0.9434540872805492,
          0.19216737995535715,
          0.2701222562697829,
          -1.008200561572654,
          -0.1391615044722518,
          0.9691523863704589,
          -0.20341522674632087,
          1.2169955745201273,
          -0.30087940925796863,
          0.15432232031032306,
          0.9410931014911658,
          2.7377397079806176
        ],
        "fov": null,
        "transition_duration": null,
        "appearance": {
          "embedding_train_index": 50
        }
      },
      {
        "pose": [
          0.9966917814796469,
          0.06991882879496047,
          -0.041434287352725224,
          0.1142438716697276,
          -0.07522498476831875,
          0.9866221278203889,
          -0.14463058241107754,
          1.0052121979713962,
          0.030767583266407664,
          0.1472690193417738,
          0.9886178305582524,
          2.5665224163697045
        ],
        "fov": null,
        "transition_duration": null,
        "appearance": {
          "embedding_train_index": 50
        }
      },
      {
        "pose": [
          0.9844940014266864,
          0.018864549661754344,
          -0.17440080268877883,
          0.5932821971411522,
          -0.04568689619924656,
          0.9874635109571367,
          -0.15109119382239614,
          1.0284878359331635,
          0.16936416454887865,
          0.15671621847761866,
          0.9730137870392094,
          2.6227390876049688
        ],
        "fov": null,
        "transition_duration": null,
        "appearance": {
          "embedding_train_index": 50
        }
      },
      {
        "pose": [
          0.9680511559847131,
          -0.033530908323106734,
          -0.24850067935771764,
          0.8828133847238583,
          -0.02790243019136151,
          0.9704601072262633,
          -0.2396427788993408,
          1.0929698935988328,
          0.24919544095337615,
          0.23892025688348795,
          0.9385194543505363,
          2.630826418314338
        ],
        "fov": null,
        "transition_duration": null,
        "appearance": {
          "embedding_train_index": 50
        }
      }
    ],
    "default_fov": 75.0,
    "default_appearance": {
      "embedding_train_index": 50
    },
    "is_cycle": true,
    "tension": 0.0,
    "default_transition_duration": 2.0
  },
  "frames": [
    {
      "pose": [
        0.9434540867805481,
        0.19216738641262054,
        0.2701222598552704,
        -1.0082005262374878,
        -0.13916149735450745,
        0.9691523909568787,
        -0.20341522991657257,
        1.2169955968856812,
        -0.30087941884994507,
        0.1543223261833191,
        0.9410930871963501,
        2.7377398014068604
      ],
      "intrinsics": [
        703.74169921875,
        703.74169921875,
        960.0,
        540.0
      ],
      "appearance_weights": [
        1.0,
        0.0,
        0.0,
        0.0
      ]
    },
    {
      "pose": [
        0.9429178833961487,
        0.19268715381622314,
        0.27162009477615356,
        -1.0137064456939697,
        -0.1396520435810089,
        0.9692177772521973,
        -0.2027663290500641,
        1.2161355018615723,
        -0.30232951045036316,
        0.15325970947742462,
        0.9408019781112671,
        2.737092971801758
      ],
      "intrinsics": [
        703.74169921875,
        703.74169921875,
        960.0,
        540.0
      ],
      "appearance_weights": [
        0.9993067383766174,
        0.008921382948756218,
        -0.00013770957593806088,
        -0.008090437389910221
      ]
    },
    {
      "pose": [
        0.942559003829956,
        0.1930128037929535,
        0.27263250946998596,
        -1.0173953771591187,
        -0.14004305005073547,
        0.969307541847229,
        -0.2020665556192398,
        1.2150295972824097,
        -0.3032661974430084,
        0.15227937698364258,
        0.9406597018241882,
        2.736233949661255
      ],
      "intrinsics": [
        703.74169921875,
        703.74169921875,
        960.0,
        540.0
      ],
      "appearance_weights": [
        0.9972552061080933,
        0.018921002745628357,
        -0.000541462330147624,
        -0.015634724870324135
      ]
    },
    {
      "pose": [
        0.9423741102218628,
        0.19315071403980255,
        0.2731734812259674,
        -1.0193188190460205,
        -0.14033684134483337,
        0.9694209694862366,
        -0.20131725072860718,
        1.2136857509613037,
        -0.3037046790122986,
        0.15137988328933716,
        0.9406633973121643,
        2.7351696491241455
      ],
      "intrinsics": [
        703.74169921875,
        703.74169921875,
        960.0,
        540.0
      ],
      "appearance_weights": [
        0.9938874244689941,
        0.029956666752696037,
        -0.0011971943313255906,
        -0.02264692634344101
      ]
    },
    {
      "pose": [
        0.9423589110374451,
        0.19310712814331055,
        0.27325674891471863,
        -1.0195280313491821,
        -0.1405356526374817,
        0.9695574045181274,
        -0.20051991939544678,
        1.2121119499206543,
        -0.30365994572639465,
        0.1505594402551651,
        0.9408094882965088,
        2.7339069843292236
      ],
      "intrinsics": [
        703.74169921875,
        703.74169921875,
        960.0,
        540.0
      ],
      "appearance_weights": [
        0.9892457723617554,
        0.04198618605732918,
        -0.00209084153175354,
        -0.029141103848814964
      ]
    },
    {
      "pose": [
        0.942508339881897,
        0.19288815557956696,
        0.27289581298828125,
        -1.018074631690979,
        -0.14064167439937592,
        0.9697161316871643,
        -0.19967621564865112,
        1.2103164196014404,
        -0.3031466603279114,
        0.14981599152088165,
        0.9410936832427979,
        2.7324533462524414
      ],
      "intrinsics": [
        703.74169921875,
        703.74169921875,
        960.0,
        540.0
      ],
      "appearance_weights": [
        0.9833723306655884,
        0.05496736243367195,
        -0.003208340145647526,
        -0.03513132408261299
      ]
    },
    {
      "pose": [
        0.9428166151046753,
        0.19249972701072693,
        0.2721039950847626,
        -1.0150099992752075,
        -0.14065703749656677,
        0.9698963761329651,
        -0.19878792762756348,
        1.208306908607483,
        -0.3021793067455292,
        0.14914722740650177,
        0.9415109157562256,
        2.7308156490325928
      ],
      "intrinsics": [
        703.74169921875,
        703.74169921875,
        960.0,
        540.0
      ],
      "appearance_weights": [
        0.9763092398643494,
        0.06885801255702972,
        -0.004535626154392958,
        -0.040631651878356934
      ]
    },
    {
      "pose": [
        0.9432774186134338,
        0.19194765388965607,
        0.2708943784236908,
        -1.010385513305664,
        -0.1405838578939438,
        0.9700973629951477,
        -0.19785693287849426,
        1.2060917615890503,
        -0.300772100687027,
        0.1485506147146225,
        0.9420556426048279,
        2.72900128364563
      ],
      "intrinsics": [
        703.74169921875,
        703.74169921875,
        960.0,
        540.0
      ],
      "appearance_weights": [
        0.9680988192558289,
        0.08361593633890152,
        -0.00605863519012928,
        -0.04565614461898804
      ]
    },
    {
      "pose": [
        0.9438836574554443,
        0.1912376433610916,
        0.26927995681762695,
        -1.0042526721954346,
        -0.14042417705059052,
        0.9703181385993958,
        -0.19688527286052704,
        1.2036787271499634,
        -0.2989391088485718,
        0.14802339673042297,
        0.9427218437194824,
        2.7270169258117676
      ],
      "intrinsics": [
        703.74169921875,
        703.74169921875,
        960.0,
        540.0
      ],
      "appearance_weights": [
        0.9587832093238831,
        0.09919894486665726,
        -0.007763304281979799,
        -0.05021887272596359
      ]
    },
    {
      "pose": [
        0.9446280002593994,
        0.19037525355815887,
        0.26727354526519775,
        -0.9966627955436707,
        -0.14018002152442932,
        0.9705578684806824,
        -0.19587503373622894,
        1.2010760307312012,
        -0.29669421911239624,
        0.1475626528263092,
        0.9435029625892639,
        2.724870204925537
      ],
      "intrinsics": [
        703.74169921875,
        703.74169921875,
        960.0,
        540.0
      ],
      "appearance_weights": [
        0.9484046101570129,
        0.11556485295295715,
        -0.009635568596422672,
        -0.054333899170160294
      ]
    },
    {
      "pose": [
        0.9455024600028992,
        0.18936599791049957,
        0.26488789916038513,
        -0.987667441368103,
        -0.13985343277454376,
        0.9708155989646912,
        -0.19482845067977905,
        1.1982916593551636,
        -0.2940512001514435,
        0.14716531336307526,
        0.9443920254707336,
        2.7225677967071533
      ],
      "intrinsics": [
        703.74169921875,
        703.74169921875,
        960.0,
        540.0
      ],
      "appearance_weights": [
        0.9370052218437195,
        0.13267146050930023,
        -0.011661364696919918,
        -0.058015286922454834
      ]
    },
    {
      "pose": [
        0.9464987516403198,
        0.18821528553962708,
        0.2621355950832367,
        -0.9773179292678833,
        -0.139446422457695,
        0.9710903763771057,
        -0.19374777376651764,
        1.195333480834961,
        -0.2910236716270447,
        0.14682817459106445,
        0.9453818202018738,
        2.7201168537139893
      ],
      "intrinsics": [
        703.74169921875,
        703.74169921875,
        960.0,
        540.0
      ],
      "appearance_weights": [
        0.9246271252632141,
        0.1504765748977661,
        -0.013826627284288406,
        -0.06127709895372391
      ]
    },
    {
      "pose": [
        0.9476083517074585,
        0.18692846596240997,
        0.2590292692184448,
        -0.9656657576560974,
        -0.13896098732948303,
        0.9713812470436096,
        -0.19263537228107452,
        1.1922097206115723,
        -0.28762519359588623,
        0.14654792845249176,
        0.9464647173881531,
        2.717524766921997
      ],
      "intrinsics": [
        703.74169921875,
        703.74169921875,
        960.0,
        540.0
      ],
      "appearance_weights": [
        0.9113126993179321,
        0.16893801093101501,
        -0.016117295250296593,
        -0.06413339823484421
      ]
    },
    {
      "pose": [
        0.9488223195075989,
        0.1855107843875885,
        0.25558143854141235,
        -0.9527623653411865,
        -0.1383991688489914,
        0.9716871380805969,
        -0.19149364531040192,
        1.1889283657073975,
        -0.28386932611465454,
        0.14632120728492737,
        0.9476330280303955,
        2.7147984504699707
      ],
      "intrinsics": [
        703.74169921875,
        703.74169921875,
        960.0,
        540.0
      ],
      "appearance_weights": [
        0.8971039652824402,
        0.18801356852054596,
        -0.01851930096745491,
        -0.06659825891256332
      ]
    },
    {
      "pose": [
        0.9501317143440247,
        0.18396751582622528,
        0.2518046498298645,
        -0.938659131526947,
        -0.13776299357414246,
        0.9720070958137512,
        -0.1903250366449356,
        1.1854974031448364,
        -0.27976953983306885,
        0.14614450931549072,
        0.9488787055015564,
        2.711945056915283
      ],
      "intrinsics": [
        703.74169921875,
        703.74169921875,
        960.0,
        540.0
      ],
      "appearance_weights": [
        0.8820432424545288,
        0.20766106247901917,
        -0.021018583327531815,
        -0.06868572533130646
      ]
    },
    {
      "pose": [
        0.9515273571014404,
        0.18230381608009338,
        0.2477114498615265,
        -0.9234074950218201,
        -0.13705451786518097,
        0.9723400473594666,
        -0.18913206458091736,
        1.181924819946289,
        -0.275339275598526,
        0.14601436257362366,
        0.9501937031745911,
        2.7089717388153076
      ],
      "intrinsics": [
        703.74169921875,
        703.74169921875,
        960.0,
        540.0
      ],
      "appearance_weights": [
        0.8661726713180542,
        0.22783829271793365,
        -0.023601077497005463,
        -0.0704098790884018
      ]
    },
    {
      "pose": [
        0.9529998898506165,
        0.18052488565444946,
        0.24331438541412354,
        -0.9070589542388916,
        -0.13627584278583527,
        0.9726849794387817,
        -0.18791723251342773,
        1.1782187223434448,
        -0.27059200406074524,
        0.14592723548412323,
        0.9515698552131653,
        2.705885410308838
      ],
      "intrinsics": [
        703.74169921875,
        703.74169921875,
        960.0,
        540.0
      ],
      "appearance_weights": [
        0.8495343923568726,
        0.24850308895111084,
        -0.02625271864235401,
        -0.07178477942943573
      ]
    },
    {
      "pose": [
        0.9545400738716125,
        0.1786358505487442,
        0.23862609267234802,
        -0.889664888381958,
        -0.13542909920215607,
        0.9730408191680908,
        -0.18668308854103088,
        1.1743872165679932,
        -0.2655412256717682,
        0.1458795815706253,
        0.9529989361763,
        2.702693462371826
      ],
      "intrinsics": [
        703.74169921875,
        703.74169921875,
        960.0,
        540.0
      ],
      "appearance_weights": [
        0.8321707248687744,
        0.26961323618888855,
        -0.028959445655345917,
        -0.07282448559999466
      ]
    },
    {
      "pose": [
        0.956138551235199,
        0.17664185166358948,
        0.23365923762321472,
        -0.8712766766548157,
        -0.13451646268367767,
        0.9734064936637878,
        -0.18543219566345215,
        1.1704380512237549,
        -0.26020053029060364,
        0.14586786925792694,
        0.9544727802276611,
        2.6994028091430664
      ],
      "intrinsics": [
        703.74169921875,
        703.74169921875,
        960.0,
        540.0
      ],
      "appearance_weights": [
        0.8141236901283264,
        0.291126549243927,
        -0.03170718997716904,
        -0.07354306429624557
      ]
    },
    {
      "pose": [
        0.9577860832214355,
        0.17454801499843597,
        0.22842659056186676,
        -0.8519458174705505,
        -0.13354013860225677,
        0.9737810492515564,
        -0.18416711688041687,
        1.1663795709609985,
        -0.2545835077762604,
        0.14588859677314758,
        0.9559831619262695,
        2.6960206031799316
      ],
      "intrinsics": [
        703.74169921875,
        703.74169921875,
        960.0,
        540.0
      ],
      "appearance_weights": [
        0.7954356670379639,
        0.3130008280277252,
        -0.03448189049959183,
        -0.07395458221435547
      ]
    },
    {
      "pose": [
        0.9594735503196716,
        0.17235951125621796,
        0.22294096648693085,
        -0.8317237496376038,
        -0.13250240683555603,
        0.9741633534431458,
        -0.1828904002904892,
        1.1622196435928345,
        -0.24870383739471436,
        0.14593830704689026,
        0.9575220346450806,
        2.692554235458374
      ],
      "intrinsics": [
        703.74169921875,
        703.74169921875,
        960.0,
        540.0
      ],
      "appearance_weights": [
        0.7761486768722534,
        0.3351939022541046,
        -0.037269484251737595,
        -0.07407310605049133
      ]
    },
    {
      "pose": [
        0.9611918330192566,
        0.1700814664363861,
        0.21721534430980682,
        -0.8106618523597717,
        -0.13140560686588287,
        0.9745523929595947,
        -0.18160460889339447,
        1.1579662561416626,
        -0.24257531762123108,
        0.1460135579109192,
        0.9590814709663391,
        2.6890101432800293
      ],
      "intrinsics": [
        703.74169921875,
        703.74169921875,
        960.0,
        540.0
      ],
      "appearance_weights": [
        0.7563050389289856,
        0.3576635718345642,
        -0.040055908262729645,
        -0.07391268759965897
      ]
    },
    {
      "pose": [
        0.9629321098327637,
        0.1677190661430359,
        0.2112627774477005,
        -0.7888115644454956,
        -0.13025210797786713,
        0.9749471545219421,
        -0.18031224608421326,
        1.153627634048462,
        -0.2362118512392044,
        0.14611104130744934,
        0.9606537222862244,
        2.685396194458008
      ],
      "intrinsics": [
        703.74169921875,
        703.74169921875,
        960.0,
        540.0
      ],
      "appearance_weights": [
        0.7359468936920166,
        0.380367636680603,
        -0.04282709211111069,
        -0.07348740100860596
      ]
    },
    {
      "pose": [
        0.9646857976913452,
        0.16527749598026276,
        0.20509646832942963,
        -0.7662243843078613,
        -0.12904441356658936,
        0.975346565246582,
        -0.17901581525802612,
        1.1492115259170532,
        -0.22962743043899536,
        0.14622747898101807,
        0.9622311592102051,
        2.6817188262939453
      ],
      "intrinsics": [
        703.74169921875,
        703.74169921875,
        960.0,
        540.0
      ],
      "appearance_weights": [
        0.7151163816452026,
        0.4032638967037201,
        -0.04556897655129433,
        -0.0728113055229187
      ]
    },
    {
      "pose": [
        0.9664444923400879,
        0.16276197135448456,
        0.1987297236919403,
        -0.7429516315460205,
        -0.12778501212596893,
        0.975749671459198,
        -0.17771779000759125,
        1.144726276397705,
        -0.22283615171909332,
        0.14635971188545227,
        0.9638064503669739,
        2.677985668182373
      ],
      "intrinsics": [
        703.74169921875,
        703.74169921875,
        960.0,
        540.0
      ],
      "appearance_weights": [
        0.6938557624816895,
        0.4263101816177368,
        -0.04826749861240387,
        -0.0718984603881836
      ]
    },
    {
      "pose": [
        0.9682000875473022,
        0.16017775237560272,
        0.1921759843826294,
        -0.7190448045730591,
        -0.12647652626037598,
        0.9761554598808289,
        -0.17642055451869965,
        1.1401796340942383,
        -0.215852290391922,
        0.14650465548038483,
        0.9653725624084473,
        2.674203634262085
      ],
      "intrinsics": [
        703.74169921875,
        703.74169921875,
        960.0,
        540.0
      ],
      "appearance_weights": [
        0.672207236289978,
        0.4494642913341522,
        -0.05090859532356262,
        -0.07076294720172882
      ]
    },
    {
      "pose": [
        0.9699448347091675,
        0.15753011405467987,
        0.18544887006282806,
        -0.6945553421974182,
        -0.12512162327766418,
        0.976563036441803,
        -0.17512650787830353,
        1.1355797052383423,
        -0.20869021117687225,
        0.14665940403938293,
        0.9669226408004761,
        2.670379877090454
      ],
      "intrinsics": [
        703.74169921875,
        703.74169921875,
        960.0,
        540.0
      ],
      "appearance_weights": [
        0.6502130031585693,
        0.47268402576446533,
        -0.05347819626331329,
        -0.06941881030797958
      ]
    },
    {
      "pose": [
        0.9716712236404419,
        0.1548243910074234,
        0.17856210470199585,
        -0.6695346832275391,
        -0.12372304499149323,
        0.9769713282585144,
        -0.17383795976638794,
        1.1309345960617065,
        -0.2013644129037857,
        0.14682109653949738,
        0.9684503078460693,
        2.6665213108062744
      ],
      "intrinsics": [
        703.74169921875,
        703.74169921875,
        960.0,
        540.0
      ],
      "appearance_weights": [
        0.6279151439666748,
        0.49592721462249756,
        -0.05596224218606949,
        -0.06788012385368347
      ]
    },
    {
      "pose": [
        0.973372220993042,
        0.1520659327507019,
        0.17152954638004303,
        -0.644034206867218,
        -0.12228362262248993,
        0.977379560470581,
        -0.17255714535713196,
        1.126252293586731,
        -0.1938895434141159,
        0.14698709547519684,
        0.9699493050575256,
        2.662635326385498
      ],
      "intrinsics": [
        703.74169921875,
        703.74169921875,
        960.0,
        540.0
      ],
      "appearance_weights": [
        0.605355978012085,
        0.5191516280174255,
        -0.058346670120954514,
        -0.06616095453500748
      ]
    },
    {
      "pose": [
        0.9750412702560425,
        0.14926014840602875,
        0.1643652319908142,
        -0.6181053519248962,
        -0.1208062544465065,
        0.9777867197990417,
        -0.17128625512123108,
        1.121540904045105,
        -0.18628035485744476,
        0.1471548229455948,
        0.9714139699935913,
        2.658728837966919
      ],
      "intrinsics": [
        703.74169921875,
        703.74169921875,
        960.0,
        540.0
      ],
      "appearance_weights": [
        0.582577645778656,
        0.5423151254653931,
        -0.060617413371801376,
        -0.064275361597538
      ]
    },
    {
      "pose": [
        0.9766719937324524,
        0.1464124619960785,
        0.15708330273628235,
        -0.5917995572090149,
        -0.11929392069578171,
        0.9781920313835144,
        -0.17002739012241364,
        1.116808295249939,
        -0.17855176329612732,
        0.1473219245672226,
        0.9728388786315918,
        2.6548092365264893
      ],
      "intrinsics": [
        703.74169921875,
        703.74169921875,
        960.0,
        540.0
      ],
      "appearance_weights": [
        0.5596223473548889,
        0.5653754472732544,
        -0.06276040524244308,
        -0.06223740428686142
      ]
    },
    {
      "pose": [
        0.9782586693763733,
        0.14352834224700928,
        0.14969804883003235,
        -0.5651682615280151,
        -0.1177496686577797,
        0.9785946607589722,
        -0.16878260672092438,
        1.1120625734329224,
        -0.17071880400180817,
        0.14748616516590118,
        0.9742191433906555,
        2.650883197784424
      ],
      "intrinsics": [
        703.74169921875,
        703.74169921875,
        960.0,
        540.0
      ],
      "appearance_weights": [
        0.5365322828292847,
        0.5882904529571533,
        -0.06476159393787384,
        -0.06006115302443504
      ]
    },
    {
      "pose": [
        0.9797959923744202,
        0.14061333239078522,
        0.14222386479377747,
        -0.5382628440856934,
        -0.11617664247751236,
        0.9789937138557434,
        -0.1675538271665573,
        1.1073118448257446,
        -0.16279658675193787,
        0.1476454883813858,
        0.9755501747131348,
        2.646958112716675
      ],
      "intrinsics": [
        703.74169921875,
        703.74169921875,
        960.0,
        540.0
      ],
      "appearance_weights": [
        0.5133495926856995,
        0.6110180020332336,
        -0.06660690158605576,
        -0.05776067078113556
      ]
    },
    {
      "pose": [
        0.9812790751457214,
        0.13767294585704803,
        0.13467532396316528,
        -0.5111348628997803,
        -0.11457803100347519,
        0.9793885350227356,
        -0.16634291410446167,
        1.1025639772415161,
        -0.1548003852367401,
        0.14779800176620483,
        0.97682785987854,
        2.643040895462036
      ],
      "intrinsics": [
        703.74169921875,
        703.74169921875,
        960.0,
        540.0
      ],
      "appearance_weights": [
        0.49011650681495667,
        0.6335157752037048,
        -0.06828226894140244,
        -0.05535002052783966
      ]
    },
    {
      "pose": [
        0.9827036261558533,
        0.1347128003835678,
        0.12706702947616577,
        -0.4838356077671051,
        -0.11295711249113083,
        0.9797783493995667,
        -0.16515164077281952,
        1.0978271961212158,
        -0.14674557745456696,
        0.14794200658798218,
        0.9780485033988953,
        2.63913893699646
      ],
      "intrinsics": [
        703.74169921875,
        703.74169921875,
        960.0,
        540.0
      ],
      "appearance_weights": [
        0.46687525510787964,
        0.6557416319847107,
        -0.06977363675832748,
        -0.05284326523542404
      ]
    },
    {
      "pose": [
        0.9840656518936157,
        0.13173851370811462,
        0.11941377818584442,
        -0.45641660690307617,
        -0.1113172322511673,
        0.980162501335144,
        -0.16398169100284576,
        1.093109369277954,
        -0.13864761590957642,
        0.14807595312595367,
        0.9792090654373169,
        2.6352593898773193
      ],
      "intrinsics": [
        703.74169921875,
        703.74169921875,
        960.0,
        540.0
      ],
      "appearance_weights": [
        0.4436679482460022,
        0.677653431892395,
        -0.07106693089008331,
        -0.050254471600055695
      ]
    },
    {
      "pose": [
        0.9853619933128357,
        0.12875571846961975,
        0.11173040419816971,
        -0.4289292097091675,
        -0.10966181755065918,
        0.9805402755737305,
        -0.16283461451530457,
        1.0884186029434204,
        -0.13052205741405487,
        0.14819850027561188,
        0.9803066849708557,
        2.631408929824829
      ],
      "intrinsics": [
        703.74169921875,
        703.74169921875,
        960.0,
        540.0
      ],
      "appearance_weights": [
        0.4205368459224701,
        0.6992089748382568,
        -0.07214809954166412,
        -0.04759770259261131
      ]
    },
    {
      "pose": [
        0.9865896701812744,
        0.12577010691165924,
        0.10403184592723846,
        -0.40142491459846497,
        -0.10799434036016464,
        0.9809110760688782,
        -0.1617119163274765,
        1.083762764930725,
        -0.12238451838493347,
        0.14830847084522247,
        0.9813392162322998,
        2.6275949478149414
      ],
      "intrinsics": [
        703.74169921875,
        703.74169921875,
        960.0,
        540.0
      ],
      "appearance_weights": [
        0.3975241184234619,
        0.7203660011291504,
        -0.07300306856632233,
        -0.04488702118396759
      ]
    },
    {
      "pose": [
        0.9877464771270752,
        0.12278739362955093,
        0.09633313119411469,
        -0.3739551305770874,
        -0.10631833970546722,
        0.9812743067741394,
        -0.1606149673461914,
        1.0791501998901367,
        -0.11425072699785233,
        0.14840489625930786,
        0.9823048114776611,
        2.6238245964050293
      ],
      "intrinsics": [
        703.74169921875,
        703.74169921875,
        960.0,
        540.0
      ],
      "appearance_weights": [
        0.37467193603515625,
        0.7410823106765747,
        -0.07361777871847153,
        -0.04213649407029152
      ]
    },
    {
      "pose": [
        0.9888306260108948,
        0.11981328576803207,
        0.08864933997392654,
        -0.34657126665115356,
        -0.10463742166757584,
        0.981629490852356,
        -0.15954501926898956,
        1.074588656425476,
        -0.10613641887903214,
        0.14848698675632477,
        0.9832022786140442,
        2.620105028152466
      ],
      "intrinsics": [
        703.74169921875,
        703.74169921875,
        960.0,
        540.0
      ],
      "appearance_weights": [
        0.35202252864837646,
        0.7613158226013184,
        -0.07397817075252533,
        -0.039360180497169495
      ]
    },
    {
      "pose": [
        0.9898408651351929,
        0.11685354262590408,
        0.08099561184644699,
        -0.3193247616291046,
        -0.10295524448156357,
        0.9819760322570801,
        -0.15850326418876648,
        1.0700863599777222,
        -0.09805742651224136,
        0.14855410158634186,
        0.9840307235717773,
        2.616442918777466
      ],
      "intrinsics": [
        703.74169921875,
        703.74169921875,
        960.0,
        540.0
      ],
      "appearance_weights": [
        0.32961806654930115,
        0.7810242772102356,
        -0.07407017052173615,
        -0.03657214716076851
      ]
    },
    {
      "pose": [
        0.9907764196395874,
        0.11391393095254898,
        0.07338714599609375,
        -0.2922670543193817,
        -0.10127551853656769,
        0.9823135733604431,
        -0.15749076008796692,
        1.0656511783599854,
        -0.09002958238124847,
        0.1486058235168457,
        0.9847898483276367,
        2.6128458976745605
      ],
      "intrinsics": [
        703.74169921875,
        703.74169921875,
        960.0,
        540.0
      ],
      "appearance_weights": [
        0.3075007200241089,
        0.8001654744148254,
        -0.07387972623109818,
        -0.033786457031965256
      ]
    },
    {
      "pose": [
        0.991637110710144,
        0.11100021749734879,
        0.06583914905786514,
        -0.265449583530426,
        -0.09960200637578964,
        0.9826416373252869,
        -0.1565084606409073,
        1.0612910985946655,
        -0.08206876367330551,
        0.148641899228096,
        0.9854797720909119,
        2.609320878982544
      ],
      "intrinsics": [
        703.74169921875,
        703.74169921875,
        960.0,
        540.0
      ],
      "appearance_weights": [
        0.28571271896362305,
        0.8186972141265869,
        -0.07339275628328323,
        -0.031017178669571877
      ]
    },
    {
      "pose": [
        0.9924231767654419,
        0.10811819136142731,
        0.05836687609553337,
        -0.23892375826835632,
        -0.09793850779533386,
        0.9829598069190979,
        -0.15555723011493683,
        1.0570144653320312,
        -0.07419086247682571,
        0.1486622542142868,
        0.9861010313034058,
        2.605875015258789
      ],
      "intrinsics": [
        703.74169921875,
        703.74169921875,
        960.0,
        540.0
      ],
      "appearance_weights": [
        0.2642962634563446,
        0.8365773558616638,
        -0.07259521633386612,
        -0.028278369456529617
      ]
    },
    {
      "pose": [
        0.993135392665863,
        0.10527364909648895,
        0.05098557844758034,
        -0.21274103224277496,
        -0.09628887474536896,
        0.9832678437232971,
        -0.15463782846927643,
        1.0528289079666138,
        -0.06641177088022232,
        0.14866696298122406,
        0.9866547584533691,
        2.60251522064209
      ],
      "intrinsics": [
        703.74169921875,
        703.74169921875,
        960.0,
        540.0
      ],
      "appearance_weights": [
        0.24329349398612976,
        0.8537636399269104,
        -0.07147303223609924,
        -0.02558409608900547
      ]
    },
    {
      "pose": [
        0.9937750101089478,
        0.10247237980365753,
        0.04371052235364914,
        -0.18695279955863953,
        -0.09465698152780533,
        0.9835653305053711,
        -0.15375091135501862,
        1.0487427711486816,
        -0.05874737724661827,
        0.14865632355213165,
        0.9871423840522766,
        2.5992488861083984
      ],
      "intrinsics": [
        703.74169921875,
        703.74169921875,
        960.0,
        540.0
      ],
      "appearance_weights": [
        0.22274664044380188,
        0.8702139258384705,
        -0.07001213729381561,
        -0.02294842153787613
      ]
    },
    {
      "pose": [
        0.9943436980247498,
        0.09972017258405685,
        0.03655695915222168,
        -0.16161051392555237,
        -0.09304673969745636,
        0.9838520288467407,
        -0.15289703011512756,
        1.0447639226913452,
        -0.05121355876326561,
        0.14863070845603943,
        0.9875657558441162,
        2.596082925796509
      ],
      "intrinsics": [
        703.74169921875,
        703.74169921875,
        960.0,
        540.0
      ],
      "appearance_weights": [
        0.20269787311553955,
        0.885886013507843,
        -0.06819847226142883,
        -0.020385412499308586
      ]
    },
    {
      "pose": [
        0.9948436617851257,
        0.09702282398939133,
        0.029540125280618668,
        -0.13676561415195465,
        -0.09146209061145782,
        0.9841277599334717,
        -0.15207667648792267,
        1.0409003496170044,
        -0.04382616654038429,
        0.14859072864055634,
        0.9879271388053894,
        2.593024730682373
      ],
      "intrinsics": [
        703.74169921875,
        703.74169921875,
        960.0,
        540.0
      ],
      "appearance_weights": [
        0.18318940699100494,
        0.9007377028465271,
        -0.06601797044277191,
        -0.017909130081534386
      ]
    },
    {
      "pose": [
        0.9952773451805115,
        0.09438611567020416,
        0.02267524041235447,
        -0.11246950924396515,
        -0.08990700542926788,
        0.9843922257423401,
        -0.15129022300243378,
        1.0371602773666382,
        -0.036601029336452484,
        0.14853708446025848,
        0.9882292747497559,
        2.590080976486206
      ],
      "intrinsics": [
        703.74169921875,
        703.74169921875,
        960.0,
        540.0
      ],
      "appearance_weights": [
        0.16426342725753784,
        0.9147267937660217,
        -0.06345657259225845,
        -0.015533640049397945
      ]
    },
    {
      "pose": [
        0.9956477880477905,
        0.09181582927703857,
        0.015977485105395317,
        -0.08877364546060562,
        -0.08838547021150589,
        0.9846453070640564,
        -0.15053796768188477,
        1.033551573753357,
        -0.02955392561852932,
        0.14847062528133392,
        0.9884751439094543,
        2.58725905418396
      ],
      "intrinsics": [
        703.74169921875,
        703.74169921875,
        960.0,
        540.0
      ],
      "appearance_weights": [
        0.14596211910247803,
        0.9278110861778259,
        -0.060500212013721466,
        -0.013273005373775959
      ]
    },
    {
      "pose": [
        0.9959582090377808,
        0.08931771665811539,
        0.009462006390094757,
        -0.06572943925857544,
        -0.0869014784693718,
        0.9848868250846863,
        -0.14982011914253235,
        1.0300822257995605,
        -0.0227005984634161,
        0.14839233458042145,
        0.9886680245399475,
        2.5845658779144287
      ],
      "intrinsics": [
        703.74169921875,
        703.74169921875,
        960.0,
        540.0
      ],
      "appearance_weights": [
        0.12832766771316528,
        0.9399484395980835,
        -0.057134825736284256,
        -0.01114129088819027
      ]
    },
    {
      "pose": [
        0.9962122440338135,
        0.08689755201339722,
        0.003143907990306616,
        -0.043388329446315765,
        -0.08545905351638794,
        0.985116720199585,
        -0.14913684129714966,
        1.026760458946228,
        -0.016056744381785393,
        0.14830328524112701,
        0.9888115525245667,
        2.5820088386535645
      ],
      "intrinsics": [
        703.74169921875,
        703.74169921875,
        960.0,
        540.0
      ],
      "appearance_weights": [
        0.11140228807926178,
        0.9510965943336487,
        -0.05334634706377983,
        -0.00915255956351757
      ]
    },
    {
      "pose": [
        0.9964138865470886,
        0.0845610648393631,
        -0.002961755497381091,
        -0.021801741793751717,
        -0.08406220376491547,
        0.9853348731994629,
        -0.14848819375038147,
        1.0235941410064697,
        -0.009638000279664993,
        0.14820468425750732,
        0.9889097809791565,
        2.579594850540161
      ],
      "intrinsics": [
        703.74169921875,
        703.74169921875,
        960.0,
        540.0
      ],
      "appearance_weights": [
        0.0952281504869461,
        0.9612134099006653,
        -0.0491207130253315,
        -0.007320875767618418
      ]
    },
    {
      "pose": [
        0.9965671896934509,
        0.08231397718191147,
        -0.008839978836476803,
        -0.0010211102198809385,
        -0.08271495997905731,
        0.9855412244796753,
        -0.14787422120571136,
        1.020591378211975,
        -0.0034599537029862404,
        0.14809781312942505,
        0.988966703414917,
        2.577331304550171
      ],
      "intrinsics": [
        703.74169921875,
        703.74169921875,
        960.0,
        540.0
      ],
      "appearance_weights": [
        0.07984745502471924,
        0.9702566862106323,
        -0.04444386065006256,
        -0.005660302937030792
      ]
    },
    {
      "pose": [
        0.9966766834259033,
        0.08016201853752136,
        -0.014475812204182148,
        0.018902137875556946,
        -0.08142135292291641,
        0.9857356548309326,
        -0.14729487895965576,
        1.017760157585144,
        0.0024618683382868767,
        0.14798402786254883,
        0.9889866709709167,
        2.5752248764038086
      ],
      "intrinsics": [
        703.74169921875,
        703.74169921875,
        960.0,
        540.0
      ],
      "appearance_weights": [
        0.06530239433050156,
        0.9781842231750488,
        -0.03930172696709633,
        -0.004184906370937824
      ]
    },
    {
      "pose": [
        0.9967469573020935,
        0.07811086624860764,
        -0.019854357466101646,
        0.03791657090187073,
        -0.08018539845943451,
        0.9859182238578796,
        -0.14675010740756989,
        1.0151084661483765,
        0.008111993782222271,
        0.14786475896835327,
        0.9889743328094482,
        2.5732827186584473
      ],
      "intrinsics": [
        703.74169921875,
        703.74169921875,
        960.0,
        540.0
      ],
      "appearance_weights": [
        0.05163515731692314,
        0.9849538207054138,
        -0.03368024528026581,
        -0.00290874857455492
      ]
    },
    {
      "pose": [
        0.996782660484314,
        0.07616621255874634,
        -0.024960771203041077,
        0.05597076192498207,
        -0.07901111245155334,
        0.9860888123512268,
        -0.14623978734016418,
        1.0126444101333618,
        0.013475007377564907,
        0.14774146676063538,
        0.9889342188835144,
        2.571512460708618
      ],
      "intrinsics": [
        703.74169921875,
        703.74169921875,
        960.0,
        540.0
      ],
      "appearance_weights": [
        0.03888794034719467,
        0.9905233383178711,
        -0.027565356343984604,
        -0.001845894381403923
      ]
    },
    {
      "pose": [
        0.9967886209487915,
        0.07433371990919113,
        -0.02978026680648327,
        0.07301327586174011,
        -0.07790249586105347,
        0.9862474799156189,
        -0.14576378464698792,
        1.0103759765625,
        0.018535548821091652,
        0.14761565625667572,
        0.9888710975646973,
        2.569920539855957
      ],
      "intrinsics": [
        703.74169921875,
        703.74169921875,
        960.0,
        540.0
      ],
      "appearance_weights": [
        0.02710293047130108,
        0.9948504567146301,
        -0.020942989736795425,
        -0.0010104073444381356
      ]
    },
    {
      "pose": [
        0.9967697858810425,
        0.07261904329061508,
        -0.03429810330271721,
        0.08899268507957458,
        -0.07686355710029602,
        0.9863942265510559,
        -0.14532196521759033,
        1.0083112716674805,
        0.023278307169675827,
        0.14748883247375488,
        0.9887897372245789,
        2.568514585494995
      ],
      "intrinsics": [
        703.74169921875,
        703.74169921875,
        960.0,
        540.0
      ],
      "appearance_weights": [
        0.016322320327162743,
        0.9978930950164795,
        -0.013799085281789303,
        -0.0004163517151027918
      ]
    },
    {
      "pose": [
        0.9967310428619385,
        0.07102783024311066,
        -0.03849959000945091,
        0.10385756194591522,
        -0.07589825242757797,
        0.9865289330482483,
        -0.1449141800403595,
        1.0064582824707031,
        0.02768801897764206,
        0.14736251533031464,
        0.988694965839386,
        2.5673015117645264
      ],
      "intrinsics": [
        703.74169921875,
        703.74169921875,
        960.0,
        540.0
      ],
      "appearance_weights": [
        0.006588304415345192,
        0.9996090531349182,
        -0.006119579076766968,
        -7.779126462992281e-05
      ]
    },
    {
      "pose": [
        0.996677041053772,
        0.06956270337104797,
        -0.04237803816795349,
        0.11758466809988022,
        -0.07500872015953064,
        0.9866519570350647,
        -0.14453953504562378,
        1.004821538925171,
        0.031757812947034836,
        0.14723797142505646,
        0.9885911345481873,
        2.566286325454712
      ],
      "intrinsics": [
        703.74169921875,
        703.74169921875,
        960.0,
        540.0
      ],
      "appearance_weights": [
        -0.0020745801739394665,
        0.9999563694000244,
        0.002126953797414899,
        -8.71672364155529e-06
      ]
    },
    {
      "pose": [
        0.9966087341308594,
        0.06816141307353973,
        -0.046098239719867706,
        0.13075773417949677,
        -0.07415755093097687,
        0.9867686629295349,
        -0.14418162405490875,
        1.003333330154419,
        0.035660672932863235,
        0.1471112072467804,
        0.9884769320487976,
        2.5654282569885254
      ],
      "intrinsics": [
        703.74169921875,
        703.74169921875,
        960.0,
        540.0
      ],
      "appearance_weights": [
        -0.010027161799371243,
        0.9989195466041565,
        0.01132185198366642,
        -0.00021425558952614665
      ]
    },
    {
      "pose": [
        0.9965264201164246,
        0.06679663807153702,
        -0.049732089042663574,
        0.14363141357898712,
        -0.07332822680473328,
        0.9868813753128052,
        -0.14383389055728912,
        1.0019618272781372,
        0.039472050964832306,
        0.14698106050491333,
        0.9883514046669006,
        2.564706325531006
      ],
      "intrinsics": [
        703.74169921875,
        703.74169921875,
        960.0,
        540.0
      ],
      "appearance_weights": [
        -0.017437109723687172,
        0.9965350031852722,
        0.021584438160061836,
        -0.0006823216681368649
      ]
    },
    {
      "pose": [
        0.9964311718940735,
        0.06546749174594879,
        -0.05328139662742615,
        0.15621210634708405,
        -0.07252027094364166,
        0.9869901537895203,
        -0.1434965282678604,
        1.000704288482666,
        0.04319385811686516,
        0.1468484103679657,
        0.9882155060768127,
        2.5641167163848877
      ],
      "intrinsics": [
        703.74169921875,
        703.74169921875,
        960.0,
        540.0
      ],
      "appearance_weights": [
        -0.02431848645210266,
        0.992844820022583,
        0.0328725203871727,
        -0.0013988509308546782
      ]
    },
    {
      "pose": [
        0.9963239431381226,
        0.06417307257652283,
        -0.05674797296524048,
        0.1685061752796173,
        -0.07173320651054382,
        0.9870951175689697,
        -0.14316971600055695,
        0.9995580911636353,
        0.0468280054628849,
        0.14671413600444794,
        0.9880698919296265,
        2.563655376434326
      ],
      "intrinsics": [
        703.74169921875,
        703.74169921875,
        960.0,
        540.0
      ],
      "appearance_weights": [
        -0.03068535588681698,
        0.9878911972045898,
        0.04514390975236893,
        -0.002349779475480318
      ]
    },
    {
      "pose": [
        0.996205747127533,
        0.0629124864935875,
        -0.06013362854719162,
        0.18052001297473907,
        -0.07096654176712036,
        0.9871963262557983,
        -0.14285364747047424,
        0.9985204339027405,
        0.050376418977975845,
        0.14657911658287048,
        0.9879153966903687,
        2.5633182525634766
      ],
      "intrinsics": [
        703.74169921875,
        703.74169921875,
        960.0,
        540.0
      ],
      "appearance_weights": [
        -0.036551784723997116,
        0.9817163944244385,
        0.05835641175508499,
        -0.0035210433416068554
      ]
    },
    {
      "pose": [
        0.9960774183273315,
        0.06168483570218086,
        -0.06344018876552582,
        0.1922599971294403,
        -0.07021980732679367,
        0.9872938394546509,
        -0.1425485759973526,
        0.997588574886322,
        0.05384102091193199,
        0.1464441865682602,
        0.9877526164054871,
        2.5631017684936523
      ],
      "intrinsics": [
        703.74169921875,
        703.74169921875,
        960.0,
        540.0
      ],
      "appearance_weights": [
        -0.04193183407187462,
        0.9743625521659851,
        0.07246783375740051,
        -0.0048985788598656654
      ]
    },
    {
      "pose": [
        0.9959398508071899,
        0.060489214956760406,
        -0.06666947156190872,
        0.20373252034187317,
        -0.06949249655008316,
        0.9873876571655273,
        -0.14225469529628754,
        0.996759831905365,
        0.057223737239837646,
        0.14631016552448273,
        0.9875823259353638,
        2.563002109527588
      ],
      "intrinsics": [
        703.74169921875,
        703.74169921875,
        960.0,
        540.0
      ],
      "appearance_weights": [
        -0.04683956876397133,
        0.9658719301223755,
        0.08743598312139511,
        -0.006468321196734905
      ]
    },
    {
      "pose": [
        0.9957937598228455,
        0.059324711561203,
        -0.06982330232858658,
        0.21494396030902863,
        -0.06878413259983063,
        0.9874778985977173,
        -0.14197225868701935,
        0.9960314631462097,
        0.06052650883793831,
        0.14617784321308136,
        0.987405002117157,
        2.5630152225494385
      ],
      "intrinsics": [
        703.74169921875,
        703.74169921875,
        960.0,
        540.0
      ],
      "appearance_weights": [
        -0.05128905177116394,
        0.956286609172821,
        0.103218674659729,
        -0.008216207846999168
      ]
    },
    {
      "pose": [
        0.9956399202346802,
        0.05819041281938553,
        -0.07290351390838623,
        0.22590069472789764,
        -0.06809422373771667,
        0.9875646233558655,
        -0.14170150458812714,
        0.9954007863998413,
        0.06375126540660858,
        0.14604800939559937,
        0.9872212409973145,
        2.5631370544433594
      ],
      "intrinsics": [
        703.74169921875,
        703.74169921875,
        960.0,
        540.0
      ],
      "appearance_weights": [
        -0.055294349789619446,
        0.9456487894058228,
        0.11977370828390121,
        -0.010128173045814037
      ]
    },
    {
      "pose": [
        0.9954790472984314,
        0.05708539858460426,
        -0.07591193914413452,
        0.23660913109779358,
        -0.06742227077484131,
        0.9876478314399719,
        -0.14144271612167358,
        0.9948649406433105,
        0.06689994782209396,
        0.14592142403125763,
        0.9870315790176392,
        2.563364028930664
      ],
      "intrinsics": [
        703.74169921875,
        703.74169921875,
        960.0,
        540.0
      ],
      "appearance_weights": [
        -0.05886952579021454,
        0.9340007901191711,
        0.13705889880657196,
        -0.012190154753625393
      ]
    },
    {
      "pose": [
        0.9953117966651917,
        0.056008752435445786,
        -0.0788504034280777,
        0.2470756322145462,
        -0.06676777452230453,
        0.9877275824546814,
        -0.1411961317062378,
        0.9944213628768921,
        0.06997449696063995,
        0.14579886198043823,
        0.9868364930152893,
        2.563692331314087
      ],
      "intrinsics": [
        703.74169921875,
        703.74169921875,
        960.0,
        540.0
      ],
      "appearance_weights": [
        -0.06202864274382591,
        0.9213846921920776,
        0.15503205358982086,
        -0.014388087205588818
      ]
    },
    {
      "pose": [
        0.9951387643814087,
        0.05495954677462578,
        -0.0817207470536232,
        0.2573065757751465,
        -0.06613025069236755,
        0.9878038763999939,
        -0.14096204936504364,
        0.9940672516822815,
        0.07297686487436295,
        0.14568102359771729,
        0.9866364002227783,
        2.564117670059204
      ],
      "intrinsics": [
        703.74169921875,
        703.74169921875,
        960.0,
        540.0
      ],
      "appearance_weights": [
        -0.06478576362133026,
        0.9078426957130432,
        0.17365096509456635,
        -0.016707908362150192
      ]
    },
    {
      "pose": [
        0.9949604868888855,
        0.05393686145544052,
        -0.08452481031417847,
        0.2673083543777466,
        -0.06550919264554977,
        0.987876832485199,
        -0.1407407522201538,
        0.9937998652458191,
        0.07590898871421814,
        0.1455686390399933,
        0.9864317774772644,
        2.564636468887329
      ],
      "intrinsics": [
        703.74169921875,
        703.74169921875,
        960.0,
        540.0
      ],
      "appearance_weights": [
        -0.06715495139360428,
        0.8934170603752136,
        0.19287347793579102,
        -0.019135551527142525
      ]
    },
    {
      "pose": [
        0.994777500629425,
        0.0529397651553154,
        -0.08726442605257034,
        0.27708736062049866,
        -0.0649041011929512,
        0.9879463911056519,
        -0.14053252339363098,
        0.9936164617538452,
        0.07877281308174133,
        0.14546242356300354,
        0.9862228631973267,
        2.5652449131011963
      ],
      "intrinsics": [
        703.74169921875,
        703.74169921875,
        960.0,
        540.0
      ],
      "appearance_weights": [
        -0.06915027648210526,
        0.8781498670578003,
        0.2126573622226715,
        -0.021656954661011696
      ]
    },
    {
      "pose": [
        0.9945902824401855,
        0.051967326551675797,
        -0.08994143456220627,
        0.2866499722003937,
        -0.06431446224451065,
        0.9880126714706421,
        -0.14033769071102142,
        0.9935144186019897,
        0.08157029747962952,
        0.14536306262016296,
        0.9860100746154785,
        2.565938949584961
      ],
      "intrinsics": [
        703.74169921875,
        703.74169921875,
        960.0,
        540.0
      ],
      "appearance_weights": [
        -0.07078579813241959,
        0.8620834350585938,
        0.23296043276786804,
        -0.024258054792881012
      ]
    },
    {
      "pose": [
        0.99439936876297,
        0.051018618047237396,
        -0.09255766868591309,
        0.2960025668144226,
        -0.06373979151248932,
        0.9880756139755249,
        -0.140156552195549,
        0.9934908747673035,
        0.08430338650941849,
        0.1452711969614029,
        0.9857937097549438,
        2.5667150020599365
      ],
      "intrinsics": [
        703.74169921875,
        703.74169921875,
        960.0,
        540.0
      ],
      "appearance_weights": [
        -0.07207558304071426,
        0.8452598452568054,
        0.253740519285202,
        -0.02692478708922863
      ]
    },
    {
      "pose": [
        0.994205117225647,
        0.050092700868844986,
        -0.09511498361825943,
        0.3051515221595764,
        -0.06317956745624542,
        0.9881352782249451,
        -0.13998942077159882,
        0.9935432076454163,
        0.08697401732206345,
        0.14518752694129944,
        0.9855740070343018,
        2.567568778991699
      ],
      "intrinsics": [
        703.74169921875,
        703.74169921875,
        960.0,
        540.0
      ],
      "appearance_weights": [
        -0.07303369045257568,
        0.827721357345581,
        0.2749554216861725,
        -0.029643084853887558
      ]
    },
    {
      "pose": [
        0.9940078854560852,
        0.04918864741921425,
        -0.09761520475149155,
        0.31410324573516846,
        -0.06263329088687897,
        0.9881916642189026,
        -0.1398366391658783,
        0.9936686754226685,
        0.08958415687084198,
        0.14511269330978394,
        0.9853512048721313,
        2.5684964656829834
      ],
      "intrinsics": [
        703.74169921875,
        703.74169921875,
        960.0,
        540.0
      ],
      "appearance_weights": [
        -0.07367418706417084,
        0.8095101714134216,
        0.29656291007995605,
        -0.03239888697862625
      ]
    },
    {
      "pose": [
        0.9938080906867981,
        0.04830551892518997,
        -0.10006017237901688,
        0.3228641152381897,
        -0.06210045516490936,
        0.9882448315620422,
        -0.13969852030277252,
        0.9938644766807556,
        0.09213574230670929,
        0.14504732191562653,
        0.9851255416870117,
        2.5694944858551025
      ],
      "intrinsics": [
        703.74169921875,
        703.74169921875,
        960.0,
        540.0
      ],
      "appearance_weights": [
        -0.07401113212108612,
        0.7906684279441833,
        0.3185208737850189,
        -0.035178132355213165
      ]
    },
    {
      "pose": [
        0.9936059713363647,
        0.047442372888326645,
        -0.10245173424482346,
        0.3314405083656311,
        -0.061580538749694824,
        0.988294780254364,
        -0.13957543671131134,
        0.9941279888153076,
        0.09463072568178177,
        0.14499202370643616,
        0.9848971366882324,
        2.570558786392212
      ],
      "intrinsics": [
        703.74169921875,
        703.74169921875,
        960.0,
        540.0
      ],
      "appearance_weights": [
        -0.07405859977006912,
        0.7712383270263672,
        0.34078702330589294,
        -0.03796675056219101
      ]
    },
    {
      "pose": [
        0.993401825428009,
        0.04659828171133995,
        -0.10479173064231873,
        0.33983877301216125,
        -0.06107303872704506,
        0.9883414506912231,
        -0.13946770131587982,
        0.99445641040802,
        0.09707105904817581,
        0.14494743943214417,
        0.9846661686897278,
        2.571685552597046
      ],
      "intrinsics": [
        703.74169921875,
        703.74169921875,
        960.0,
        540.0
      ],
      "appearance_weights": [
        -0.07383064925670624,
        0.7512620687484741,
        0.3633192479610443,
        -0.04075068235397339
      ]
    },
    {
      "pose": [
        0.9931960105895996,
        0.04577229917049408,
        -0.10708199441432953,
        0.3480653464794159,
        -0.06057744473218918,
        0.9883849620819092,
        -0.139375701546669,
        0.9948469996452332,
        0.09945868700742722,
        0.1449141502380371,
        0.9844327569007874,
        2.5728707313537598
      ],
      "intrinsics": [
        703.74169921875,
        703.74169921875,
        960.0,
        540.0
      ],
      "appearance_weights": [
        -0.07334133982658386,
        0.7307818531990051,
        0.38607531785964966,
        -0.04351586103439331
      ]
    },
    {
      "pose": [
        0.992988646030426,
        0.04496348649263382,
        -0.1093243658542633,
        0.356126606464386,
        -0.0600932352244854,
        0.9884251952171326,
        -0.13929978013038635,
        0.9952971339225769,
        0.10179555416107178,
        0.14489275217056274,
        0.9841970205307007,
        2.574110746383667
      ],
      "intrinsics": [
        703.74169921875,
        703.74169921875,
        960.0,
        540.0
      ],
      "appearance_weights": [
        -0.07260473817586899,
        0.709839940071106,
        0.4090130627155304,
        -0.04624822363257408
      ]
    },
    {
      "pose": [
        0.9927799701690674,
        0.04417090490460396,
        -0.1115206778049469,
        0.3640289008617401,
        -0.05961989983916283,
        0.9884622693061829,
        -0.1392402946949005,
        0.995803952217102,
        0.10408361256122589,
        0.14488384127616882,
        0.9839590191841125,
        2.5754013061523438
      ],
      "intrinsics": [
        703.74169921875,
        703.74169921875,
        960.0,
        540.0
      ],
      "appearance_weights": [
        -0.07163491100072861,
        0.6884783506393433,
        0.43209025263786316,
        -0.04893370717763901
      ]
    },
    {
      "pose": [
        0.9925701022148132,
        0.043393611907958984,
        -0.11367277055978775,
        0.371778666973114,
        -0.05915692076086998,
        0.9884960651397705,
        -0.13919763267040253,
        0.9963648915290833,
        0.10632480680942535,
        0.14488795399665833,
        0.983718752861023,
        2.5767388343811035
      ],
      "intrinsics": [
        703.74169921875,
        703.74169921875,
        960.0,
        540.0
      ],
      "appearance_weights": [
        -0.07044591754674911,
        0.6667394638061523,
        0.45526471734046936,
        -0.0515582449734211
      ]
    },
    {
      "pose": [
        0.9923592805862427,
        0.042630668729543686,
        -0.1157824844121933,
        0.3793822228908539,
        -0.05870378389954567,
        0.9885267019271851,
        -0.13917216658592224,
        0.9969770312309265,
        0.10852107405662537,
        0.1449056714773178,
        0.9834762811660767,
        2.5781195163726807
      ],
      "intrinsics": [
        703.74169921875,
        703.74169921875,
        960.0,
        540.0
      ],
      "appearance_weights": [
        -0.0690518319606781,
        0.6446653604507446,
        0.478494256734848,
        -0.054107777774333954
      ]
    },
    {
      "pose": [
        0.9921476244926453,
        0.041881125420331955,
        -0.11785165220499039,
        0.38684600591659546,
        -0.05825997143983841,
        0.988554060459137,
        -0.1391642689704895,
        0.9976378083229065,
        0.11067437380552292,
        0.14493754506111145,
        0.9832315444946289,
        2.5795392990112305
      ],
      "intrinsics": [
        703.74169921875,
        703.74169921875,
        960.0,
        540.0
      ],
      "appearance_weights": [
        -0.06746670603752136,
        0.6222982406616211,
        0.5017367005348206,
        -0.05656823888421059
      ]
    },
    {
      "pose": [
        0.9919351935386658,
        0.041144050657749176,
        -0.11988209933042526,
        0.3941763639450073,
        -0.05782496556639671,
        0.988578200340271,
        -0.13917434215545654,
        0.9983444213867188,
        0.11278662830591202,
        0.14498412609100342,
        0.9829846620559692,
        2.5809943675994873
      ],
      "intrinsics": [
        703.74169921875,
        703.74169921875,
        960.0,
        540.0
      ],
      "appearance_weights": [
        -0.06570460647344589,
        0.5996803045272827,
        0.524949848651886,
        -0.058925561606884
      ]
    },
    {
      "pose": [
        0.991722047328949,
        0.04041849076747894,
        -0.12187565863132477,
        0.40137970447540283,
        -0.057398244738578796,
        0.9885990619659424,
        -0.1392027735710144,
        0.9990941286087036,
        0.11485979706048965,
        0.1450459212064743,
        0.9827354550361633,
        2.5824809074401855
      ],
      "intrinsics": [
        703.74169921875,
        703.74169921875,
        960.0,
        540.0
      ],
      "appearance_weights": [
        -0.06377960741519928,
        0.5768537521362305,
        0.5480915307998657,
        -0.06116568669676781
      ]
    },
    {
      "pose": [
        0.9915083050727844,
        0.039703503251075745,
        -0.12383417040109634,
        0.40846240520477295,
        -0.05697929486632347,
        0.9886166453361511,
        -0.13924996554851532,
        0.999884307384491,
        0.11689580976963043,
        0.14512348175048828,
        0.9824838638305664,
        2.5839948654174805
      ],
      "intrinsics": [
        703.74169921875,
        703.74169921875,
        960.0,
        540.0
      ],
      "appearance_weights": [
        -0.061705756932497025,
        0.5538608431816101,
        0.571119487285614,
        -0.06327454745769501
      ]
    },
    {
      "pose": [
        0.9912939071655273,
        0.03899814561009407,
        -0.12575945258140564,
        0.41543081402778625,
        -0.056567590683698654,
        0.9886309504508972,
        -0.13931630551815033,
        1.0007120370864868,
        0.11889661103487015,
        0.14521732926368713,
        0.9822298884391785,
        2.5855326652526855
      ],
      "intrinsics": [
        703.74169921875,
        703.74169921875,
        960.0,
        540.0
      ],
      "appearance_weights": [
        -0.059497129172086716,
        0.5307435989379883,
        0.5939915776252747,
        -0.06523808091878891
      ]
    },
    {
      "pose": [
        0.9910789728164673,
        0.03830147162079811,
        -0.1276533454656601,
        0.4222913980484009,
        -0.05616261810064316,
        0.9886419177055359,
        -0.13940219581127167,
        1.0015748739242554,
        0.120864138007164,
        0.14532795548439026,
        0.9819733500480652,
        2.587090015411377
      ],
      "intrinsics": [
        703.74169921875,
        703.74169921875,
        960.0,
        540.0
      ],
      "appearance_weights": [
        -0.05716778710484505,
        0.5075443983078003,
        0.6166656017303467,
        -0.06704222410917282
      ]
    },
    {
      "pose": [
        0.9908635020256042,
        0.03761253505945206,
        -0.12951765954494476,
        0.429050475358963,
        -0.055763859301805496,
        0.9886495471000671,
        -0.13950806856155396,
        1.002469778060913,
        0.1228003278374672,
        0.14545586705207825,
        0.9817141890525818,
        2.5886635780334473
      ],
      "intrinsics": [
        703.74169921875,
        703.74169921875,
        960.0,
        540.0
      ],
      "appearance_weights": [
        -0.05473179370164871,
        0.48430532217025757,
        0.6390993595123291,
        -0.06867291033267975
      ]
    },
    {
      "pose": [
        0.9906473755836487,
        0.0369303897023201,
        -0.1313542276620865,
        0.4357144236564636,
        -0.05537078529596329,
        0.988653838634491,
        -0.13963431119918823,
        1.0033942461013794,
        0.12470711022615433,
        0.1456015557050705,
        0.9814521670341492,
        2.5902488231658936
      ],
      "intrinsics": [
        703.74169921875,
        703.74169921875,
        960.0,
        540.0
      ],
      "appearance_weights": [
        -0.052203211933374405,
        0.46106860041618347,
        0.6612507104873657,
        -0.0701160803437233
      ]
    },
    {
      "pose": [
        0.9904305934906006,
        0.03625408560037613,
        -0.13316486775875092,
        0.44228965044021606,
        -0.05498288571834564,
        0.9886546730995178,
        -0.13978135585784912,
        1.004345417022705,
        0.1265864223241806,
        0.1457655280828476,
        0.9811872243881226,
        2.5918424129486084
      ],
      "intrinsics": [
        703.74169921875,
        703.74169921875,
        960.0,
        540.0
      ],
      "appearance_weights": [
        -0.04959610477089882,
        0.4378764033317566,
        0.6830773949623108,
        -0.07135765999555588
      ]
    },
    {
      "pose": [
        0.9902130961418152,
        0.03558267280459404,
        -0.1349513977766037,
        0.4487825632095337,
        -0.054599639028310776,
        0.9886521100997925,
        -0.13994961977005005,
        1.00532066822052,
        0.12844020128250122,
        0.14594826102256775,
        0.9809190630912781,
        2.593440294265747
      ],
      "intrinsics": [
        703.74169921875,
        703.74169921875,
        960.0,
        540.0
      ],
      "appearance_weights": [
        -0.04692453891038895,
        0.4147709310054779,
        0.7045372128486633,
        -0.07238359749317169
      ]
    },
    {
      "pose": [
        0.9899948239326477,
        0.03491520509123802,
        -0.13671563565731049,
        0.4551995098590851,
        -0.0542205274105072,
        0.9886460900306702,
        -0.14013953506946564,
        1.0063172578811646,
        0.13027037680149078,
        0.14615021646022797,
        0.980647623538971,
        2.595038652420044
      ],
      "intrinsics": [
        703.74169921875,
        703.74169921875,
        960.0,
        540.0
      ],
      "appearance_weights": [
        -0.04420257732272148,
        0.3917943835258484,
        0.7255880236625671,
        -0.07317981868982315
      ]
    },
    {
      "pose": [
        0.9897756576538086,
        0.03425072878599167,
        -0.13845938444137573,
        0.4615468680858612,
        -0.053845033049583435,
        0.9886365532875061,
        -0.14035150408744812,
        1.007332444190979,
        0.1320788711309433,
        0.14637187123298645,
        0.9803726077079773,
        2.5966334342956543
      ],
      "intrinsics": [
        703.74169921875,
        703.74169921875,
        960.0,
        540.0
      ],
      "appearance_weights": [
        -0.04144428297877312,
        0.36898893117904663,
        0.7461876273155212,
        -0.07373227179050446
      ]
    },
    {
      "pose": [
        0.9895554780960083,
        0.03358829393982887,
        -0.14018449187278748,
        0.4678310453891754,
        -0.05347263813018799,
        0.9886234402656555,
        -0.1405859887599945,
        1.0083633661270142,
        0.13386762142181396,
        0.1466136872768402,
        0.9800938367843628,
        2.5982208251953125
      ],
      "intrinsics": [
        703.74169921875,
        703.74169921875,
        960.0,
        540.0
      ],
      "appearance_weights": [
        -0.038663722574710846,
        0.346396803855896,
        0.7662938237190247,
        -0.07402688264846802
      ]
    },
    {
      "pose": [
        0.989334225654602,
        0.03292694315314293,
        -0.14189273118972778,
        0.4740584194660187,
        -0.053102828562259674,
        0.9886067509651184,
        -0.14084339141845703,
        1.0094075202941895,
        0.13563856482505798,
        0.14687611162662506,
        0.9798110127449036,
        2.599797010421753
      ],
      "intrinsics": [
        703.74169921875,
        703.74169921875,
        960.0,
        540.0
      ],
      "appearance_weights": [
        -0.03587495535612106,
        0.3240601420402527,
        0.7858644127845764,
        -0.07404959201812744
      ]
    },
    {
      "pose": [
        0.9891117215156555,
        0.03226572275161743,
        -0.1435859203338623,
        0.48023536801338196,
        -0.052735090255737305,
        0.9885863661766052,
        -0.1411241739988327,
        1.0104620456695557,
        0.13739360868930817,
        0.147159606218338,
        0.9795238971710205,
        2.60135817527771
      ],
      "intrinsics": [
        703.74169921875,
        703.74169921875,
        960.0,
        540.0
      ],
      "appearance_weights": [
        -0.03309205174446106,
        0.30202120542526245,
        0.8048571944236755,
        -0.07378633320331573
      ]
    },
    {
      "pose": [
        0.9888877272605896,
        0.031603679060935974,
        -0.1452658772468567,
        0.4863682687282562,
        -0.05236891284584999,
        0.988562285900116,
        -0.14142876863479614,
        1.0115243196487427,
        0.1391347050666809,
        0.14746461808681488,
        0.9792322516441345,
        2.602900266647339
      ],
      "intrinsics": [
        703.74169921875,
        703.74169921875,
        960.0,
        540.0
      ],
      "appearance_weights": [
        -0.03032906912267208,
        0.2803221344947815,
        0.823229968547821,
        -0.0732230395078659
      ]
    },
    {
      "pose": [
        0.9886621832847595,
        0.030939847230911255,
        -0.1469343900680542,
        0.49246352910995483,
        -0.052003778517246246,
        0.9885344505310059,
        -0.14175762236118317,
        1.0125914812088013,
        0.14086374640464783,
        0.1477915644645691,
        0.9789356589317322,
        2.604419469833374
      ],
      "intrinsics": [
        703.74169921875,
        703.74169921875,
        960.0,
        540.0
      ],
      "appearance_weights": [
        -0.02760007604956627,
        0.2590051293373108,
        0.8409405946731567,
        -0.07234565168619156
      ]
    },
    {
      "pose": [
        0.988434910774231,
        0.03027327172458172,
        -0.1485932469367981,
        0.49852752685546875,
        -0.05163918435573578,
        0.9885028004646301,
        -0.1421111673116684,
        1.0136609077453613,
        0.14258268475532532,
        0.14814089238643646,
        0.9786339998245239,
        2.605912208557129
      ],
      "intrinsics": [
        703.74169921875,
        703.74169921875,
        960.0,
        540.0
      ],
      "appearance_weights": [
        -0.024919133633375168,
        0.23811239004135132,
        0.8579468727111816,
        -0.0711401104927063
      ]
    },
    {
      "pose": [
        0.98820561170578,
        0.029602989554405212,
        -0.15024426579475403,
        0.5045666098594666,
        -0.0512746199965477,
        0.988467276096344,
        -0.14248986542224884,
        1.0147298574447632,
        0.1442934274673462,
        0.14851301908493042,
        0.9783267974853516,
        2.6073741912841797
      ],
      "intrinsics": [
        703.74169921875,
        703.74169921875,
        960.0,
        540.0
      ],
      "appearance_weights": [
        -0.02230030857026577,
        0.21768610179424286,
        0.87420654296875,
        -0.06959234178066254
      ]
    },
    {
      "pose": [
        0.9879741072654724,
        0.028928032144904137,
        -0.15188923478126526,
        0.510587215423584,
        -0.05090958625078201,
        0.9884278178215027,
        -0.14289416372776031,
        1.0157954692840576,
        0.14599789679050446,
        0.1489083617925644,
        0.9780137538909912,
        2.6088016033172607
      ],
      "intrinsics": [
        703.74169921875,
        703.74169921875,
        960.0,
        540.0
      ],
      "appearance_weights": [
        -0.01975766196846962,
        0.1977684646844864,
        0.8896774649620056,
        -0.06768828630447388
      ]
    },
    {
      "pose": [
        0.987740159034729,
        0.02824743650853634,
        -0.15352992713451385,
        0.5165956616401672,
        -0.05054357275366783,
        0.9883842468261719,
        -0.14332450926303864,
        1.016855239868164,
        0.14769801497459412,
        0.1493273377418518,
        0.977694571018219,
        2.6101908683776855
      ],
      "intrinsics": [
        703.74169921875,
        703.74169921875,
        960.0,
        540.0
      ],
      "appearance_weights": [
        -0.01730525866150856,
        0.1784016638994217,
        0.9043174982070923,
        -0.06541387736797333
      ]
    },
    {
      "pose": [
        0.9875035285949707,
        0.02756022848188877,
        -0.15516813099384308,
        0.522598385810852,
        -0.05017608776688576,
        0.9883366227149963,
        -0.1437813639640808,
        1.0179063081741333,
        0.14939570426940918,
        0.1497703492641449,
        0.9773688316345215,
        2.6115376949310303
      ],
      "intrinsics": [
        703.74169921875,
        703.74169921875,
        960.0,
        540.0
      ],
      "appearance_weights": [
        -0.014957164414227009,
        0.15962788462638855,
        0.9180843234062195,
        -0.06275506317615509
      ]
    },
    {
      "pose": [
        0.9872639775276184,
        0.026865437626838684,
        -0.1568056344985962,
        0.5286017656326294,
        -0.0498066321015358,
        0.9882848262786865,
        -0.14426518976688385,
        1.0189459323883057,
        0.15109288692474365,
        0.1502377986907959,
        0.9770361185073853,
        2.6128385066986084
      ],
      "intrinsics": [
        703.74169921875,
        703.74169921875,
        960.0,
        540.0
      ],
      "appearance_weights": [
        -0.012727441266179085,
        0.14148934185504913,
        0.9309358596801758,
        -0.05969776213169098
      ]
    },
    {
      "pose": [
        0.987021267414093,
        0.02616208605468273,
        -0.15844421088695526,
        0.5346121788024902,
        -0.049434710294008255,
        0.9882287383079529,
        -0.14477643370628357,
        1.019971489906311,
        0.15279147028923035,
        0.15073007345199585,
        0.9766960740089417,
        2.6140894889831543
      ],
      "intrinsics": [
        703.74169921875,
        703.74169921875,
        960.0,
        540.0
      ],
      "appearance_weights": [
        -0.010630154050886631,
        0.12402820587158203,
        0.9428298473358154,
        -0.0562279187142849
      ]
    },
    {
      "pose": [
        0.9867749810218811,
        0.025449197739362717,
        -0.16008561849594116,
        0.5406360030174255,
        -0.04905983805656433,
        0.9881682991981506,
        -0.14531558752059937,
        1.0209801197052002,
        0.15449337661266327,
        0.15124757587909698,
        0.9763482809066772,
        2.615286350250244
      ],
      "intrinsics": [
        703.74169921875,
        703.74169921875,
        960.0,
        540.0
      ],
      "appearance_weights": [
        -0.008679365739226341,
        0.10728667676448822,
        0.9537241458892822,
        -0.05233146995306015
      ]
    },
    {
      "pose": [
        0.9865249395370483,
        0.024725785478949547,
        -0.16173164546489716,
        0.546679675579071,
        -0.04868152737617493,
        0.9881033897399902,
        -0.14588308334350586,
        1.021969199180603,
        0.15620051324367523,
        0.15179066359996796,
        0.9759923219680786,
        2.6164257526397705
      ],
      "intrinsics": [
        703.74169921875,
        703.74169921875,
        960.0,
        540.0
      ],
      "appearance_weights": [
        -0.0068891411647200584,
        0.09130694717168808,
        0.9635765552520752,
        -0.047994352877140045
      ]
    },
    {
      "pose": [
        0.9862707853317261,
        0.023990865796804428,
        -0.16338405013084412,
        0.5527494549751282,
        -0.04829929769039154,
        0.9880338907241821,
        -0.14647942781448364,
        1.0229359865188599,
        0.15791481733322144,
        0.1523597240447998,
        0.9756277203559875,
        2.6175034046173096
      ],
      "intrinsics": [
        703.74169921875,
        703.74169921875,
        960.0,
        540.0
      ],
      "appearance_weights": [
        -0.005273544229567051,
        0.07613120228052139,
        0.9723448157310486,
        -0.04320249706506729
      ]
    },
    {
      "pose": [
        0.9860121607780457,
        0.02324344776570797,
        -0.16504457592964172,
        0.5588518381118774,
        -0.04791267588734627,
        0.9879597425460815,
        -0.14710506796836853,
        1.0238776206970215,
        0.1596381813287735,
        0.15295511484146118,
        0.9752539992332458,
        2.6185154914855957
      ],
      "intrinsics": [
        703.74169921875,
        703.74169921875,
        960.0,
        540.0
      ],
      "appearance_weights": [
        -0.0038466386031359434,
        0.061801642179489136,
        0.979986846446991,
        -0.03794184699654579
      ]
    },
    {
      "pose": [
        0.9857487678527832,
        0.022482536733150482,
        -0.16671499609947205,
        0.564993143081665,
        -0.047521185129880905,
        0.9878808856010437,
        -0.14776048064231873,
        1.0247915983200073,
        0.16137252748012543,
        0.15357720851898193,
        0.9748707413673401,
        2.6194584369659424
      ],
      "intrinsics": [
        703.74169921875,
        703.74169921875,
        960.0,
        540.0
      ],
      "appearance_weights": [
        -0.002622488420456648,
        0.04836045578122139,
        0.9864603877067566,
        -0.032198332250118256
      ]
    },
    {
      "pose": [
        0.9854801893234253,
        0.02170713245868683,
        -0.16839703917503357,
        0.5711798071861267,
        -0.047124363481998444,
        0.9877970814704895,
        -0.14844614267349243,
        1.0256751775741577,
        0.16311976313591003,
        0.15422634780406952,
        0.9744774103164673,
        2.620327949523926
      ],
      "intrinsics": [
        703.74169921875,
        703.74169921875,
        960.0,
        540.0
      ],
      "appearance_weights": [
        -0.0016151575837284327,
        0.035849831998348236,
        0.9917232394218445,
        -0.02595788985490799
      ]
    },
    {
      "pose": [
        0.9852060675621033,
        0.020916230976581573,
        -0.17009243369102478,
        0.5774181485176086,
        -0.046721749007701874,
        0.9877082705497742,
        -0.14916254580020905,
        1.0265253782272339,
        0.16488179564476013,
        0.1549028754234314,
        0.9740734696388245,
        2.6211204528808594
      ],
      "intrinsics": [
        703.74169921875,
        703.74169921875,
        960.0,
        540.0
      ],
      "appearance_weights": [
        -0.0008387099369429052,
        0.024311967194080353,
        0.9957332015037537,
        -0.0192064568400383
      ]
    },
    {
      "pose": [
        0.9849260449409485,
        0.020108824595808983,
        -0.17180295288562775,
        0.5837146043777466,
        -0.04631288722157478,
        0.9876143336296082,
        -0.14991016685962677,
        1.0273396968841553,
        0.16666053235530853,
        0.15560713410377502,
        0.9736584424972534,
        2.6218321323394775
      ],
      "intrinsics": [
        703.74169921875,
        703.74169921875,
        960.0,
        540.0
      ],
      "appearance_weights": [
        -0.00030720955692231655,
        0.013789050281047821,
        0.9984481334686279,
        -0.011929971165955067
      ]
    },
    {
      "pose": [
        0.9846397042274475,
        0.019283900037407875,
        -0.17353028059005737,
        0.5900755524635315,
        -0.04589732736349106,
        0.9875151515007019,
        -0.150689497590065,
        1.0281153917312622,
        0.16845791041851044,
        0.15633943676948547,
        0.9732316732406616,
        2.6224586963653564
      ],
      "intrinsics": [
        703.74169921875,
        703.74169921875,
        960.0,
        540.0
      ],
      "appearance_weights": [
        -3.472039315965958e-05,
        0.004323274828493595,
        0.9998258352279663,
        -0.004114366602152586
      ]
    },
    {
      "pose": [
        0.9843441247940063,
        0.01843348704278469,
        -0.17529058456420898,
        0.5965604782104492,
        -0.04547115042805672,
        0.9874096512794495,
        -0.15150763094425201,
        1.028855800628662,
        0.17029081284999847,
        0.15710631012916565,
        0.9727891087532043,
        2.6230013370513916
      ],
      "intrinsics": [
        703.74169921875,
        703.74169921875,
        960.0,
        540.0
      ],
      "appearance_weights": [
        -3.472039315965958e-05,
        -0.004114366602152586,
        0.9998258352279663,
        0.004323274828493595
      ]
    },
    {
      "pose": [
        0.9840246438980103,
        0.01751650497317314,
        -0.17716841399669647,
        0.6034814715385437,
        -0.04501410946249962,
        0.9872927069664001,
        -0.15240345895290375,
        1.0295968055725098,
        0.172247514128685,
        0.15794384479522705,
        0.972308874130249,
        2.623486042022705
      ],
      "intrinsics": [
        703.74169921875,
        703.74169921875,
        960.0,
        540.0
      ],
      "appearance_weights": [
        -0.00030720955692231655,
        -0.011929971165955067,
        0.9984481334686279,
        0.013789050281047821
      ]
    },
    {
      "pose": [
        0.9836791157722473,
        0.01652918942272663,
        -0.17917054891586304,
        0.61086505651474,
        -0.04452500864863396,
        0.9871635437011719,
        -0.15338075160980225,
        1.0303444862365723,
        0.17433537542819977,
        0.15885503590106964,
        0.9717881679534912,
        2.6239190101623535
      ],
      "intrinsics": [
        703.74169921875,
        703.74169921875,
        960.0,
        540.0
      ],
      "appearance_weights": [
        -0.0008387099369429052,
        -0.0192064568400383,
        0.9957332015037537,
        0.024311967194080353
      ]
    },
    {
      "pose": [
        0.9833080768585205,
        0.01547490805387497,
        -0.181288942694664,
        0.6186833381652832,
        -0.04400625079870224,
        0.9870222210884094,
        -0.15443649888038635,
        1.0310992002487183,
        0.17654633522033691,
        0.1598365306854248,
        0.9712279438972473,
        2.624302625656128
      ],
      "intrinsics": [
        703.74169921875,
        703.74169921875,
        960.0,
        540.0
      ],
      "appearance_weights": [
        -0.0016151575837284327,
        -0.02595788985490799,
        0.9917232394218445,
        0.035849831998348236
      ]
    },
    {
      "pose": [
        0.9829119443893433,
        0.01435702946037054,
        -0.18351557850837708,
        0.6269081830978394,
        -0.043460242450237274,
        0.9868687391281128,
        -0.15556767582893372,
        1.0318613052368164,
        0.17887230217456818,
        0.16088497638702393,
        0.9706290364265442,
        2.624638795852661
      ],
      "intrinsics": [
        703.74169921875,
        703.74169921875,
        960.0,
        540.0
      ],
      "appearance_weights": [
        -0.002622488420456648,
        -0.032198332250118256,
        0.9864603877067566,
        0.04836045578122139
      ]
    },
    {
      "pose": [
        0.982491135597229,
        0.013178931549191475,
        -0.18584240972995758,
        0.6355116367340088,
        -0.04288937896490097,
        0.9867032766342163,
        -0.1567712426185608,
        1.0326309204101562,
        0.18130522966384888,
        0.16199705004692078,
        0.969992458820343,
        2.624929428100586
      ],
      "intrinsics": [
        703.74169921875,
        703.74169921875,
        960.0,
        540.0
      ],
      "appearance_weights": [
        -0.0038466386031359434,
        -0.03794184699654579,
        0.979986846446991,
        0.061801642179489136
      ]
    },
    {
      "pose": [
        0.9820463061332703,
        0.011944005265831947,
        -0.18826140463352203,
        0.6444656848907471,
        -0.04229605197906494,
        0.9865257740020752,
        -0.15804417431354523,
        1.0334084033966064,
        0.18383705615997314,
        0.16316941380500793,
        0.969319224357605,
        2.6251769065856934
      ],
      "intrinsics": [
        703.74169921875,
        703.74169921875,
        960.0,
        540.0
      ],
      "appearance_weights": [
        -0.005273544229567051,
        -0.04320249706506729,
        0.9723448157310486,
        0.07613120228052139
      ]
    },
    {
      "pose": [
        0.9815779328346252,
        0.010655654594302177,
        -0.19076454639434814,
        0.6537423729896545,
        -0.04168263450264931,
        0.9863364100456238,
        -0.1593833863735199,
        1.034193992614746,
        0.18645969033241272,
        0.16439880430698395,
        0.9686102867126465,
        2.6253833770751953
      ],
      "intrinsics": [
        703.74169921875,
        703.74169921875,
        960.0,
        540.0
      ],
      "appearance_weights": [
        -0.0068891411647200584,
        -0.047994352877140045,
        0.9635765552520752,
        0.09130694717168808
      ]
    },
    {
      "pose": [
        0.981086790561676,
        0.009317307732999325,
        -0.19334383308887482,
        0.6633136868476868,
        -0.041051484644412994,
        0.9861352443695068,
        -0.16078582406044006,
        1.0349878072738647,
        0.18916507065296173,
        0.16568191349506378,
        0.9678667783737183,
        2.6255505084991455
      ],
      "intrinsics": [
        703.74169921875,
        703.74169921875,
        960.0,
        540.0
      ],
      "appearance_weights": [
        -0.008679365739226341,
        -0.05233146995306015,
        0.9537241458892822,
        0.10728667676448822
      ]
    },
    {
      "pose": [
        0.9805735349655151,
        0.007932411506772041,
        -0.19599126279354095,
        0.6731515526771545,
        -0.04040493071079254,
        0.9859223961830139,
        -0.1622484028339386,
        1.0357903242111206,
        0.1919451504945755,
        0.16701552271842957,
        0.9670898914337158,
        2.625680685043335
      ],
      "intrinsics": [
        703.74169921875,
        703.74169921875,
        960.0,
        540.0
      ],
      "appearance_weights": [
        -0.010630154050886631,
        -0.0562279187142849,
        0.9428298473358154,
        0.12402820587158203
      ]
    },
    {
      "pose": [
        0.9800390005111694,
        0.006504443008452654,
        -0.19869887828826904,
        0.683228075504303,
        -0.03974528610706329,
        0.9856979250907898,
        -0.163768008351326,
        1.0366016626358032,
        0.19479185342788696,
        0.16839638352394104,
        0.9662809371948242,
        2.6257758140563965
      ],
      "intrinsics": [
        703.74169921875,
        703.74169921875,
        960.0,
        540.0
      ],
      "appearance_weights": [
        -0.012727441266179085,
        -0.05969776213169098,
        0.9309358596801758,
        0.14148934185504913
      ]
    },
    {
      "pose": [
        0.9794840216636658,
        0.005036907270550728,
        -0.20145873725414276,
        0.6935151815414429,
        -0.03907482698559761,
        0.9854620099067688,
        -0.16534151136875153,
        1.0374220609664917,
        0.19769713282585144,
        0.1698213368654251,
        0.965441107749939,
        2.625837802886963
      ],
      "intrinsics": [
        703.74169921875,
        703.74169921875,
        960.0,
        540.0
      ],
      "appearance_weights": [
        -0.014957164414227009,
        -0.06275506317615509,
        0.9180843234062195,
        0.15962788462638855
      ]
    },
    {
      "pose": [
        0.9789096713066101,
        0.003533341456204653,
        -0.20426292717456818,
        0.7039848566055298,
        -0.03839579224586487,
        0.9852148294448853,
        -0.1669657677412033,
        1.0382518768310547,
        0.20065292716026306,
        0.17128725349903107,
        0.9645719528198242,
        2.625869035720825
      ],
      "intrinsics": [
        703.74169921875,
        703.74169921875,
        960.0,
        540.0
      ],
      "appearance_weights": [
        -0.01730525866150856,
        -0.06541387736797333,
        0.9043174982070923,
        0.1784016638994217
      ]
    },
    {
      "pose": [
        0.9783169627189636,
        0.0019973174203187227,
        -0.20710356533527374,
        0.7146091461181641,
        -0.03771039471030235,
        0.9849565029144287,
        -0.16863761842250824,
        1.0390913486480713,
        0.20365118980407715,
        0.1727910041809082,
        0.9636749625205994,
        2.6258716583251953
      ],
      "intrinsics": [
        703.74169921875,
        703.74169921875,
        960.0,
        540.0
      ],
      "appearance_weights": [
        -0.01975766196846962,
        -0.06768828630447388,
        0.8896774649620056,
        0.1977684646844864
      ]
    },
    {
      "pose": [
        0.9777070879936218,
        0.0004324426408857107,
        -0.2099727988243103,
        0.725360095500946,
        -0.03702079504728317,
        0.9846872687339783,
        -0.17035387456417084,
        1.0399407148361206,
        0.20668388903141022,
        0.17432956397533417,
        0.9627518057823181,
        2.625847339630127
      ],
      "intrinsics": [
        703.74169921875,
        703.74169921875,
        960.0,
        540.0
      ],
      "appearance_weights": [
        -0.02230030857026577,
        -0.06959234178066254,
        0.87420654296875,
        0.21768610179424286
      ]
    },
    {
      "pose": [
        0.9770813584327698,
        -0.00115763652138412,
        -0.21286281943321228,
        0.7362095713615417,
        -0.036329127848148346,
        0.984407365322113,
        -0.17211133241653442,
        1.0408002138137817,
        0.2097429782152176,
        0.1758999228477478,
        0.9618040919303894,
        2.625798225402832
      ],
      "intrinsics": [
        703.74169921875,
        703.74169921875,
        960.0,
        540.0
      ],
      "appearance_weights": [
        -0.024919133633375168,
        -0.0711401104927063,
        0.8579468727111816,
        0.23811239004135132
      ]
    },
    {
      "pose": [
        0.9764412045478821,
        -0.0027692343574017286,
        -0.2157658487558365,
        0.7471296191215515,
        -0.03563746437430382,
        0.9841170907020569,
        -0.17390677332878113,
        1.0416700839996338,
        0.21282044053077698,
        0.17749910056591034,
        0.9608337879180908,
        2.6257266998291016
      ],
      "intrinsics": [
        703.74169921875,
        703.74169921875,
        960.0,
        540.0
      ],
      "appearance_weights": [
        -0.02760007604956627,
        -0.07234565168619156,
        0.8409405946731567,
        0.2590051293373108
      ]
    },
    {
      "pose": [
        0.9757879972457886,
        -0.004398624412715435,
        -0.21867415308952332,
        0.7580923438072205,
        -0.03494783863425255,
        0.9838166236877441,
        -0.1757369488477707,
        1.0425506830215454,
        0.21590827405452728,
        0.17912420630455017,
        0.9598428010940552,
        2.6256346702575684
      ],
      "intrinsics": [
        703.74169921875,
        703.74169921875,
        960.0,
        540.0
      ],
      "appearance_weights": [
        -0.03032906912267208,
        -0.0732230395078659,
        0.823229968547821,
        0.2803221344947815
      ]
    },
    {
      "pose": [
        0.9751234650611877,
        -0.006042038090527058,
        -0.22158004343509674,
        0.7690696120262146,
        -0.034262239933013916,
        0.983506441116333,
        -0.17759858071804047,
        1.0434421300888062,
        0.21899846196174622,
        0.18077237904071808,
        0.9588331580162048,
        2.6255240440368652
      ],
      "intrinsics": [
        703.74169921875,
        703.74169921875,
        960.0,
        540.0
      ],
      "appearance_weights": [
        -0.03309205174446106,
        -0.07378633320331573,
        0.8048571944236755,
        0.30202120542526245
      ]
    },
    {
      "pose": [
        0.9744492173194885,
        -0.007695664651691914,
        -0.2244758903980255,
        0.7800334095954895,
        -0.03358260169625282,
        0.9831867218017578,
        -0.179488405585289,
        1.0443447828292847,
        0.22208300232887268,
        0.1824408322572708,
        0.9578071236610413,
        2.625396966934204
      ],
      "intrinsics": [
        703.74169921875,
        703.74169921875,
        960.0,
        540.0
      ],
      "appearance_weights": [
        -0.03587495535612106,
        -0.07404959201812744,
        0.7858644127845764,
        0.3240601420402527
      ]
    },
    {
      "pose": [
        0.9737671613693237,
        -0.009355650283396244,
        -0.22735409438610077,
        0.7909558415412903,
        -0.032910801470279694,
        0.9828580021858215,
        -0.18140310049057007,
        1.04525887966156,
        0.22515392303466797,
        0.1841268092393875,
        0.9567669630050659,
        2.625255823135376
      ],
      "intrinsics": [
        703.74169921875,
        703.74169921875,
        960.0,
        540.0
      ],
      "appearance_weights": [
        -0.038663722574710846,
        -0.07402688264846802,
        0.7662938237190247,
        0.346396803855896
      ]
    },
    {
      "pose": [
        0.973079264163971,
        -0.011018096469342709,
        -0.23020708560943604,
        0.8018088936805725,
        -0.03224867209792137,
        0.982520580291748,
        -0.18333937227725983,
        1.0461845397949219,
        0.22820326685905457,
        0.18582762777805328,
        0.9557151198387146,
        2.6251020431518555
      ],
      "intrinsics": [
        703.74169921875,
        703.74169921875,
        960.0,
        540.0
      ],
      "appearance_weights": [
        -0.04144428297877312,
        -0.07373227179050446,
        0.7461876273155212,
        0.36898893117904663
      ]
    },
    {
      "pose": [
        0.9723874926567078,
        -0.012679062783718109,
        -0.2330273985862732,
        0.812564492225647,
        -0.031597986817359924,
        0.9821750521659851,
        -0.18529386818408966,
        1.0471223592758179,
        0.23122306168079376,
        0.18754065036773682,
        0.9546540975570679,
        2.6249382495880127
      ],
      "intrinsics": [
        703.74169921875,
        703.74169921875,
        960.0,
        540.0
      ],
      "appearance_weights": [
        -0.04420257732272148,
        -0.07317981868982315,
        0.7255880236625671,
        0.3917943835258484
      ]
    },
    {
      "pose": [
        0.9716939926147461,
        -0.01433456502854824,
        -0.23580758273601532,
        0.823194682598114,
        -0.03096046671271324,
        0.9818217754364014,
        -0.18726323544979095,
        1.0480722188949585,
        0.23420536518096924,
        0.18926329910755157,
        0.9535865187644958,
        2.6247663497924805
      ],
      "intrinsics": [
        703.74169921875,
        703.74169921875,
        960.0,
        540.0
      ],
      "appearance_weights": [
        -0.04692453891038895,
        -0.07238359749317169,
        0.7045372128486633,
        0.4147709310054779
      ]
    },
    {
      "pose": [
        0.9710010886192322,
        -0.01598057523369789,
        -0.23854023218154907,
        0.8336714506149292,
        -0.030337776988744736,
        0.9814612865447998,
        -0.1892441213130951,
        1.049034595489502,
        0.23714224994182587,
        0.1909930408000946,
        0.9525152444839478,
        2.6245882511138916
      ],
      "intrinsics": [
        703.74169921875,
        703.74169921875,
        960.0,
        540.0
      ],
      "appearance_weights": [
        -0.04959610477089882,
        -0.07135765999555588,
        0.6830773949623108,
        0.4378764033317566
      ]
    },
    {
      "pose": [
        0.9703111052513123,
        -0.01761302538216114,
        -0.24121801555156708,
        0.8439667820930481,
        -0.02973153069615364,
        0.981094241142273,
        -0.19123314321041107,
        1.0500097274780273,
        0.24002580344676971,
        0.19272743165493011,
        0.9514430165290833,
        2.624406099319458
      ],
      "intrinsics": [
        703.74169921875,
        703.74169921875,
        960.0,
        540.0
      ],
      "appearance_weights": [
        -0.052203211933374405,
        -0.0701160803437233,
        0.6612507104873657,
        0.46106860041618347
      ]
    },
    {
      "pose": [
        0.9696264266967773,
        -0.019227800890803337,
        -0.24383363127708435,
        0.8540526628494263,
        -0.029143283143639565,
        0.9807211756706238,
        -0.1932268887758255,
        1.0509978532791138,
        0.24284814298152924,
        0.19446402788162231,
        0.9503728747367859,
        2.6242222785949707
      ],
      "intrinsics": [
        703.74169921875,
        703.74169921875,
        960.0,
        540.0
      ],
      "appearance_weights": [
        -0.05473179370164871,
        -0.06867291033267975,
        0.6390993595123291,
        0.48430532217025757
      ]
    },
    {
      "pose": [
        0.9689496755599976,
        -0.020820751786231995,
        -0.24637983739376068,
        0.8639011383056641,
        -0.028574535623192787,
        0.9803427457809448,
        -0.19522199034690857,
        1.0519992113113403,
        0.2456013560295105,
        0.19620048999786377,
        0.9493078589439392,
        2.6240382194519043
      ],
      "intrinsics": [
        703.74169921875,
        703.74169921875,
        960.0,
        540.0
      ],
      "appearance_weights": [
        -0.05716778710484505,
        -0.06704222410917282,
        0.6166656017303467,
        0.5075443983078003
      ]
    },
    {
      "pose": [
        0.9682833552360535,
        -0.022387681528925896,
        -0.24884945154190063,
        0.873484194278717,
        -0.02802673727273941,
        0.9799595475196838,
        -0.1972150355577469,
        1.0530140399932861,
        0.24827758967876434,
        0.19793449342250824,
        0.9482511281967163,
        2.623856544494629
      ],
      "intrinsics": [
        703.74169921875,
        703.74169921875,
        960.0,
        540.0
      ],
      "appearance_weights": [
        -0.059497129172086716,
        -0.06523808091878891,
        0.5939915776252747,
        0.5307435989379883
      ]
    },
    {
      "pose": [
        0.9676302671432495,
        -0.023924363777041435,
        -0.25123533606529236,
        0.8827738165855408,
        -0.027501286938786507,
        0.9795723557472229,
        -0.19920259714126587,
        1.0540426969528198,
        0.2508689761161804,
        0.19966377317905426,
        0.9472059607505798,
        2.6236791610717773
      ],
      "intrinsics": [
        703.74169921875,
        703.74169921875,
        960.0,
        540.0
      ],
      "appearance_weights": [
        -0.061705756932497025,
        -0.06327454745769501,
        0.571119487285614,
        0.5538608431816101
      ]
    },
    {
      "pose": [
        0.9669931530952454,
        -0.025426523759961128,
        -0.253530353307724,
        0.8917419910430908,
        -0.02699952945113182,
        0.9791818857192993,
        -0.20118124783039093,
        1.055085301399231,
        0.25336769223213196,
        0.20138610899448395,
        0.9461756944656372,
        2.6235082149505615
      ],
      "intrinsics": [
        703.74169921875,
        703.74169921875,
        960.0,
        540.0
      ],
      "appearance_weights": [
        -0.06377960741519928,
        -0.06116568669676781,
        0.5480915307998657,
        0.5768537521362305
      ]
    },
    {
      "pose": [
        0.9663748145103455,
