{
  "camera_model": "pinhole",
  "image_size": [
    1920,
    1080
  ],
  "fps": 30.0,
  "source": {
    "type": "interpolation",
    "interpolation": "kochanek-bartels",
    "keyframes": [
      {
        "pose": [
          0.9535559397482533,
          0.1550032731556369,
          0.2582731473174873,
          -0.6306705777583684,
          0.006558356023879487,
          0.8465481698016089,
          -0.5322717373406604,
          0.9709941535682161,
          -0.30114452702254507,
          0.5092447252827536,
          0.8062144887514797,
          3.467116452265241
        ],
        "fov": null,
        "transition_duration": null
      },
      {
        "pose": [
          0.996361125816066,
          0.03595140162878893,
          0.07727850430024297,
          -0.17460661733132246,
          0.007530686218465149,
          0.8660063258151252,
          -0.4999763500537808,
          0.8896173681338732,
          -0.08489852554729248,
          0.4987389601170879,
          0.862584319517791,
          3.3250777275863186
        ],
        "fov": null,
        "transition_duration": null
      },
      {
        "pose": [
          0.9641533976617223,
          -0.12553629831782223,
          -0.2337708859662195,
          0.6091647388177361,
          0.008312175414623082,
          0.8948627382533443,
          -0.44626405370076333,
          0.7542750055643112,
          0.2652151974831354,
          0.4283238583548847,
          0.8638284491985174,
          3.3219428132042235
        ],
        "fov": null,
        "transition_duration": null
      },
      {
        "pose": [
          0.9810525474481288,
          -0.11047633073032728,
          -0.159156661931935,
          0.36395647473214915,
          0.008232750600136268,
          0.8445184376084715,
          -0.5354632093400417,
          0.7866003532002686,
          0.1935667497446012,
          0.5240072500456172,
          0.8294265088298605,
          3.7067081421032118
        ],
        "fov": null,
        "transition_duration": null
      },
      {
        "pose": [
          0.980090474528501,
          -0.10983306156850245,
          -0.1654065411898903,
          0.3426178085511664,
          0.008239439655530305,
          0.8548477464017222,
          -0.5188135120695051,
          0.641349098060736,
          0.19838028914348382,
          0.5071213251773276,
          0.8387331164837173,
          3.8632708551803647
        ],
        "fov": null,
        "transition_duration": null
      }
    ],
    "default_fov": 75.0,
    "default_appearance": null,
    "is_cycle": true,
    "tension": 0.0,
    "default_transition_duration": 2.0
  },
  "frames": [
    {
      "pose": [
        0.9535559415817261,
        0.15500327944755554,
        0.2582731544971466,
        -0.6306706070899963,
        0.006558355875313282,
        0.8465481400489807,
        -0.5322717428207397,
        0.9709941744804382,
        -0.301144540309906,
        0.5092447400093079,
        0.8062145113945007,
        3.467116355895996
      ],
      "intrinsics": [
        703.74169921875,
        703.74169921875,
        960.0,
        540.0
      ],
      "appearance_weights": [
        1.0,
        0.0,
        0.0,
        0.0,
        0.0
      ]
    },
    {
      "pose": [
        0.9528919458389282,
        0.1560763418674469,
        0.2600712776184082,
        -0.6346439123153687,
        0.006552308797836304,
        0.8466513752937317,
        -0.5321075916290283,
        0.9729633927345276,
        -0.303239107131958,
        0.5087451338768005,
        0.8057446479797363,
        3.462667942047119
      ],
      "intrinsics": [
        703.74169921875,
        703.74169921875,
        960.0,
        540.0
      ],
      "appearance_weights": [
        0.9993079304695129,
        0.008913467638194561,
        -0.00013748134369961917,
        0.0,
        -0.008083903230726719
      ]
    },
    {
      "pose": [
        0.9523335099220276,
        0.156956747174263,
        0.26158249378204346,
        -0.6379249095916748,
        0.006548168603330851,
        0.8467671275138855,
        -0.5319234132766724,
        0.9747229218482971,
        -0.30498844385147095,
        0.508281409740448,
        0.8053770065307617,
        3.4583208560943604
      ],
      "intrinsics": [
        703.74169921875,
        703.74169921875,
        960.0,
        540.0
      ],
      "appearance_weights": [
        0.9972597360610962,
        0.018903404474258423,
        -0.0005405729170888662,
        0.0,
        -0.015622557140886784
      ]
    },
    {
      "pose": [
        0.9518799781799316,
        0.15764938294887543,
        0.26281386613845825,
        -0.6405290365219116,
        0.00654578348621726,
        0.846895158290863,
        -0.5317196249961853,
        0.9762776494026184,
        -0.3064010739326477,
        0.5078535676002502,
        0.8051106333732605,
        3.4540741443634033
      ],
      "intrinsics": [
        703.74169921875,
        703.74169921875,
        960.0,
        540.0
      ],
      "appearance_weights": [
        0.9938974976539612,
        0.029927724972367287,
        -0.001195246004499495,
        0.0,
        -0.0226299911737442
      ]
    },
    {
      "pose": [
        0.9515302777290344,
        0.1581590324640274,
        0.26377227902412415,
        -0.6424717903137207,
        0.0065450225956737995,
        0.8470351696014404,
        -0.531496524810791,
        0.9776325821876526,
        -0.3074854016304016,
        0.507461428642273,
        0.8049445152282715,
        3.449925661087036
      ],
      "intrinsics": [
        703.74169921875,
        703.74169921875,
        960.0,
        540.0
      ],
      "appearance_weights": [
        0.9892633557319641,
        0.041944343596696854,
        -0.0020874717738479376,
        0.0,
        -0.02912023290991783
      ]
    },
    {
      "pose": [
        0.9512829184532166,
        0.15849050879478455,
        0.26446452736854553,
        -0.6437685489654541,
        0.0065457760356366634,
        0.8471869826316833,
        -0.5312545895576477,
        0.9787927865982056,
        -0.30824971199035645,
        0.5071045160293579,
        0.8048771023750305,
        3.445873975753784
      ],
      "intrinsics": [
        703.74169921875,
        703.74169921875,
        960.0,
        540.0
      ],
      "appearance_weights": [
        0.9833993315696716,
        0.05491117388010025,
        -0.0032032218296080828,
        0.0,
        -0.035107310861349106
      ]
    },
    {
      "pose": [
        0.9511361718177795,
        0.1586485356092453,
        0.2648972272872925,
        -0.6444348692893982,
        0.00654795253649354,
        0.8473502397537231,
        -0.5309940576553345,
        0.9797632694244385,
        -0.30870217084884644,
        0.5067822337150574,
        0.8049066662788391,
        3.441917657852173
      ],
      "intrinsics": [
        703.74169921875,
        703.74169921875,
        960.0,
        540.0
      ],
      "appearance_weights": [
        0.9763476252555847,
        0.0687861293554306,
        -0.0045284670777618885,
        0.0,
        -0.04060525447130203
      ]
    },
    {
      "pose": [
        0.9510878920555115,
        0.15863779187202454,
        0.26507705450057983,
        -0.644486129283905,
        0.006551478058099747,
        0.8475247621536255,
        -0.5307154655456543,
        0.9805490374565125,
        -0.30885088443756104,
        0.5064936876296997,
        0.8050312399864197,
        3.4380548000335693
      ],
      "intrinsics": [
        703.74169921875,
        703.74169921875,
        960.0,
        540.0
      ],
      "appearance_weights": [
        0.9681501388549805,
        0.08352711796760559,
        -0.006049179472029209,
        0.0,
        -0.04562809318304062
      ]
    },
    {
      "pose": [
        0.9511355757713318,
        0.15846294164657593,
        0.26501041650772095,
        -0.6439378261566162,
        0.006556293927133083,
        0.8477102518081665,
        -0.5304190516471863,
        0.9811550378799438,
        -0.30870383977890015,
        0.5062379837036133,
        0.8052484393119812,
        3.434283971786499
      ],
      "intrinsics": [
        703.74169921875,
        703.74169921875,
        960.0,
        540.0
      ],
      "appearance_weights": [
        0.9588491320610046,
        0.09909206628799438,
        -0.0077513293363153934,
        0.0,
        -0.05018985643982887
      ]
    },
    {
      "pose": [
        0.9512766003608704,
        0.15812861919403076,
        0.26470378041267395,
        -0.6428053975105286,
        0.006562354974448681,
        0.8479064106941223,
        -0.5301052927970886,
        0.9815863966941833,
        -0.30826887488365173,
        0.5060138702392578,
        0.8055558800697327,
        3.430603265762329
      ],
      "intrinsics": [
        703.74169921875,
        703.74169921875,
        960.0,
        540.0
      ],
      "appearance_weights": [
        0.9484865665435791,
        0.11543887853622437,
        -0.009620888158679008,
        0.0,
        -0.0543045699596405
      ]
    },
    {
      "pose": [
        0.9515079855918884,
        0.15763938426971436,
        0.26416346430778503,
        -0.6411042809486389,
        0.006569628603756428,
        0.8481130599975586,
        -0.52977454662323,
        0.9818480014801025,
        -0.30755382776260376,
        0.5058201551437378,
        0.8059507608413696,
        3.427011489868164
      ],
      "intrinsics": [
        703.74169921875,
        703.74169921875,
        960.0,
        540.0
      ],
      "appearance_weights": [
        0.9371046423912048,
        0.1325254738330841,
        -0.011643828824162483,
        0.0,
        -0.057986266911029816
      ]
    },
    {
      "pose": [
        0.9518265128135681,
        0.15699979662895203,
        0.2633956968784332,
        -0.6388499140739441,
        0.006578093394637108,
        0.8483299016952515,
        -0.529427170753479,
        0.9819449186325073,
        -0.30656641721725464,
        0.5056554675102234,
        0.8064301609992981,
        3.42350697517395
      ],
      "intrinsics": [
        703.74169921875,
        703.74169921875,
        960.0,
        540.0
      ],
      "appearance_weights": [
        0.9247453212738037,
        0.150309756398201,
        -0.013806119561195374,
        0.0,
        -0.06124896928668022
      ]
    },
    {
      "pose": [
        0.952228844165802,
        0.1562144011259079,
        0.26240670680999756,
        -0.6360578536987305,
        0.006587735842913389,
        0.8485566973686218,
        -0.5290635228157043,
        0.9818821549415588,
        -0.305314302444458,
        0.5055181980133057,
        0.8069910407066345,
        3.4200878143310547
      ],
      "intrinsics": [
        703.74169921875,
        703.74169921875,
        960.0,
        540.0
      ],
      "appearance_weights": [
        0.9114508032798767,
        0.16874966025352478,
        -0.01609373465180397,
        0.0,
        -0.06410671025514603
      ]
    },
    {
      "pose": [
        0.9527113437652588,
        0.1552877128124237,
        0.2612026333808899,
        -0.6327434182167053,
        0.006598551757633686,
        0.848793089389801,
        -0.5286840200424194,
        0.9816646575927734,
        -0.3038051426410675,
        0.5054067969322205,
        0.8076301217079163,
        3.416752338409424
      ],
      "intrinsics": [
        703.74169921875,
        703.74169921875,
        960.0,
        540.0
      ],
      "appearance_weights": [
        0.8972631096839905,
        0.18780307471752167,
        -0.018492644652724266,
        0.0,
        -0.06657351553440094
      ]
    },
    {
      "pose": [
        0.9532702565193176,
        0.1542242169380188,
        0.2597896158695221,
        -0.628922164440155,
        0.00661054253578186,
        0.8490388989448547,
        -0.5282890200614929,
        0.9812975525856018,
        -0.30204644799232483,
        0.5053195357322693,
        0.8083440661430359,
        3.413499355316162
      ],
      "intrinsics": [
        703.74169921875,
        703.74169921875,
        960.0,
        540.0
      ],
      "appearance_weights": [
        0.8822243213653564,
        0.20742793381214142,
        -0.020988818258047104,
        0.0,
        -0.06866342574357986
      ]
    },
    {
      "pose": [
        0.9539018273353577,
        0.15302836894989014,
        0.2581736743450165,
        -0.6246095299720764,
        0.006623714696615934,
        0.8492938280105591,
        -0.5278788805007935,
        0.9807857871055603,
        -0.30004575848579407,
        0.5052546858787537,
        0.8091292977333069,
        3.4103269577026367
      ],
      "intrinsics": [
        703.74169921875,
        703.74169921875,
        960.0,
        540.0
      ],
      "appearance_weights": [
        0.866376519203186,
        0.22758212685585022,
        -0.023568231612443924,
        0.0,
        -0.07039044797420502
      ]
    },
    {
      "pose": [
        0.9546018838882446,
        0.15170465409755707,
        0.25636085867881775,
        -0.6198208928108215,
        0.006638078484684229,
        0.849557638168335,
        -0.5274540185928345,
        0.9801343679428101,
        -0.29781055450439453,
        0.5052103996276855,
        0.8099822998046875,
        3.407233715057373
      ],
      "intrinsics": [
        703.74169921875,
        703.74169921875,
        960.0,
        540.0
      ],
      "appearance_weights": [
        0.8497619032859802,
        0.24822360277175903,
        -0.02621685154736042,
        0.0,
        -0.0717686265707016
      ]
    },
    {
      "pose": [
        0.9553664326667786,
        0.15025751292705536,
        0.2543571889400482,
        -0.6145718097686768,
        0.006653646007180214,
        0.8498300313949585,
        -0.5270148515701294,
        0.9793483018875122,
        -0.29534831643104553,
        0.5051847100257874,
        0.8108993768692017,
        3.4042177200317383
      ],
      "intrinsics": [
        703.74169921875,
        703.74169921875,
        960.0,
        540.0
      ],
      "appearance_weights": [
        0.8324223756790161,
        0.26931023597717285,
        -0.028920650482177734,
        0.0,
        -0.07281199097633362
      ]
    },
    {
      "pose": [
        0.9561913013458252,
        0.14869140088558197,
        0.2521686851978302,
        -0.6088776588439941,
        0.006670431699603796,
        0.8501107692718506,
        -0.5265616774559021,
        0.9784326553344727,
        -0.292666494846344,
        0.505175769329071,
        0.8118767142295837,
        3.401277542114258
      ],
      "intrinsics": [
        703.74169921875,
        703.74169921875,
        960.0,
        540.0
      ],
      "appearance_weights": [
        0.8144001960754395,
        0.29079997539520264,
        -0.03166560083627701,
        0.0,
        -0.07353456318378448
      ]
    },
    {
      "pose": [
        0.9570721387863159,
        0.14701074361801147,
        0.24980129301548004,
        -0.6027539372444153,
        0.006688449066132307,
        0.8503995537757874,
        -0.526094913482666,
        0.977392315864563,
        -0.28977251052856445,
        0.505181610584259,
        0.8129104971885681,
        3.398411512374878
      ],
      "intrinsics": [
        703.74169921875,
        703.74169921875,
        960.0,
        540.0
      ],
      "appearance_weights": [
        0.7957373261451721,
        0.31265074014663696,
        -0.03443767502903938,
        0.0,
        -0.0739503726363182
      ]
    },
    {
      "pose": [
        0.9580047726631165,
        0.14521999657154083,
        0.24726104736328125,
        -0.596216082572937,
        0.00670770974829793,
        0.8506961464881897,
        -0.5256149768829346,
        0.9762324094772339,
        -0.28667381405830383,
        0.505200207233429,
        0.8139968514442444,
        3.395618200302124
      ],
      "intrinsics": [
        703.74169921875,
        703.74169921875,
        960.0,
        540.0
      ],
      "appearance_weights": [
        0.7764759063720703,
        0.33482038974761963,
        -0.03722283989191055,
        0.0,
        -0.07407345622777939
      ]
    },
    {
      "pose": [
        0.9589847326278687,
        0.14332358539104462,
        0.24455390870571136,
        -0.5892795920372009,
        0.006728223990648985,
        0.8510002493858337,
        -0.5251221656799316,
        0.9749578833580017,
        -0.28337782621383667,
        0.5052295327186584,
        0.8151319622993469,
        3.3928959369659424
      ],
      "intrinsics": [
        703.74169921875,
        703.74169921875,
        960.0,
        540.0
      ],
      "appearance_weights": [
        0.7566580176353455,
        0.3572668731212616,
        -0.04000707343220711,
        0.0,
        -0.07391782850027084
      ]
    },
    {
      "pose": [
        0.9600077271461487,
        0.14132598042488098,
        0.2416858971118927,
        -0.5819598436355591,
        0.006749998312443495,
        0.8513116836547852,
        -0.5246168971061707,
        0.9735737442970276,
        -0.2798920273780823,
        0.5052676796913147,
        0.8163118362426758,
        3.3902428150177
      ],
      "intrinsics": [
        703.74169921875,
        703.74169921875,
        960.0,
        540.0
      ],
      "appearance_weights": [
        0.736325740814209,
        0.37994813919067383,
        -0.04277633875608444,
        0.0,
        -0.07349752634763718
      ]
    },
    {
      "pose": [
        0.9610694646835327,
        0.1392316222190857,
        0.23866301774978638,
        -0.5742723345756531,
        0.006773034110665321,
        0.8516300916671753,
        -0.524099588394165,
        0.9720850586891174,
        -0.2762238383293152,
        0.5053125619888306,
        0.8175326585769653,
        3.387657403945923
      ],
      "intrinsics": [
        703.74169921875,
        703.74169921875,
        960.0,
        540.0
      ],
      "appearance_weights": [
        0.7155211567878723,
        0.40282201766967773,
        -0.045516613870859146,
        0.0,
        -0.0728265792131424
      ]
    },
    {
      "pose": [
        0.9621655344963074,
        0.13704495131969452,
        0.2354913204908371,
        -0.5662325024604797,
        0.006797328125685453,
        0.851955235004425,
        -0.5235705375671387,
        0.9704967737197876,
        -0.2723807692527771,
        0.5053622722625732,
        0.8187904357910156,
        3.3851380348205566
      ],
      "intrinsics": [
        703.74169921875,
        703.74169921875,
        960.0,
        540.0
      ],
      "appearance_weights": [
        0.6942863464355469,
        0.42584651708602905,
        -0.04821386560797691,
        0.0,
        -0.0719190165400505
      ]
    },
    {
      "pose": [
        0.9632916450500488,
        0.134770467877388,
        0.23217685520648956,
        -0.5578558444976807,
        0.006822869181632996,
        0.8522868752479553,
        -0.5230302214622498,
        0.9688138961791992,
        -0.26837030053138733,
        0.5054147243499756,
        0.8200812935829163,
        3.382683277130127
      ],
      "intrinsics": [
        703.74169921875,
        703.74169921875,
        960.0,
        540.0
      ],
      "appearance_weights": [
        0.6726634502410889,
        0.4489794671535492,
        -0.050854068249464035,
        0.0,
        -0.07078886777162552
      ]
    },
    {
      "pose": [
        0.964443564414978,
        0.1324126273393631,
        0.22872571647167206,
        -0.5491577982902527,
        0.00684963958337903,
        0.8526247143745422,
        -0.5224789381027222,
        0.9670414924621582,
        -0.26420000195503235,
        0.5054681301116943,
        0.8214014768600464,
        3.38029146194458
      ],
      "intrinsics": [
        703.74169921875,
        703.74169921875,
        960.0,
        540.0
      ],
      "appearance_weights": [
        0.6506944894790649,
        0.4721788465976715,
        -0.0534231923520565,
        0.0,
        -0.06945015490055084
      ]
    },
    {
      "pose": [
        0.9656171202659607,
        0.12997592985630035,
        0.22514404356479645,
        -0.5401538014411926,
        0.006877613253891468,
        0.8529685139656067,
        -0.5219170451164246,
        0.9651845097541809,
        -0.25987744331359863,
        0.5055204629898071,
        0.8227471113204956,
        3.377960681915283
      ],
      "intrinsics": [
        703.74169921875,
        703.74169921875,
        960.0,
        540.0
      ],
      "appearance_weights": [
        0.6284216046333313,
        0.4954025447368622,
        -0.05590721219778061,
        0.0,
        -0.06791690737009048
      ]
    },
    {
      "pose": [
        0.9668080806732178,
        0.1274648904800415,
        0.2214379906654358,
        -0.5308592915534973,
        0.006906753871589899,
        0.8533180356025696,
        -0.5213450193405151,
        0.9632480144500732,
        -0.25541022419929504,
        0.5055699944496155,
        0.8241144418716431,
        3.375689744949341
      ],
      "intrinsics": [
        703.74169921875,
        703.74169921875,
        960.0,
        540.0
      ],
      "appearance_weights": [
        0.6058868169784546,
        0.5186084508895874,
        -0.05829209089279175,
        0.0,
        -0.06620316207408905
      ]
    },
    {
      "pose": [
        0.9680125117301941,
        0.12488400936126709,
        0.21761375665664673,
        -0.5212897658348083,
        0.006937016267329454,
        0.8536730408668518,
        -0.5207631587982178,
        0.9612370133399963,
        -0.2508060038089752,
        0.5056148171424866,
        0.8254998326301575,
        3.37347674369812
      ],
      "intrinsics": [
        703.74169921875,
        703.74169921875,
        960.0,
        540.0
      ],
      "appearance_weights": [
        0.583132266998291,
        0.5417544841766357,
        -0.06056380644440651,
        0.0,
        -0.06432294100522995
      ]
    },
    {
      "pose": [
        0.9692263603210449,
        0.12223783880472183,
        0.21367758512496948,
        -0.5114606618881226,
        0.006968343164771795,
        0.8540331721305847,
        -0.5201718807220459,
        0.9591564536094666,
        -0.2460724413394928,
        0.5056532621383667,
        0.8268997073173523,
        3.3713202476501465
      ],
      "intrinsics": [
        703.74169921875,
        703.74169921875,
        960.0,
        540.0
      ],
      "appearance_weights": [
        0.5601999759674072,
        0.5647986531257629,
        -0.06270832568407059,
        0.0,
        -0.06229027360677719
      ]
    },
    {
      "pose": [
        0.9704458713531494,
        0.11953091621398926,
        0.20963577926158905,
        -0.5013874173164368,
        0.007000666577368975,
        0.8543983101844788,
        -0.5195714831352234,
        0.957011342048645,
        -0.24121731519699097,
        0.5056836009025574,
        0.828310489654541,
        3.369218349456787
      ],
      "intrinsics": [
        703.74169921875,
        703.74169921875,
        960.0,
        540.0
      ],
      "appearance_weights": [
        0.5371320843696594,
        0.5876986980438232,
        -0.06471163034439087,
        0.0,
        -0.06011918932199478
      ]
    },
    {
      "pose": [
        0.9716672301292419,
        0.11676781624555588,
        0.20549467206001282,
        -0.4910855293273926,
        0.007033905480057001,
        0.8547680974006653,
        -0.5189624428749084,
        0.9548068046569824,
        -0.23624840378761292,
        0.5057042241096497,
        0.8297288417816162,
        3.3671698570251465
      ],
      "intrinsics": [
        703.74169921875,
        703.74169921875,
        960.0,
        540.0
      ],
      "appearance_weights": [
        0.5139707326889038,
        0.6104127168655396,
        -0.06655967980623245,
        0.0,
        -0.05782371759414673
      ]
    },
    {
      "pose": [
        0.972886860370636,
        0.1139531135559082,
        0.20126064121723175,
        -0.48057040572166443,
        0.007067966274917126,
        0.85514235496521,
        -0.5183451175689697,
        0.9525477290153503,
        -0.2311735302209854,
        0.5057136416435242,
        0.8311513066291809,
        3.365172863006592
      ],
      "intrinsics": [
        703.74169921875,
        703.74169921875,
        960.0,
        540.0
      ],
      "appearance_weights": [
        0.49075788259506226,
        0.6328984498977661,
        -0.06823844462633133,
        0.0,
        -0.05541788786649704
      ]
    },
    {
      "pose": [
        0.9741012454032898,
        0.11109141260385513,
        0.1969401240348816,
        -0.4698575437068939,
        0.007102741859853268,
        0.8555207848548889,
        -0.5177198052406311,
        0.9502391815185547,
        -0.2260005921125412,
        0.5057103037834167,
        0.8325748443603516,
        3.3632256984710693
      ],
      "intrinsics": [
        703.74169921875,
        703.74169921875,
        960.0,
        540.0
      ],
      "appearance_weights": [
        0.46753567457199097,
        0.655113935470581,
        -0.06973390281200409,
        0.0,
        -0.05291572958230972
      ]
    },
    {
      "pose": [
        0.9753071069717407,
        0.10818731039762497,
        0.19253960251808167,
        -0.4589623510837555,
        0.007138110231608152,
        0.855903148651123,
        -0.517086923122406,
        0.9478861093521118,
        -0.2207375019788742,
        0.5056928992271423,
        0.8339961767196655,
        3.3613269329071045
      ],
      "intrinsics": [
        703.74169921875,
        703.74169921875,
        960.0,
        540.0
      ],
      "appearance_weights": [
        0.44434621930122375,
        0.677017092704773,
        -0.07103203237056732,
        0.0,
        -0.05033126473426819
      ]
    },
    {
      "pose": [
        0.9765012264251709,
        0.105245441198349,
        0.18806563317775726,
        -0.44790029525756836,
        0.007173935417085886,
        0.8562892079353333,
        -0.5164468288421631,
        0.9454936385154724,
        -0.21539224684238434,
        0.5056601166725159,
        0.8354125022888184,
        3.3594746589660645
      ],
      "intrinsics": [
        703.74169921875,
        703.74169921875,
        960.0,
        540.0
      ],
      "appearance_weights": [
        0.42123159766197205,
        0.6985657215118408,
        -0.07211878895759583,
        0.0,
        -0.04767853021621704
      ]
    },
    {
      "pose": [
        0.9776806235313416,
        0.10227043926715851,
        0.18352478742599487,
        -0.4366868734359741,
        0.0072100660763680935,
        0.8566787838935852,
        -0.515799880027771,
        0.9430666565895081,
        -0.20997287333011627,
        0.5056107640266418,
        0.8368209004402161,
        3.3576676845550537
      ],
      "intrinsics": [
        703.74169921875,
        703.74169921875,
        960.0,
        540.0
      ],
      "appearance_weights": [
        0.3982338607311249,
        0.7197178602218628,
        -0.07298015058040619,
        0.0,
        -0.04497155174612999
      ]
    },
    {
      "pose": [
        0.9788423180580139,
        0.09926696121692657,
        0.17892371118068695,
        -0.4253374934196472,
        0.007246334105730057,
        0.857071578502655,
        -0.5151464343070984,
        0.9406102895736694,
        -0.20448744297027588,
        0.5055437088012695,
        0.838218629360199,
        3.3559043407440186
      ],
      "intrinsics": [
        703.74169921875,
        703.74169921875,
        960.0,
        540.0
      ],
      "appearance_weights": [
        0.37539511919021606,
        0.7404313087463379,
        -0.0736020877957344,
        0.0,
        -0.04222435504198074
      ]
    },
    {
      "pose": [
        0.9799837470054626,
        0.09623967111110687,
        0.17426909506320953,
        -0.4138675928115845,
        0.007282556965947151,
        0.8574673533439636,
        -0.5144869089126587,
        0.9381294250488281,
        -0.1989441066980362,
        0.5054579377174377,
        0.8396032452583313,
        3.354182481765747
      ],
      "intrinsics": [
        703.74169921875,
        703.74169921875,
        960.0,
        540.0
      ],
      "appearance_weights": [
        0.35275745391845703,
        0.7606641054153442,
        -0.07397057861089706,
        0.0,
        -0.03945097327232361
      ]
    },
    {
      "pose": [
        0.9811023473739624,
        0.09319323301315308,
        0.16956765949726105,
        -0.4022926986217499,
        0.007318534422665834,
        0.8578658699989319,
        -0.513821542263031,
        0.93562912940979,
        -0.19335100054740906,
        0.5053525567054749,
        0.8409721851348877,
        3.352501153945923
      ],
      "intrinsics": [
        703.74169921875,
        703.74169921875,
        960.0,
        540.0
      ],
      "appearance_weights": [
        0.3303629755973816,
        0.7803740501403809,
        -0.07407158613204956,
        0.0,
        -0.036665432155132294
      ]
    },
    {
      "pose": [
        0.9821957349777222,
        0.09013233333826065,
        0.16482622921466827,
        -0.39062821865081787,
        0.007354049943387508,
        0.8582669496536255,
        -0.5131508708000183,
        0.9331144094467163,
        -0.18771637976169586,
        0.505226731300354,
        0.8423233032226562,
        3.350858449935913
      ],
      "intrinsics": [
        703.74169921875,
        703.74169921875,
        960.0,
        540.0
      ],
      "appearance_weights": [
        0.3082537055015564,
        0.7995191216468811,
        -0.07389108091592789,
        0.0,
        -0.033881764858961105
      ]
    },
    {
      "pose": [
        0.98326176404953,
        0.08706165850162506,
        0.1600515991449356,
        -0.37888962030410767,
        0.00738886883482337,
        0.8586702942848206,
        -0.5124750733375549,
        0.9305903315544128,
        -0.1820484846830368,
        0.5050797462463379,
        0.843654453754425,
        3.349252700805664
      ],
      "intrinsics": [
        703.74169921875,
        703.74169921875,
        960.0,
        540.0
      ],
      "appearance_weights": [
        0.28647181391716003,
        0.8180572390556335,
        -0.07341504096984863,
        0.0,
        -0.031113993376493454
      ]
    },
    {
      "pose": [
        0.9842985272407532,
        0.08398591727018356,
        0.1552506685256958,
        -0.3670923411846161,
        0.00742274010553956,
        0.8590757846832275,
        -0.5117946267127991,
        0.9280617833137512,
        -0.17635563015937805,
        0.5049110651016235,
        0.8449636101722717,
        3.347682237625122
      ],
      "intrinsics": [
        703.74169921875,
        703.74169921875,
        960.0,
        540.0
      ],
      "appearance_weights": [
        0.26505932211875916,
        0.835946261882782,
        -0.0726294293999672,
        0.0,
        -0.028376150876283646
      ]
    },
    {
      "pose": [
        0.9853041768074036,
        0.08090979605913162,
        0.150430366396904,
        -0.35525181889533997,
        0.007455394137650728,
        0.8594831228256226,
        -0.5111097693443298,
        0.9255338311195374,
        -0.17064614593982697,
        0.5047200918197632,
        0.8462491035461426,
        3.3461456298828125
      ],
      "intrinsics": [
        703.74169921875,
        703.74169921875,
        960.0,
        540.0
      ],
      "appearance_weights": [
        0.24405834078788757,
        0.8531441688537598,
        -0.07152023166418076,
        0.0,
        -0.02568226307630539
      ]
    },
    {
      "pose": [
        0.9862771034240723,
        0.0778380036354065,
        0.1455976516008377,
        -0.3433835804462433,
        0.0074865445494651794,
        0.8598920702934265,
        -0.5104209780693054,
        0.9230115413665771,
        -0.16492842137813568,
        0.504506528377533,
        0.8475091457366943,
        3.3446412086486816
      ],
      "intrinsics": [
        703.74169921875,
        703.74169921875,
        960.0,
        540.0
      ],
      "appearance_weights": [
        0.2235109657049179,
        0.8696088194847107,
        -0.07007340341806412,
        0.0,
        -0.02304636314511299
      ]
    },
    {
      "pose": [
        0.9872159957885742,
        0.07477524876594543,
        0.14075951278209686,
        -0.3315030038356781,
        0.00751588586717844,
        0.8603025078773499,
        -0.5097284913063049,
        0.920499861240387,
        -0.15921084582805634,
        0.5042700171470642,
        0.8487424254417419,
        3.343167304992676
      ],
      "intrinsics": [
        703.74169921875,
        703.74169921875,
        960.0,
        540.0
      ],
      "appearance_weights": [
        0.2034592628479004,
        0.8852981328964233,
        -0.06827492266893387,
        0.0,
        -0.02048247680068016
      ]
    },
    {
      "pose": [
        0.9881195425987244,
        0.0717262327671051,
        0.13592302799224854,
        -0.3196256160736084,
        0.007543094921857119,
        0.8607141375541687,
        -0.509032666683197,
        0.9180037975311279,
        -0.15350186824798584,
        0.5040104389190674,
        0.849947452545166,
        3.3417224884033203
      ],
      "intrinsics": [
        703.74169921875,
        703.74169921875,
        960.0,
        540.0
      ],
      "appearance_weights": [
        0.18394532799720764,
        0.900170087814331,
        -0.066110759973526,
        0.0,
        -0.018004631623625755
      ]
    },
    {
      "pose": [
        0.9889867901802063,
        0.06869564950466156,
        0.13109524548053741,
        -0.30776679515838623,
        0.007567830383777618,
        0.8611268401145935,
        -0.5083338618278503,
        0.915528416633606,
        -0.1478099673986435,
        0.5037276148796082,
        0.8511232137680054,
        3.3403046131134033
      ],
      "intrinsics": [
        703.74169921875,
        703.74169921875,
        960.0,
        540.0
      ],
      "appearance_weights": [
        0.1650112420320511,
        0.9141824841499329,
        -0.06356688588857651,
        0.0,
        -0.015626858919858932
      ]
    },
    {
      "pose": [
        0.9898169040679932,
        0.06568821519613266,
        0.12628328800201416,
        -0.2959420382976532,
        0.007589731365442276,
        0.8615403175354004,
        -0.5076324343681335,
        0.9130786061286926,
        -0.1421436071395874,
        0.5034216642379761,
        0.852268636226654,
        3.3389127254486084
      ],
      "intrinsics": [
        703.74169921875,
        703.74169921875,
        960.0,
        540.0
      ],
      "appearance_weights": [
        0.14669910073280334,
        0.9272933602333069,
        -0.06062927469611168,
        0.0,
        -0.013363187201321125
      ]
    },
    {
      "pose": [
        0.9906092882156372,
        0.06270860880613327,
        0.12149427831172943,
        -0.2841668128967285,
        0.007608420681208372,
        0.8619544506072998,
        -0.5069286823272705,
        0.9106595516204834,
        -0.13651132583618164,
        0.5030926465988159,
        0.85338294506073,
        3.3375449180603027
      ],
      "intrinsics": [
        703.74169921875,
        703.74169921875,
        960.0,
        540.0
      ],
      "appearance_weights": [
        0.12905098497867584,
        0.9394605755805969,
        -0.05728389322757721,
        0.0,
        -0.011227643117308617
      ]
    },
    {
      "pose": [
        0.9913634061813354,
        0.059761516749858856,
        0.11673540621995926,
        -0.2724565267562866,
        0.007623500656336546,
        0.8623690009117126,
        -0.5062229037284851,
        0.9082760810852051,
        -0.1309216469526291,
        0.5027408003807068,
        0.8544654846191406,
        3.3361995220184326
      ],
      "intrinsics": [
        703.74169921875,
        703.74169921875,
        960.0,
        540.0
      ],
      "appearance_weights": [
        0.1121089830994606,
        0.9506419897079468,
        -0.05351671949028969,
        0.0,
        -0.00923425704240799
      ]
    },
    {
      "pose": [
        0.9920790195465088,
        0.056851621717214584,
        0.11201384663581848,
        -0.2608267068862915,
        0.007634557317942381,
        0.8627837300300598,
        -0.5055155158042908,
        0.9059333205223083,
        -0.12538310885429382,
        0.5023664832115173,
        0.8555156588554382,
        3.3348748683929443
      ],
      "intrinsics": [
        703.74169921875,
        703.74169921875,
        960.0,
        540.0
      ],
      "appearance_weights": [
        0.09591518342494965,
        0.9607955813407898,
        -0.04931371659040451,
        0.0,
        -0.007397057488560677
      ]
    },
    {
      "pose": [
        0.9927560091018677,
        0.05398358404636383,
        0.10733682662248611,
        -0.24929271638393402,
        0.007641156204044819,
        0.8631985783576965,
        -0.5048067569732666,
        0.9036362767219543,
        -0.1199042797088623,
        0.501970112323761,
        0.8565331101417542,
        3.3335695266723633
      ],
      "intrinsics": [
        703.74169921875,
        703.74169921875,
        960.0,
        540.0
      ],
      "appearance_weights": [
        0.0805116593837738,
        0.9698792695999146,
        -0.044660862535238266,
        0.0,
        -0.005730072967708111
      ]
    },
    {
      "pose": [
        0.9933945536613464,
        0.051162056624889374,
        0.10271157324314117,
        -0.23787008225917816,
        0.007642847020179033,
        0.8636132478713989,
        -0.5040969848632812,
        0.9013898968696594,
        -0.1144937202334404,
        0.5015522241592407,
        0.8575177192687988,
        3.3322818279266357
      ],
      "intrinsics": [
        703.74169921875,
        703.74169921875,
        960.0,
        540.0
      ],
      "appearance_weights": [
        0.0659405067563057,
        0.9778509736061096,
        -0.03954412415623665,
        0.0,
        -0.004247331991791725
      ]
    },
    {
      "pose": [
        0.9939948320388794,
        0.048391688615083694,
        0.09814533591270447,
        -0.22657422721385956,
        0.007639158982783556,
        0.8640276193618774,
        -0.5033864974975586,
        0.8991991877555847,
        -0.10916000604629517,
        0.5011132955551147,
        0.8584693074226379,
        3.331010103225708
      ],
      "intrinsics": [
        703.74169921875,
        703.74169921875,
        960.0,
        540.0
      ],
      "appearance_weights": [
        0.05224381014704704,
        0.9846685528755188,
        -0.03394947573542595,
        0.0,
        -0.0029628633055835962
      ]
    },
    {
      "pose": [
        0.99455726146698,
        0.04567709565162659,
        0.09364538639783859,
        -0.21542061865329742,
        0.00762960547581315,
        0.864441454410553,
        -0.5026756525039673,
        0.8970692157745361,
        -0.10391172021627426,
        0.5006541609764099,
        0.8593880534172058,
        3.3297529220581055
      ],
      "intrinsics": [
        703.74169921875,
        703.74169921875,
        960.0,
        540.0
      ],
      "appearance_weights": [
        0.03946365416049957,
        0.9902899265289307,
        -0.02786288596689701,
        0.0,
        -0.0018906958866864443
      ]
    },
    {
      "pose": [
        0.9950823783874512,
        0.04302288964390755,
        0.08921899646520615,
        -0.2044246941804886,
        0.007613681256771088,
        0.864854633808136,
        -0.5019646883010864,
        0.8950049877166748,
        -0.09875743091106415,
        0.5001755356788635,
        0.860274076461792,
        3.3285083770751953
      ],
      "intrinsics": [
        703.74169921875,
        703.74169921875,
        960.0,
        540.0
      ],
      "appearance_weights": [
        0.027642130851745605,
        0.9946730732917786,
        -0.021270329132676125,
        0.0,
        -0.0010448582470417023
      ]
    },
    {
      "pose": [
        0.995570957660675,
        0.04043366760015488,
        0.08487345278263092,
        -0.19360193610191345,
        0.007590863853693008,
        0.8652669191360474,
        -0.5012540221214294,
        0.8930114507675171,
        -0.09370572865009308,
        0.49967819452285767,
        0.8611277341842651,
        3.327275037765503
      ],
      "intrinsics": [
        703.74169921875,
        703.74169921875,
        960.0,
        540.0
      ],
      "appearance_weights": [
        0.016821319237351418,
        0.9977758526802063,
        -0.014157772995531559,
        0.0,
        -0.00043937916052527726
      ]
    },
    {
      "pose": [
        0.9960238933563232,
        0.03791399672627449,
        0.0806160569190979,
        -0.18296776711940765,
        0.0075606126338243484,
        0.8656781911849976,
        -0.5005438327789307,
        0.8910936713218689,
        -0.08876517415046692,
        0.49916312098503113,
        0.8619495034217834,
        3.3260509967803955
      ],
      "intrinsics": [
        703.74169921875,
        703.74169921875,
        960.0,
        540.0
      ],
      "appearance_weights": [
        0.007043309509754181,
        0.9995561838150024,
        -0.006511191371828318,
        0.0,
        -8.828734280541539e-05
      ]
    },
    {
      "pose": [
        0.9964425563812256,
        0.03546518832445145,
        0.07644854485988617,
        -0.17252391576766968,
        0.007522304076701403,
        0.8660888075828552,
        -0.4998335540294647,
        0.8892534375190735,
        -0.08393792062997818,
        0.49863049387931824,
        0.8627410531044006,
        3.3248343467712402
      ],
      "intrinsics": [
        703.74169921875,
        703.74169921875,
        960.0,
        540.0
      ],
      "appearance_weights": [
        -0.0016610739985480905,
        0.9999721050262451,
        0.0016945558600127697,
        -5.57407383894315e-06,
        0.0
      ]
    },
    {
      "pose": [
        0.996845006942749,
        0.03298444300889969,
        0.07219471037387848,
        -0.16183313727378845,
        0.00747358612716198,
        0.8665181994438171,
        -0.4990895688533783,
        0.8873883485794067,
        -0.07902022451162338,
        0.49805447459220886,
        0.8635377883911133,
        3.3236000537872314
      ],
      "intrinsics": [
        703.74169921875,
        703.74169921875,
        960.0,
        540.0
      ],
      "appearance_weights": [
        -0.009634804911911488,
        0.9990054368972778,
        0.010826684534549713,
        -0.0001972997561097145,
        0.0
      ]
    },
    {
      "pose": [
        0.9972367882728577,
        0.030423972755670547,
        0.06777229905128479,
        -0.15069419145584106,
        0.007414425723254681,
        0.8669745922088623,
        -0.49829724431037903,
        0.8854498863220215,
        -0.07391703873872757,
        0.49742284417152405,
        0.8643534183502197,
        3.3223390579223633
      ],
      "intrinsics": [
        703.74169921875,
        703.74169921875,
        960.0,
        540.0
      ],
      "appearance_weights": [
        -0.017066093161702156,
        0.9966910481452942,
        0.021026864647865295,
        -0.0006518299342133105,
        0.0
      ]
    },
    {
      "pose": [
        0.9976146817207336,
        0.027787936851382256,
        0.06318788230419159,
        -0.13912607729434967,
        0.007346050813794136,
        0.8674566149711609,
        -0.4974586069583893,
        0.8834412693977356,
        -0.06863609701395035,
        0.49673619866371155,
        0.8651833534240723,
        3.3210549354553223
      ],
      "intrinsics": [
        703.74169921875,
        703.74169921875,
        960.0,
        540.0
      ],
      "appearance_weights": [
        -0.02396896481513977,
        0.9930710792541504,
        0.03225301206111908,
        -0.0013551358133554459,
        0.0
      ]
    },
    {
      "pose": [
        0.9979753494262695,
        0.02508050948381424,
        0.05844809114933014,
        -0.1271478533744812,
        0.007269675377756357,
        0.8679628968238831,
        -0.49657580256462097,
        0.8813654780387878,
        -0.06318514794111252,
        0.49599531292915344,
        0.8660232424736023,
        3.319751262664795
      ],
      "intrinsics": [
        703.74169921875,
        703.74169921875,
        960.0,
        540.0
      ],
      "appearance_weights": [
        -0.030357452109456062,
        0.9881876111030579,
        0.04446303844451904,
        -0.002293188823387027,
        0.0
      ]
    },
    {
      "pose": [
        0.9983154535293579,
        0.022305861115455627,
        0.05355957895517349,
        -0.114778533577919,
        0.007186495698988438,
        0.8684921264648438,
        -0.49565091729164124,
        0.8792256712913513,
        -0.05757199227809906,
        0.49520087242126465,
        0.8668688535690308,
        3.3184313774108887
      ],
      "intrinsics": [
        703.74169921875,
        703.74169921875,
        960.0,
        540.0
      ],
      "appearance_weights": [
        -0.03624558076262474,
        0.9820826649665833,
        0.05761485919356346,
        -0.0034519601613283157,
        0.0
      ]
    },
    {
      "pose": [
        0.99863201379776,
        0.019468162208795547,
        0.04852905496954918,
        -0.10203716903924942,
        0.007097688503563404,
        0.8690428137779236,
        -0.4946860373020172,
        0.8770250082015991,
        -0.05180445685982704,
        0.4943537414073944,
        0.8677157759666443,
        3.317099094390869
      ],
      "intrinsics": [
        703.74169921875,
        703.74169921875,
        960.0,
        540.0
      ],
      "appearance_weights": [
        -0.04164738208055496,
        0.9747984409332275,
        0.07166638970375061,
        -0.004817421082407236,
        0.0
      ]
    },
    {
      "pose": [
        0.9989219307899475,
        0.01657157950103283,
        0.04336327686905861,
        -0.08894278109073639,
        0.007004403509199619,
        0.8696135878562927,
        -0.49368324875831604,
        0.8747665286064148,
        -0.045890405774116516,
        0.4934547543525696,
        0.8685600161552429,
        3.3157575130462646
      ],
      "intrinsics": [
        703.74169921875,
        703.74169921875,
        960.0,
        540.0
      ],
      "appearance_weights": [
        -0.046576883643865585,
        0.9663769006729126,
        0.08657553791999817,
        -0.006375543307512999,
        0.0
      ]
    },
    {
      "pose": [
        0.9991822838783264,
        0.013620268553495407,
        0.038069043308496475,
        -0.07551440596580505,
        0.006907761562615633,
        0.8702031373977661,
        -0.4926447570323944,
        0.8724533915519714,
        -0.03983775153756142,
        0.49250486493110657,
        0.8693974614143372,
        3.3144102096557617
      ],
      "intrinsics": [
        703.74169921875,
        703.74169921875,
        960.0,
        540.0
      ],
      "appearance_weights": [
        -0.05104811489582062,
        0.9568601846694946,
        0.10230022668838501,
        -0.008112297393381596,
        0.0
      ]
    },
    {
      "pose": [
        0.9994103312492371,
        0.01061837188899517,
        0.03265320509672165,
        -0.061771079897880554,
        0.006808852776885033,
        0.8708099722862244,
        -0.49157261848449707,
        0.8700886368751526,
        -0.033654436469078064,
        0.49150508642196655,
        0.8702241778373718,
        3.313060998916626
      ],
      "intrinsics": [
        703.74169921875,
        703.74169921875,
        960.0,
        540.0
      ],
      "appearance_weights": [
        -0.05507510155439377,
        0.9462903738021851,
        0.11879836022853851,
        -0.010013654828071594,
        0.0
      ]
    },
    {
      "pose": [
        0.9996034502983093,
        0.007570016197860241,
        0.02712266892194748,
        -0.047731827944517136,
        0.006708729080855846,
        0.8714327812194824,
        -0.4904690384864807,
        0.8676754832267761,
        -0.027348442003130913,
        0.4904564917087555,
        0.8710364699363708,
        3.3117129802703857
      ],
      "intrinsics": [
        703.74169921875,
        703.74169921875,
        960.0,
        540.0
      ],
      "appearance_weights": [
        -0.05867187678813934,
        0.9347096085548401,
        0.13602785766124725,
        -0.012065587565302849,
        0.0
      ]
    },
    {
      "pose": [
        0.9997591376304626,
        0.004479310009628534,
        0.021484384313225746,
        -0.03341568633913994,
        0.006608405616134405,
        0.8720701932907104,
        -0.48933616280555725,
        0.8652169108390808,
        -0.020927781239151955,
        0.4893602728843689,
        0.8718305826187134,
        3.3103699684143066
      ],
      "intrinsics": [
        703.74169921875,
        703.74169921875,
        960.0,
        540.0
      ],
      "appearance_weights": [
        -0.06185246631503105,
        0.9221599102020264,
        0.1539466381072998,
        -0.014254066161811352,
        0.0
      ]
    },
    {
      "pose": [
        0.9998751282691956,
        0.0013503384543582797,
        0.015745360404253006,
        -0.018841687589883804,
        0.00650885421782732,
        0.8727208375930786,
        -0.4881761968135834,
        0.8627161383628845,
        -0.014400506392121315,
        0.48821771144866943,
        0.8726030588150024,
        3.309035062789917
      ],
      "intrinsics": [
        703.74169921875,
        703.74169921875,
        960.0,
        540.0
      ],
      "appearance_weights": [
        -0.0646308958530426,
        0.9086833596229553,
        0.17251260578632355,
        -0.01656506210565567,
        0.0
      ]
    },
    {
      "pose": [
        0.9999492168426514,
        -0.0018128403462469578,
        0.009912646375596523,
        -0.004028863273561001,
        0.006411002948880196,
        0.8733832836151123,
        -0.4869913160800934,
        0.8601762056350708,
        -0.007774702273309231,
        0.48703014850616455,
        0.8733505606651306,
        3.3077120780944824
      ],
      "intrinsics": [
        703.74169921875,
        703.74169921875,
        960.0,
        540.0
      ],
      "appearance_weights": [
        -0.0670212060213089,
        0.8943220973014832,
        0.19168367981910706,
        -0.01898454688489437,
        0.0
      ]
    },
    {
      "pose": [
        0.9999794960021973,
        -0.005006197839975357,
        0.003993349615484476,
        0.011003753170371056,
        0.006315731909126043,
        0.8740562200546265,
        -0.48578375577926636,
        0.8576002717018127,
        -0.0010584822157397866,
        0.48579898476600647,
        0.8740699291229248,
        3.3064045906066895
      ],
      "intrinsics": [
        703.74169921875,
        703.74169921875,
        960.0,
        540.0
      ],
      "appearance_weights": [
        -0.06903740763664246,
        0.8791181445121765,
        0.2114177644252777,
        -0.02149849198758602,
        0.0
      ]
    },
    {
      "pose": [
        0.9999641180038452,
        -0.008225739002227783,
        -0.0020053801126778126,
        0.026237130165100098,
        0.006223873235285282,
        0.8747382760047913,
        -0.484555721282959,
        0.8549913763999939,
        0.005740012042224407,
        0.4845258593559265,
        0.8747581243515015,
        3.3051156997680664
      ],
      "intrinsics": [
        703.74169921875,
        703.74169921875,
        960.0,
        540.0
      ],
      "appearance_weights": [
        -0.07069354504346848,
        0.8631136417388916,
        0.23167279362678528,
        -0.024092867970466614,
        0.0
      ]
    },
    {
      "pose": [
        0.9999015927314758,
        -0.011467505246400833,
        -0.008076343685388565,
        0.04165223240852356,
        0.006136206444352865,
        0.8754280805587769,
        -0.48330944776535034,
        0.8523527383804321,
        0.012612612918019295,
        0.48321235179901123,
        0.8754123449325562,
        3.303849220275879
      ],
      "intrinsics": [
        703.74169921875,
        703.74169921875,
        960.0,
        540.0
      ],
      "appearance_weights": [
        -0.07200364023447037,
        0.8463506102561951,
        0.25240665674209595,
        -0.02675364539027214,
        0.0
      ]
    },
    {
      "pose": [
        0.9997904896736145,
        -0.014727577567100525,
        -0.014212300069630146,
        0.05723003298044205,
        0.006053456570953131,
        0.8761243224143982,
        -0.48204725980758667,
        0.8496873378753662,
        0.019551130011677742,
        0.4818602204322815,
        0.8760299682617188,
        3.3026084899902344
      ],
      "intrinsics": [
        703.74169921875,
        703.74169921875,
        960.0,
        540.0
      ],
      "appearance_weights": [
        -0.07298172265291214,
        0.8288712501525879,
        0.2735773026943207,
        -0.029466798529028893,
        0.0
      ]
    },
    {
      "pose": [
        0.9996296763420105,
        -0.01800207979977131,
        -0.02040596306324005,
        0.07295149564743042,
        0.005976295098662376,
        0.8768256306648254,
        -0.48077136278152466,
        0.846998393535614,
        0.026547357439994812,
        0.4804713726043701,
        0.8766085505485535,
        3.3013970851898193
      ],
      "intrinsics": [
        703.74169921875,
        703.74169921875,
        960.0,
        540.0
      ],
      "appearance_weights": [
        -0.0736418217420578,
        0.8107175230979919,
        0.29514259099960327,
        -0.03221829608082771,
        0.0
      ]
    },
    {
      "pose": [
        0.9994181394577026,
        -0.021287182345986366,
        -0.02665001153945923,
        0.08879758417606354,
        0.0059053353033959866,
        0.8775306940078735,
        -0.47948411107063293,
        0.8442889451980591,
        0.0335930697619915,
        0.4790477156639099,
        0.8771458268165588,
        3.300218343734741
      ],
      "intrinsics": [
        703.74169921875,
        703.74169921875,
        960.0,
        540.0
      ],
      "appearance_weights": [
        -0.07399795949459076,
        0.7919315695762634,
        0.3170605003833771,
        -0.034994110465049744,
        0.0
      ]
    },
    {
      "pose": [
        0.9991551041603088,
        -0.024579105898737907,
        -0.03293708711862564,
        0.10474926978349686,
        0.005841133650392294,
        0.8782382011413574,
        -0.47818776965141296,
        0.8415620923042297,
        0.04068003594875336,
        0.4775913655757904,
        0.8776398301124573,
        3.2990760803222656
      ],
      "intrinsics": [
        703.74169921875,
        703.74169921875,
        960.0,
        540.0
      ],
      "appearance_weights": [
        -0.07406417280435562,
        0.7725554704666138,
        0.3392888903617859,
        -0.03778021037578583,
        0.0
      ]
    },
    {
      "pose": [
        0.9988401532173157,
        -0.027874119579792023,
        -0.03925979137420654,
        0.12078752368688583,
        0.005784185603260994,
        0.878946840763092,
        -0.476884663105011,
        0.8388210535049438,
        0.047800011932849884,
        0.4761044681072235,
        0.878088653087616,
        3.297973394393921
      ],
      "intrinsics": [
        703.74169921875,
        703.74169921875,
        960.0,
        540.0
      ],
      "appearance_weights": [
        -0.0738544911146164,
        0.7526313662528992,
        0.3617857098579407,
        -0.040562570095062256,
        0.0
      ]
    },
    {
      "pose": [
        0.9984729290008545,
        -0.03116855025291443,
        -0.0456107035279274,
        0.13689330220222473,
        0.005734928417950869,
        0.8796553015708923,
        -0.475577175617218,
        0.8360688090324402,
        0.05494474992156029,
        0.47458934783935547,
        0.8784908056259155,
        3.2969141006469727
      ],
      "intrinsics": [
        703.74169921875,
        703.74169921875,
        960.0,
        540.0
      ],
      "appearance_weights": [
        -0.07338294386863708,
        0.7322012782096863,
        0.3845088481903076,
        -0.04332716390490532,
        0.0
      ]
    },
    {
      "pose": [
        0.9980533123016357,
        -0.03445877879858017,
        -0.05198237672448158,
        0.1530475914478302,
        0.005693736486136913,
        0.880362331867218,
        -0.4742676019668579,
        0.8333085179328918,
        0.06210601329803467,
        0.4730483889579773,
        0.8788447380065918,
        3.2959015369415283
      ],
      "intrinsics": [
        703.74169921875,
        703.74169921875,
        960.0,
        540.0
      ],
      "appearance_weights": [
        -0.0726635530591011,
        0.7113072872161865,
        0.4074162244796753,
        -0.04605995491147041,
        0.0
      ]
    },
    {
      "pose": [
        0.9975814819335938,
        -0.03774125128984451,
        -0.05836734175682068,
        0.1692313402891159,
        0.005660924594849348,
        0.881066620349884,
        -0.47295835614204407,
        0.8305433392524719,
        0.06927555799484253,
        0.47148409485816956,
        0.8791493773460388,
        3.2949392795562744
      ],
      "intrinsics": [
        703.74169921875,
        703.74169921875,
        960.0,
        540.0
      ],
      "appearance_weights": [
        -0.07171034812927246,
        0.6899914741516113,
        0.4304657578468323,
        -0.04874692112207413,
        0.0
      ]
    },
    {
      "pose": [
        0.9970578551292419,
        -0.041012465953826904,
        -0.06475809961557388,
        0.1854255199432373,
        0.005636745132505894,
        0.8817669153213501,
        -0.47165176272392273,
        0.827776312828064,
        0.07644515484571457,
        0.46989908814430237,
        0.8794037699699402,
        3.2940306663513184
      ],
      "intrinsics": [
        703.74169921875,
        703.74169921875,
        960.0,
        540.0
      ],
      "appearance_weights": [
        -0.07053735852241516,
        0.6682959794998169,
        0.4536153972148895,
        -0.051374029368162155,
        0.0
      ]
    },
    {
      "pose": [
        0.9964829683303833,
        -0.04426899552345276,
        -0.07114715129137039,
        0.20161110162734985,
        0.005621389020234346,
        0.8824619054794312,
        -0.4703502655029297,
        0.8250105381011963,
        0.08360658586025238,
        0.468296080827713,
        0.8796071410179138,
        3.293179512023926
      ],
      "intrinsics": [
        703.74169921875,
        703.74169921875,
        960.0,
        540.0
      ],
      "appearance_weights": [
        -0.06915861368179321,
        0.6462628841400146,
        0.47682297229766846,
        -0.05392725393176079,
        0.0
      ]
    },
    {
      "pose": [
        0.9958577156066895,
        -0.04750746488571167,
        -0.0775269865989685,
        0.217769056558609,
        0.00561498524621129,
        0.8831504583358765,
        -0.46905621886253357,
        0.822249174118042,
        0.09075166285037994,
        0.4666779339313507,
        0.8797589540481567,
        3.292388916015625
      ],
      "intrinsics": [
        703.74169921875,
        703.74169921875,
        960.0,
        540.0
      ],
      "appearance_weights": [
        -0.06758815050125122,
        0.6239342093467712,
        0.5000464916229248,
        -0.05639256536960602,
        0.0
      ]
    },
    {
      "pose": [
        0.9951831102371216,
        -0.0507245808839798,
        -0.08389006555080414,
        0.23388034105300903,
        0.005617602728307247,
        0.8838313221931458,
        -0.4677720367908478,
        0.8194953203201294,
        0.09787221252918243,
        0.46504759788513184,
        0.8798589706420898,
        3.2916624546051025
      ],
      "intrinsics": [
        703.74169921875,
        703.74169921875,
        960.0,
        540.0
      ],
      "appearance_weights": [
        -0.065839983522892,
        0.6013521552085876,
        0.52324378490448,
        -0.058755937963724136,
        0.0
      ]
    },
    {
      "pose": [
        0.9944604635238647,
        -0.05391710624098778,
        -0.09022887796163559,
        0.24992594122886658,
        0.005629249848425388,
        0.884503185749054,
        -0.4665001630783081,
        0.8167520761489868,
        0.10496007651090622,
        0.46340805292129517,
        0.8799070119857788,
        3.291003942489624
      ],
      "intrinsics": [
        703.74169921875,
        703.74169921875,
        960.0,
        540.0
      ],
      "appearance_weights": [
        -0.06392814964056015,
        0.5785586833953857,
        0.5463728308677673,
        -0.06100333482027054,
        0.0
      ]
    },
    {
      "pose": [
        0.9936913251876831,
        -0.05708187818527222,
        -0.09653589874505997,
        0.2658868134021759,
        0.005649874452501535,
        0.8851649761199951,
        -0.46524298191070557,
        0.8140226006507874,
        0.11200714111328125,
        0.4617624878883362,
        0.8799033164978027,
        3.2904164791107178
      ],
      "intrinsics": [
        703.74169921875,
        703.74169921875,
        960.0,
        540.0
      ],
      "appearance_weights": [
        -0.06186668202280998,
        0.555595874786377,
        0.5693914890289307,
        -0.06312073767185211,
        0.0
      ]
    },
    {
      "pose": [
        0.9928773641586304,
        -0.060215797275304794,
        -0.10280360281467438,
        0.2817439138889313,
        0.005679367110133171,
        0.8858155012130737,
        -0.46400290727615356,
        0.8113098740577698,
        0.11900532990694046,
        0.46011412143707275,
        0.8798481225967407,
        3.2899038791656494
      ],
      "intrinsics": [
        703.74169921875,
        703.74169921875,
        960.0,
        540.0
      ],
      "appearance_weights": [
        -0.05966959893703461,
        0.5325059294700623,
        0.5922577381134033,
        -0.06509410589933395,
        0.0
      ]
    },
    {
      "pose": [
        0.9920205473899841,
        -0.06331584602594376,
        -0.10902447998523712,
        0.29747822880744934,
        0.005717561114579439,
        0.8864534497261047,
        -0.46278244256973267,
        0.808617115020752,
        0.12594659626483917,
        0.4584663212299347,
        0.8797420859336853,
        3.2894692420959473
      ],
      "intrinsics": [
        703.74169921875,
        703.74169921875,
        960.0,
        540.0
      ],
      "appearance_weights": [
        -0.05735093355178833,
        0.5093309283256531,
        0.6149294376373291,
        -0.06690942496061325,
        0.0
      ]
    },
    {
      "pose": [
        0.9911230206489563,
        -0.06637906283140182,
        -0.1151910349726677,
        0.31307071447372437,
        0.005764232948422432,
        0.887077808380127,
        -0.4615839421749115,
        0.8059474229812622,
        0.1328229308128357,
        0.4568224847316742,
        0.879585862159729,
        3.289116382598877
      ],
      "intrinsics": [
        703.74169921875,
        703.74169921875,
        960.0,
        540.0
      ],
      "appearance_weights": [
        -0.05492471531033516,
        0.4861128330230713,
        0.6373645067214966,
        -0.0685526505112648,
        0.0
      ]
    },
    {
      "pose": [
        0.9901871681213379,
        -0.06940257549285889,
        -0.12129578739404678,
        0.3285023272037506,
        0.005819106008857489,
        0.8876873850822449,
        -0.46040990948677063,
        0.8033038973808289,
        0.1396263688802719,
        0.455186128616333,
        0.8793805241584778,
        3.288848876953125
      ],
      "intrinsics": [
        703.74169921875,
        703.74169921875,
        960.0,
        540.0
      ],
      "appearance_weights": [
        -0.052404969930648804,
        0.4628938138484955,
        0.6595209240913391,
        -0.07000976800918579,
        0.0
      ]
    },
    {
      "pose": [
        0.9892154932022095,
        -0.07238355278968811,
        -0.12733128666877747,
        0.3437540531158447,
        0.005881852004677057,
        0.888280987739563,
        -0.4592627286911011,
        0.8006896376609802,
        0.14634902775287628,
        0.45356088876724243,
        0.8791271448135376,
        3.2886698246002197
      ],
      "intrinsics": [
        703.74169921875,
        703.74169921875,
        960.0,
        540.0
      ],
      "appearance_weights": [
        -0.04980573058128357,
        0.4397159516811371,
        0.6813564896583557,
        -0.07126674056053162,
        0.0
      ]
    },
    {
      "pose": [
        0.9882108569145203,
        -0.07531925290822983,
        -0.13329006731510162,
        0.35880687832832336,
        0.005952091887593269,
        0.8888576030731201,
        -0.4581449031829834,
        0.7981077432632446,
        0.15298302471637726,
        0.45195043087005615,
        0.8788270950317383,
        3.2885830402374268
      ],
      "intrinsics": [
        703.74169921875,
        703.74169921875,
        960.0,
        540.0
      ],
      "appearance_weights": [
        -0.047141026705503464,
        0.4166213274002075,
        0.7028292417526245,
        -0.07230953872203827,
        0.0
      ]
    },
    {
      "pose": [
        0.9871761798858643,
        -0.07820699363946915,
        -0.1391647458076477,
        0.3736417293548584,
        0.006029400043189526,
        0.8894160389900208,
        -0.457058846950531,
        0.7955613136291504,
        0.15952055156230927,
        0.450358510017395,
        0.8784818649291992,
        3.2885918617248535
      ],
      "intrinsics": [
        703.74169921875,
        703.74169921875,
        960.0,
        540.0
      ],
      "appearance_weights": [
        -0.0444248802959919,
        0.3936520516872406,
        0.7238969802856445,
        -0.07312414050102234,
        0.0
      ]
    },
    {
      "pose": [
        0.9861145615577698,
        -0.08104416728019714,
        -0.14494791626930237,
        0.3882395923137665,
        0.006113304756581783,
        0.8899552226066589,
        -0.4560069739818573,
        0.7930535078048706,
        0.1659538596868515,
        0.44878900051116943,
        0.8780932426452637,
        3.2886998653411865
      ],
      "intrinsics": [
        703.74169921875,
        703.74169921875,
        960.0,
        540.0
      ],
      "appearance_weights": [
        -0.04167132452130318,
        0.370850145816803,
        0.7445176839828491,
        -0.07369650900363922,
        0.0
      ]
    },
    {
      "pose": [
        0.9850292801856995,
        -0.08382821828126907,
        -0.15063224732875824,
        0.40258142352104187,
        0.006203293334692717,
        0.8904740810394287,
        -0.45499175786972046,
        0.7905873656272888,
        0.17227526009082794,
        0.4472457766532898,
        0.8776630759239197,
        3.2889106273651123
      ],
      "intrinsics": [
        703.74169921875,
        703.74169921875,
        960.0,
        540.0
      ],
      "appearance_weights": [
        -0.03889438882470131,
        0.34825775027275085,
        0.7646492719650269,
        -0.0740126222372055,
        0.0
      ]
    },
    {
      "pose": [
        0.9839239120483398,
        -0.08655665814876556,
        -0.15621039271354675,
        0.4166482090950012,
        0.006298813037574291,
        0.8909714818000793,
        -0.4540156126022339,
        0.7881661057472229,
        0.17847707867622375,
        0.44573286175727844,
        0.8771933317184448,
        3.2892274856567383
      ],
      "intrinsics": [
        703.74169921875,
        703.74169921875,
        960.0,
        540.0
      ],
      "appearance_weights": [
        -0.0361081026494503,
        0.32591694593429565,
        0.7842496037483215,
        -0.07405845075845718,
        0.0
      ]
    },
    {
      "pose": [
        0.9828019142150879,
        -0.08922705054283142,
        -0.1616750955581665,
        0.4304209053516388,
        0.006399276200681925,
        0.8914464116096497,
        -0.4530809819698334,
        0.7857927083969116,
        0.18455177545547485,
        0.4442542791366577,
        0.8766862750053406,
        3.289654016494751
      ],
      "intrinsics": [
        703.74169921875,
        703.74169921875,
        960.0,
        540.0
      ],
      "appearance_weights": [
        -0.033326487988233566,
        0.3038698136806488,
        0.8032766580581665,
        -0.07381996512413025,
        0.0
      ]
    },
    {
      "pose": [
        0.9816672205924988,
        -0.09183702617883682,
        -0.1670190989971161,
        0.44388049840927124,
        0.006504061631858349,
        0.8918977975845337,
        -0.4521903097629547,
        0.7834703922271729,
        0.19049178063869476,
        0.4428141117095947,
        0.8761441707611084,
        3.290193557739258
      ],
      "intrinsics": [
        703.74169921875,
        703.74169921875,
        960.0,
        540.0
      ],
      "appearance_weights": [
        -0.030563581734895706,
        0.28215840458869934,
        0.8216882944107056,
        -0.0732831284403801,
        0.0
      ]
    },
    {
      "pose": [
        0.9805236458778381,
        -0.09438426047563553,
        -0.1722351759672165,
        0.45700791478157043,
        0.006612519267946482,
        0.8923245668411255,
        -0.4513459801673889,
        0.7812021970748901,
        0.19628964364528656,
        0.44141650199890137,
        0.8755694627761841,
        3.2908496856689453
      ],
      "intrinsics": [
        703.74169921875,
        703.74169921875,
        960.0,
        540.0
      ],
      "appearance_weights": [
        -0.02783340774476528,
        0.26082485914230347,
        0.8394424915313721,
        -0.07243392616510391,
        0.0
      ]
    },
    {
      "pose": [
        0.9793752431869507,
        -0.09686646610498428,
        -0.17731617391109467,
        0.4697841703891754,
        0.006723975297063589,
        0.8927256464958191,
        -0.4505504369735718,
        0.7789912223815918,
        0.2019379436969757,
        0.4400656819343567,
        0.874964714050293,
        3.2916259765625
      ],
      "intrinsics": [
        703.74169921875,
        703.74169921875,
        960.0,
        540.0
      ],
      "appearance_weights": [
        -0.0251499954611063,
        0.23991122841835022,
        0.8564971089363098,
        -0.07125832140445709,
        0.0
      ]
    },
    {
      "pose": [
        0.9782260656356812,
        -0.0992814227938652,
        -0.18225495517253876,
        0.48219019174575806,
        0.006837733555585146,
        0.8931000828742981,
        -0.4498060941696167,
        0.7768406271934509,
        0.20742930471897125,
        0.43876585364341736,
        0.8743326663970947,
        3.2925260066986084
      ],
      "intrinsics": [
        703.74169921875,
        703.74169921875,
        960.0,
        540.0
      ],
      "appearance_weights": [
        -0.02252737618982792,
        0.2194596230983734,
        0.8728100657463074,
        -0.06974228471517563,
        0.0
      ]
    },
    {
      "pose": [
        0.9770805239677429,
        -0.1016269251704216,
        -0.1870444267988205,
        0.494206964969635,
        0.006953081581741571,
        0.8934467434883118,
        -0.4491153359413147,
        0.7747535109519958,
        0.2127564549446106,
        0.4375213086605072,
        0.873676061630249,
        3.293553113937378
      ],
      "intrinsics": [
        703.74169921875,
        703.74169921875,
        960.0,
        540.0
      ],
      "appearance_weights": [
        -0.019979575648903847,
        0.19951210916042328,
        0.8883392810821533,
        -0.06787179410457611,
        0.0
      ]
    },
    {
      "pose": [
        0.9759427905082703,
        -0.10390082001686096,
        -0.1916775405406952,
        0.5058154463768005,
        0.00706929387524724,
        0.8937646150588989,
        -0.4484805762767792,
        0.7727329730987549,
        0.21791210770606995,
        0.43633633852005005,
        0.8729976415634155,
        3.294710636138916
      ],
      "intrinsics": [
        703.74169921875,
        703.74169921875,
        960.0,
        540.0
      ],
      "appearance_weights": [
        -0.01752062328159809,
        0.18011078238487244,
        0.9030426740646362,
        -0.06563281267881393,
        0.0
      ]
    },
    {
      "pose": [
        0.9748173356056213,
        -0.10610097646713257,
        -0.19614726305007935,
        0.5169966220855713,
        0.007185638416558504,
        0.8940526843070984,
        -0.44790416955947876,
        0.7707821130752563,
        0.22288906574249268,
        0.4352152943611145,
        0.8723004460334778,
        3.2960023880004883
      ],
      "intrinsics": [
        703.74169921875,
        703.74169921875,
        960.0,
        540.0
      ],
      "appearance_weights": [
        -0.015164547599852085,
        0.1612977236509323,
        0.9168781638145447,
        -0.06301131099462509,
        0.0
      ]
    },
    {
      "pose": [
        0.9737085700035095,
        -0.1082252785563469,
        -0.20044662058353424,
        0.5277314782142639,
        0.00730137899518013,
        0.8943098783493042,
        -0.44738855957984924,
        0.7689040303230286,
        0.22768014669418335,
        0.43416252732276917,
        0.8715874552726746,
        3.297431707382202
      ],
      "intrinsics": [
        703.74169921875,
        703.74169921875,
        960.0,
        540.0
      ],
      "appearance_weights": [
        -0.012925378978252411,
        0.14311501383781433,
        0.9298036098480225,
        -0.05999326705932617,
        0.0
      ]
    },
    {
      "pose": [
        0.9726210832595825,
        -0.1102716326713562,
        -0.20456866919994354,
        0.5380009412765503,
        0.007415781728923321,
        0.8945351839065552,
        -0.4469360411167145,
        0.7671018838882446,
        0.2322782427072525,
        0.43318238854408264,
        0.8708615899085999,
        3.299002170562744
      ],
      "intrinsics": [
        703.74169921875,
        703.74169921875,
        960.0,
        540.0
      ],
      "appearance_weights": [
        -0.010817144997417927,
        0.1256047487258911,
        0.9417770504951477,
        -0.05656465142965317,
        0.0
      ]
    },
    {
      "pose": [
        0.9715594053268433,
        -0.11223795264959335,
        -0.2085064947605133,
        0.5477859973907471,
        0.007528120651841164,
        0.8947275280952454,
        -0.4465489983558655,
        0.7653787732124329,
        0.23667626082897186,
        0.43227922916412354,
        0.8701258897781372,
        3.3007171154022217
      ],
      "intrinsics": [
        703.74169921875,
        703.74169921875,
        960.0,
        540.0
      ],
      "appearance_weights": [
        -0.008853873237967491,
        0.10880902409553528,
        0.9527562856674194,
        -0.05271143466234207,
        0.0
      ]
    },
    {
      "pose": [
        0.9705280065536499,
        -0.1141221672296524,
        -0.21225322782993317,
        0.5570675730705261,
        0.007637681905180216,
        0.8948858380317688,
        -0.44622981548309326,
        0.7637377381324768,
        0.24086712300777435,
        0.43145743012428284,
        0.8693833947181702,
        3.3025801181793213
      ],
      "intrinsics": [
        703.74169921875,
        703.74169921875,
        960.0,
        540.0
      ],
      "appearance_weights": [
        -0.0070495945401489735,
        0.09276990592479706,
        0.962699294090271,
        -0.04841958358883858,
        0.0
      ]
    },
    {
      "pose": [
        0.9695315957069397,
        -0.11592216789722443,
        -0.21580201387405396,
        0.5658266544342041,
        0.00774376979097724,
        0.8950090408325195,
        -0.44598081707954407,
        0.7621819376945496,
        0.24484382569789886,
        0.43072137236595154,
        0.868637204170227,
        3.3045945167541504
      ],
      "intrinsics": [
        703.74169921875,
        703.74169921875,
        960.0,
        540.0
      ],
      "appearance_weights": [
        -0.005418336484581232,
        0.07752948999404907,
        0.9715639352798462,
        -0.043675072491168976,
        0.0
      ]
    },
    {
      "pose": [
        0.968574583530426,
        -0.11763586848974228,
        -0.2191460281610489,
        0.5740442872047424,
        0.007845713756978512,
        0.8950960636138916,
        -0.44580429792404175,
        0.7607145309448242,
        0.2485993355512619,
        0.43007537722587585,
        0.8678902983665466,
        3.3067641258239746
      ],
      "intrinsics": [
        703.74169921875,
        703.74169921875,
        960.0,
        540.0
      ],
      "appearance_weights": [
        -0.0039741275832057,
        0.06312986463308334,
        0.9793081283569336,
        -0.03846387565135956,
        0.0
      ]
    },
    {
      "pose": [
        0.9676616191864014,
        -0.11926114559173584,
        -0.22227847576141357,
        0.5817013382911682,
        0.007942870259284973,
        0.895145833492279,
        -0.4457026422023773,
        0.7593385577201843,
        0.25212666392326355,
        0.4295238256454468,
        0.8671455979347229,
        3.3090922832489014
      ],
      "intrinsics": [
        703.74169921875,
        703.74169921875,
        960.0,
        540.0
      ],
      "appearance_weights": [
        -0.0027309968136250973,
        0.049613106995821,
        0.9858898520469666,
        -0.032771963626146317,
        0.0
      ]
    },
    {
      "pose": [
        0.9667971134185791,
        -0.1207958310842514,
        -0.22519256174564362,
        0.5887788534164429,
        0.00803463626652956,
        0.8951572179794312,
        -0.44567811489105225,
        0.7580571174621582,
        0.2554188072681427,
        0.42907097935676575,
        0.8664059638977051,
        3.311582565307617
      ],
      "intrinsics": [
        703.74169921875,
        703.74169921875,
        960.0,
        540.0
      ],
      "appearance_weights": [
        -0.0017029730370268226,
        0.03702131286263466,
        0.9912669658660889,
        -0.026585301384329796,
        0.0
      ]
    },
    {
      "pose": [
        0.9659854769706726,
        -0.12223774939775467,
        -0.2278815358877182,
        0.5952576994895935,
        0.008120449259877205,
        0.8951290845870972,
        -0.44573304057121277,
        0.756873369216919,
        0.2584688067436218,
        0.4287211298942566,
        0.8656743764877319,
        3.3142383098602295
      ],
      "intrinsics": [
        703.74169921875,
        703.74169921875,
        960.0,
        540.0
      ],
      "appearance_weights": [
        -0.0009040848235599697,
        0.025396564975380898,
        0.9953973889350891,
        -0.019889866933226585,
        0.0
      ]
    },
    {
      "pose": [
        0.9652310013771057,
        -0.12358465045690536,
        -0.23033864796161652,
        0.6011189818382263,
        0.008199794217944145,
        0.8950603008270264,
        -0.44586971402168274,
        0.7557903528213501,
        0.26126962900161743,
        0.42847853899002075,
        0.8649533987045288,
        3.317063093185425
      ],
      "intrinsics": [
        703.74169921875,
        703.74169921875,
        960.0,
        540.0
      ],
      "appearance_weights": [
        -0.0003483608888927847,
        0.014780947007238865,
        0.9982390403747559,
        -0.012671628035604954,
        0.0
      ]
    },
    {
      "pose": [
        0.9645379781723022,
        -0.12483423948287964,
        -0.23255713284015656,
        0.6063435077667236,
        0.008272213861346245,
        0.8949496746063232,
        -0.44609037041664124,
        0.7548112869262695,
        0.2638143002986908,
        0.4283473491668701,
        0.8642456531524658,
        3.3200602531433105
      ],
      "intrinsics": [
        703.74169921875,
        703.74169921875,
        960.0,
        540.0
      ],
      "appearance_weights": [
        -4.982997415936552e-05,
        0.005216547288000584,
        0.9997498393058777,
        -0.00491655757650733,
        0.0
      ]
    },
    {
      "pose": [
        0.9639101624488831,
        -0.1259850114583969,
        -0.23453129827976227,
        0.6109150648117065,
        0.008337058126926422,
        0.8947950601577759,
        -0.4463992416858673,
        0.7539418935775757,
        0.2660970687866211,
        0.42833346128463745,
        0.863552451133728,
        3.3232414722442627
      ],
      "intrinsics": [
        703.74169921875,
        703.74169921875,
        960.0,
        540.0
      ],
      "appearance_weights": [
        0.0,
        -0.0032998889219015837,
        0.9998885989189148,
        0.0034335171803832054,
        -2.2221474864636548e-05
      ]
    },
    {
      "pose": [
        0.9633467197418213,
        -0.12704426050186157,
        -0.23626841604709625,
        0.614851713180542,
        0.008391732349991798,
        0.8945874571800232,
        -0.44681409001350403,
        0.7532074451446533,
        0.2681279480457306,
        0.42845419049263,
        0.862864077091217,
        3.326681137084961
      ],
      "intrinsics": [
        703.74169921875,
        703.74169921875,
        960.0,
        540.0
      ],
      "appearance_weights": [
        0.0,
        -0.01116400957107544,
        0.998649001121521,
        0.012782623060047626,
        -0.00026763035566546023
      ]
    },
    {
      "pose": [
        0.9628468155860901,
        -0.12801632285118103,
        -0.2377767264842987,
        0.6181748509407043,
        0.008435716852545738,
        0.8943262696266174,
        -0.4473358690738678,
        0.7526096701622009,
        0.26991626620292664,
        0.42871010303497314,
        0.862179160118103,
        3.3303897380828857
      ],
      "intrinsics": [
        703.74169921875,
        703.74169921875,
        960.0,
        540.0
      ],
      "appearance_weights": [
        0.0,
        -0.01848849095404148,
        0.996070146560669,
        0.023191364482045174,
        -0.0007730379584245384
      ]
    },
    {
      "pose": [
        0.9624098539352417,
        -0.12890379130840302,
        -0.23906295001506805,
        0.6209020614624023,
        0.008469188585877419,
        0.8940130472183228,
        -0.44796085357666016,
        0.7521437406539917,
        0.27146926522254944,
        0.4290972650051117,
        0.8614987134933472,
        3.334357976913452
      ],
      "intrinsics": [
        703.74169921875,
        703.74169921875,
        960.0,
        540.0
      ],
      "appearance_weights": [
        0.0,
        -0.025287365540862083,
        0.9921941161155701,
        0.03461765497922897,
        -0.0015244155656546354
      ]
    },
    {
      "pose": [
        0.9620349407196045,
        -0.1297091543674469,
        -0.24013379216194153,
        0.6230509281158447,
        0.008492412976920605,
        0.8936494588851929,
        -0.44868534803390503,
        0.7518047094345093,
        0.27279403805732727,
        0.4296116828918457,
        0.8608235716819763,
        3.3385777473449707
      ],
      "intrinsics": [
        703.74169921875,
        703.74169921875,
        960.0,
        540.0
      ],
      "appearance_weights": [
        0.0,
        -0.031574659049510956,
        0.9870629906654358,
        0.04701940715312958,
        -0.002507734578102827
      ]
    },
    {
      "pose": [
        0.9617211818695068,
        -0.1304347813129425,
        -0.24099594354629517,
        0.624639093875885,
        0.008505735546350479,
        0.8932369947433472,
        -0.44950562715530396,
        0.7515878677368164,
        0.2738976776599884,
        0.43024924397468567,
        0.8601544499397278,
        3.3430402278900146
      ],
      "intrinsics": [
        703.74169921875,
        703.74169921875,
        960.0,
        540.0
      ],
      "appearance_weights": [
        0.0,
        -0.037364400923252106,
        0.9807188510894775,
        0.06035453453660011,
        -0.003708966076374054
      ]
    },
    {
      "pose": [
        0.9614673852920532,
        -0.13108298182487488,
        -0.24165606498718262,
        0.6256840229034424,
        0.00850957352668047,
        0.8927772641181946,
        -0.4504179358482361,
        0.751488208770752,
        0.27478715777397156,
        0.4310057759284973,
        0.859491765499115,
        3.3477368354797363
      ],
      "intrinsics": [
        703.74169921875,
        703.74169921875,
        960.0,
        540.0
      ],
      "appearance_weights": [
        0.0,
        -0.04267061874270439,
        0.973203718662262,
        0.07458095252513885,
        -0.005114081781357527
      ]
    },
    {
      "pose": [
        0.9612721800804138,
        -0.13165594637393951,
        -0.24212080240249634,
        0.6262033581733704,
        0.008504408411681652,
        0.8922717571258545,
        -0.45141860842704773,
        0.7515010833740234,
        0.27546951174736023,
        0.4318770468235016,
        0.8588356971740723,
        3.352658748626709
      ],
      "intrinsics": [
        703.74169921875,
        703.74169921875,
        960.0,
        540.0
      ],
      "appearance_weights": [
        0.0,
        -0.04750734195113182,
        0.96455979347229,
        0.08965658396482468,
        -0.006709052249789238
      ]
    },
    {
      "pose": [
        0.9611340165138245,
        -0.13215583562850952,
        -0.24239680171012878,
        0.6262146830558777,
        0.00849077571183443,
        0.8917220234870911,
        -0.45250388979911804,
        0.7516214847564697,
        0.2759515941143036,
        0.43285873532295227,
        0.8581864833831787,
        3.357797622680664
      ],
      "intrinsics": [
        703.74169921875,
        703.74169921875,
        960.0,
        540.0
      ],
      "appearance_weights": [
        0.0,
        -0.0518886037170887,
        0.9548291563987732,
        0.10553932189941406,
        -0.008479849435389042
      ]
    },
    {
      "pose": [
        0.9610512852668762,
        -0.13258472084999084,
        -0.24249069392681122,
        0.6257355809211731,
        0.008469262160360813,
        0.8911294937133789,
        -0.45367002487182617,
        0.7518446445465088,
        0.2762403190135956,
        0.433946430683136,
        0.8575440645217896,
        3.363144636154175
      ],
      "intrinsics": [
        703.74169921875,
        703.74169921875,
        960.0,
        540.0
      ],
      "appearance_weights": [
        0.0,
        -0.05582842603325844,
        0.9440537691116333,
        0.12218710035085678,
        -0.010412444360554218
      ]
    },
    {
      "pose": [
        0.961022138595581,
        -0.13294464349746704,
        -0.24240908026695251,
        0.6247835755348206,
        0.008440491743385792,
        0.8904957175254822,
        -0.45491334795951843,
        0.752165675163269,
        0.2763425409793854,
        0.43513575196266174,
        0.8569082021713257,
        3.3686912059783936
      ],
      "intrinsics": [
        703.74169921875,
        703.74169921875,
        960.0,
        540.0
      ],
      "appearance_weights": [
        0.0,
        -0.059340838342905045,
        0.9322758316993713,
        0.1395578235387802,
        -0.012492808513343334
      ]
    },
    {
      "pose": [
        0.9610447287559509,
        -0.1332375705242157,
        -0.24215856194496155,
        0.6233762502670288,
        0.008405123837292194,
        0.8898221254348755,
        -0.45623013377189636,
        0.7525798082351685,
        0.27626505494117737,
        0.436422199010849,
        0.8562787771224976,
        3.3744285106658936
      ],
      "intrinsics": [
        703.74169921875,
        703.74169921875,
        960.0,
        540.0
      ],
      "appearance_weights": [
        0.0,
        -0.062439873814582825,
        0.919537365436554,
        0.15760940313339233,
        -0.014706912450492382
      ]
    },
    {
      "pose": [
        0.9611170291900635,
        -0.1334654539823532,
        -0.241745725274086,
        0.6215312480926514,
        0.008363843895494938,
        0.889110267162323,
        -0.4576166570186615,
        0.7530821561813354,
        0.27601462602615356,
        0.43780121207237244,
        0.855655312538147,
        3.380347967147827
      ],
      "intrinsics": [
        703.74169921875,
        703.74169921875,
        960.0,
        540.0
      ],
      "appearance_weights": [
        0.0,
        -0.06513956189155579,
        0.9058805108070374,
        0.17629975080490112,
        -0.017040729522705078
      ]
    },
    {
      "pose": [
        0.9612369537353516,
        -0.1336302012205124,
        -0.24117714166641235,
        0.6192660927772522,
        0.008317356929183006,
        0.8883615732192993,
        -0.459069162607193,
        0.7536678910255432,
        0.27559801936149597,
        0.4392682909965515,
        0.85503751039505,
        3.386441230773926
      ],
      "intrinsics": [
        703.74169921875,
        703.74169921875,
        960.0,
        540.0
      ],
      "appearance_weights": [
        0.0,
        -0.06745392084121704,
        0.891347348690033,
        0.19558680057525635,
        -0.019480228424072266
      ]
    },
    {
      "pose": [
        0.9614023566246033,
        -0.13373373448848724,
        -0.2404593825340271,
        0.61659836769104,
        0.008266382850706577,
        0.8875776529312134,
        -0.46058401465415955,
        0.7543321251869202,
        0.2750220000743866,
        0.4408188462257385,
        0.854424774646759,
        3.3926992416381836
      ],
      "intrinsics": [
        703.74169921875,
        703.74169921875,
        960.0,
        540.0
      ],
      "appearance_weights": [
        0.0,
        -0.06939699500799179,
        0.8759799003601074,
        0.2154284417629242,
        -0.02201138064265251
      ]
    },
    {
      "pose": [
        0.9616110324859619,
        -0.133777916431427,
        -0.23959900438785553,
        0.6135455965995789,
        0.008211648091673851,
        0.886759877204895,
        -0.4621574580669403,
        0.7550700306892395,
        0.2742932438850403,
        0.4424481987953186,
        0.8538166284561157,
        3.399113655090332
      ],
      "intrinsics": [
        703.74169921875,
        703.74169921875,
        960.0,
        540.0
      ],
      "appearance_weights": [
        0.0,
        -0.07098279893398285,
        0.8598203659057617,
        0.23578260838985443,
        -0.024620160460472107
      ]
    },
    {
      "pose": [
        0.9618605971336365,
        -0.1337646096944809,
        -0.23860256373882294,
        0.6101254224777222,
        0.008153882808983326,
        0.8859098553657532,
        -0.4637858271598816,
        0.7558767795562744,
        0.27341848611831665,
        0.44415178894996643,
        0.8532124757766724,
        3.4056756496429443
      ],
      "intrinsics": [
        703.74169921875,
        703.74169921875,
        960.0,
        540.0
      ],
      "appearance_weights": [
        0.0,
        -0.07222536951303482,
        0.8429107069969177,
        0.25660720467567444,
        -0.027292534708976746
      ]
    },
    {
      "pose": [
        0.9621487855911255,
        -0.13369570672512054,
        -0.23747657239437103,
        0.6063554286956787,
        0.008093812502920628,
        0.8850290775299072,
        -0.4654654264450073,
        0.7567476034164429,
        0.27240440249443054,
        0.44592490792274475,
        0.852611780166626,
        3.412376880645752
      ],
      "intrinsics": [
        703.74169921875,
        703.74169921875,
        960.0,
        540.0
      ],
      "appearance_weights": [
        0.0,
        -0.07313872873783112,
        0.8252930641174316,
        0.2778601348400116,
        -0.030014479532837868
      ]
    },
    {
      "pose": [
        0.9624732136726379,
        -0.13357307016849518,
        -0.2362276017665863,
        0.6022531986236572,
        0.008032156154513359,
        0.8841191530227661,
        -0.46719256043434143,
        0.7576774954795837,
        0.2712576985359192,
        0.4477629065513611,
        0.852013885974884,
        3.419208288192749
      ],
      "intrinsics": [
        703.74169921875,
        703.74169921875,
        960.0,
        540.0
      ],
      "appearance_weights": [
        0.0,
        -0.07373691350221634,
        0.8070095777511597,
        0.2994993031024933,
        -0.032771963626146317
      ]
    },
    {
      "pose": [
        0.9628314971923828,
        -0.1333986073732376,
        -0.23486217856407166,
        0.5978361964225769,
        0.00796961598098278,
        0.8831815719604492,
        -0.46896353363990784,
        0.7586617469787598,
        0.26998504996299744,
        0.44966113567352295,
        0.8514181971549988,
        3.426161289215088
      ],
      "intrinsics": [
        703.74169921875,
        703.74169921875,
        960.0,
        540.0
      ],
      "appearance_weights": [
        0.0,
        -0.0740339457988739,
        0.7881022095680237,
        0.32148268818855286,
        -0.035550955682992935
      ]
    },
    {
      "pose": [
        0.9632212519645691,
        -0.13317421078681946,
        -0.2333868145942688,
        0.593122124671936,
        0.007906880229711533,
        0.8822180032730103,
        -0.47077473998069763,
        0.7596954703330994,
        0.26859310269355774,
        0.4516148865222931,
        0.8508241772651672,
        3.4332275390625
      ],
      "intrinsics": [
        703.74169921875,
        703.74169921875,
        960.0,
        540.0
      ],
      "appearance_weights": [
        0.0,
        -0.07404386252164841,
        0.7686131596565247,
        0.3437681198120117,
        -0.038337431848049164
      ]
    },
    {
      "pose": [
        0.963640034198761,
        -0.13290181756019592,
        -0.23180803656578064,
        0.5881285071372986,
        0.007844613865017891,
        0.8812300562858582,
        -0.47262248396873474,
        0.760773777961731,
        0.2670885920524597,
        0.45361950993537903,
        0.8502311706542969,
        3.4403982162475586
      ],
      "intrinsics": [
        703.74169921875,
        703.74169921875,
        960.0,
        540.0
      ],
      "appearance_weights": [
        0.0,
        -0.07378068566322327,
        0.7485844492912292,
        0.3663135766983032,
        -0.041117358952760696
      ]
    },
    {
      "pose": [
        0.9640854001045227,
        -0.1325833648443222,
        -0.23013237118721008,
        0.5828729271888733,
        0.0077834539115428925,
        0.8802193999290466,
        -0.47450315952301025,
        0.7618919014930725,
        0.2654782235622406,
        0.4556703269481659,
        0.8496387004852295,
        3.447664737701416
      ],
      "intrinsics": [
        703.74169921875,
        703.74169921875,
        960.0,
        540.0
      ],
      "appearance_weights": [
        0.0,
        -0.07325844466686249,
        0.7280582189559937,
        0.38907691836357117,
        -0.04387671500444412
      ]
    },
    {
      "pose": [
        0.964555025100708,
        -0.13222084939479828,
        -0.22836634516716003,
        0.5773729681968689,
        0.007724009919911623,
        0.8791876435279846,
        -0.4764130711555481,
        0.7630449533462524,
        0.26376861333847046,
        0.4577627182006836,
        0.8490461707115173,
        3.4550182819366455
      ],
      "intrinsics": [
        703.74169921875,
        703.74169921875,
        960.0,
        540.0
      ],
      "appearance_weights": [
        0.0,
        -0.07249116152524948,
        0.7070764899253845,
        0.4120161235332489,
        -0.04660146310925484
      ]
    },
    {
      "pose": [
        0.9650464653968811,
        -0.1318162977695465,
        -0.2265164852142334,
        0.5716461539268494,
        0.007666856981813908,
        0.8781365752220154,
        -0.47834861278533936,
        0.764228105545044,
        0.2619665563106537,
        0.4598919749259949,
        0.8484532237052917,
        3.4624505043029785
      ],
      "intrinsics": [
        703.74169921875,
        703.74169921875,
        960.0,
        540.0
      ],
      "appearance_weights": [
        0.0,
        -0.07149288058280945,
        0.6856814026832581,
        0.43508902192115784,
        -0.04927758127450943
      ]
    },
    {
      "pose": [
        0.9655573964118958,
        -0.13137176632881165,
        -0.2245892733335495,
        0.5657101273536682,
        0.007612534333020449,
        0.8770678639411926,
        -0.4803061783313751,
        0.7654365301132202,
        0.26007869839668274,
        0.462053507566452,
        0.8478594422340393,
        3.4699525833129883
      ],
      "intrinsics": [
        703.74169921875,
        703.74169921875,
        960.0,
        540.0
      ],
      "appearance_weights": [
        0.0,
        -0.0702776238322258,
        0.6639150381088257,
        0.4582536220550537,
        -0.051891032606363297
      ]
    },
    {
      "pose": [
        0.9660854339599609,
        -0.13088935613632202,
        -0.22259125113487244,
        0.5595824718475342,
        0.007561540696769953,
        0.8759832978248596,
        -0.48228219151496887,
        0.7666653394699097,
        0.258111834526062,
        0.4642426669597626,
        0.8472644686698914,
        3.477515697479248
      ],
      "intrinsics": [
        703.74169921875,
        703.74169921875,
        960.0,
        540.0
      ],
      "appearance_weights": [
        0.0,
        -0.06885941326618195,
        0.6418194770812988,
        0.48146775364875793,
        -0.054427798837423325
      ]
    },
    {
      "pose": [
        0.9666283130645752,
        -0.13037122786045074,
        -0.22052891552448273,
        0.5532807111740112,
        0.007514333818107843,
        0.8748846650123596,
        -0.4842730462551117,
        0.7679097056388855,
        0.25607264041900635,
        0.4664549231529236,
        0.8466679453849792,
        3.4851315021514893
      ],
      "intrinsics": [
        703.74169921875,
        703.74169921875,
        960.0,
        540.0
      ],
      "appearance_weights": [
        0.0,
        -0.06725228577852249,
        0.6194367408752441,
        0.5046893954277039,
        -0.05687384307384491
      ]
    },
    {
      "pose": [
        0.9671837687492371,
