{
  "camera_model": "pinhole",
  "image_size": [
    1920,
    1080
  ],
  "fps": 30.0,
  "source": {
    "type": "interpolation",
    "interpolation": "kochanek-bartels",
    "keyframes": [
      {
        "pose": [
          0.9593032274804255,
          0.09019984428912191,
          0.26758405775467625,
          -2.1287016275464885,
          -0.04258383545405944,
          0.9829837796343986,
          -0.17868841902703647,
          0.45390122732409094,
          -0.27914846730358245,
          0.16002167955293978,
          0.946820589122264,
          0.9401412565988937
        ],
        "fov": null,
        "transition_duration": null
      },
      {
        "pose": [
          0.9989071859213159,
          0.020992813455541,
          0.041757129050970634,
          -1.6848666231354859,
          -0.015694190857732094,
          0.9922332330522993,
          -0.12339752331627347,
          0.34523378415183614,
          -0.04402327447972423,
          0.12260738562663125,
          0.9914783976489852,
          0.8523718361926647
        ],
        "fov": null,
        "transition_duration": null
      },
      {
        "pose": [
          0.9989071773188815,
          0.020992858085422107,
          0.0417573123995161,
          -0.49621955740347806,
          -0.01569421253992132,
          0.9922332323511027,
          -0.12339752619693044,
          0.32655849568847134,
          -0.044023461942661504,
          0.12260738365972396,
          0.9914783895685342,
          0.7999862291515851
        ],
        "fov": null,
        "transition_duration": null
      },
      {
        "pose": [
          0.9900244673785412,
          -0.020957850958071726,
          -0.1393278314036933,
          1.4844952347060352,
          0.00586351047338848,
          0.9941470580595183,
          -0.10787627800967661,
          0.28767312698126746,
          0.1407732137209273,
          0.10598326124723945,
          0.9843528246237704,
          0.8900209385899079
        ],
        "fov": null,
        "transition_duration": null
      },
      {
        "pose": [
          0.9900244698017241,
          -0.02095784716450879,
          -0.13932781475586617,
          1.861208837177361,
          0.0058635084780299575,
          0.9941470580819861,
          -0.10787627791107811,
          0.28990424698815204,
          0.14077319676236683,
          0.10598326178665211,
          0.9843528269909523,
          0.9435864611616644
        ],
        "fov": null,
        "transition_duration": null
      },
      {
        "pose": [
          0.9045271890624688,
          -0.09672405574429581,
          -0.41530102746769626,
          3.710566647453247,
          0.03973032389394726,
          0.9888142958447982,
          -0.1437631206426949,
          0.47612844313235164,
          0.42456096128862086,
          0.11353766378734623,
          0.8982523151999707,
          2.003211379745226
        ],
        "fov": null,
        "transition_duration": null
      }
    ],
    "default_fov": 75.0,
    "default_appearance": null,
    "is_cycle": true,
    "tension": 0.0,
    "default_transition_duration": 2.0
  },
  "frames": [
    {
      "pose": [
        0.9593032002449036,
        0.09019984304904938,
        0.26758405566215515,
        -2.128701686859131,
        -0.04258383437991142,
        0.9829837679862976,
        -0.1786884218454361,
        0.4539012312889099,
        -0.2791484594345093,
        0.16002167761325836,
        0.9468206167221069,
        0.9401412606239319
      ],
      "intrinsics": [
        703.74169921875,
        703.74169921875,
        960.0,
        540.0
      ],
      "appearance_weights": [
        1.0,
        0.0,
        0.0,
        0.0,
        0.0,
        0.0
      ]
    },
    {
      "pose": [
        0.9582359790802002,
        0.091134212911129,
        0.271068811416626,
        -2.1721506118774414,
        -0.0429401770234108,
        0.9829692840576172,
        -0.17868272960186005,
        0.4527710974216461,
        -0.2827364504337311,
        0.1595805287361145,
        0.9458298683166504,
        0.9307895302772522
      ],
      "intrinsics": [
        703.74169921875,
        703.74169921875,
        960.0,
        540.0
      ],
      "appearance_weights": [
        0.999308705329895,
        0.008908198215067387,
        -0.0001373295090161264,
        0.0,
        0.0,
        -0.00807955302298069
      ]
    },
    {
      "pose": [
        0.9573256969451904,
        0.09190160781145096,
        0.27400997281074524,
        -2.2123754024505615,
        -0.04324470832943916,
        0.9829715490341187,
        -0.1785971075296402,
        0.4515700042247772,
        -0.2857573926448822,
        0.1591261774301529,
        0.9449982047080994,
        0.9219595789909363
      ],
      "intrinsics": [
        703.74169921875,
        703.74169921875,
        960.0,
        540.0
      ],
      "appearance_weights": [
        0.9972627758979797,
        0.01889169029891491,
        -0.0005399811780080199,
        0.0,
        0.0,
        -0.015614455565810204
      ]
    },
    {
      "pose": [
        0.956572949886322,
        0.09250713884830475,
        0.2764245569705963,
        -2.249453067779541,
        -0.04349921643733978,
        0.9829899668693542,
        -0.17843355238437653,
        0.4503004550933838,
        -0.28822895884513855,
        0.15866051614284515,
        0.9443256258964539,
        0.9136382937431335
      ],
      "intrinsics": [
        703.74169921875,
        703.74169921875,
        960.0,
        540.0
      ],
      "appearance_weights": [
        0.9939042329788208,
        0.02990846149623394,
        -0.0011939497198909521,
        0.0,
        0.0,
        -0.022618714720010757
      ]
    },
    {
      "pose": [
        0.9559769630432129,
        0.09295594692230225,
        0.27832913398742676,
        -2.283461332321167,
        -0.043705351650714874,
        0.9830242395401001,
        -0.17819420993328094,
        0.4489648640155792,
        -0.29016852378845215,
        0.15818515419960022,
        0.943811297416687,
        0.9058124423027039
      ],
      "intrinsics": [
        703.74169921875,
        703.74169921875,
        960.0,
        540.0
      ],
      "appearance_weights": [
        0.9892750978469849,
        0.04191649332642555,
        -0.0020852298475801945,
        0.0,
        0.0,
        -0.02910633385181427
      ]
    },
    {
      "pose": [
        0.9555361270904541,
        0.09325316548347473,
        0.2797400951385498,
        -2.3144779205322266,
        -0.04386461526155472,
        0.9830738306045532,
        -0.17788127064704895,
        0.4475657343864441,
        -0.29159316420555115,
        0.15770134329795837,
        0.9434530735015869,
        0.8984689712524414
      ],
      "intrinsics": [
        703.74169921875,
        703.74169921875,
        960.0,
        540.0
      ],
      "appearance_weights": [
        0.9834173917770386,
        0.05487377196550369,
        -0.0031998164486140013,
        0.0,
        0.0,
        -0.03509132191538811
      ]
    },
    {
      "pose": [
        0.9552476406097412,
        0.09340391308069229,
        0.28067344427108765,
        -2.3425803184509277,
        -0.04397840052843094,
        0.9831382036209106,
        -0.1774970144033432,
        0.4461055099964142,
        -0.2925197184085846,
        0.1572100818157196,
        0.9432482123374939,
        0.8915945887565613
      ],
      "intrinsics": [
        703.74169921875,
        703.74169921875,
        960.0,
        540.0
      ],
      "appearance_weights": [
        0.9763730764389038,
        0.06873828172683716,
        -0.004523703828454018,
        0.0,
        0.0,
        -0.04058767855167389
      ]
    },
    {
      "pose": [
        0.9551080465316772,
        0.0934133306145668,
        0.281144917011261,
        -2.3678460121154785,
        -0.044047992676496506,
        0.9832168221473694,
        -0.17704379558563232,
        0.44458672404289246,
        -0.2929646670818329,
        0.156712144613266,
        0.9431930184364319,
        0.8851762413978577
      ],
      "intrinsics": [
        703.74169921875,
        703.74169921875,
        960.0,
        540.0
      ],
      "appearance_weights": [
        0.9681842923164368,
        0.0834680050611496,
        -0.006042887456715107,
        0.0,
        0.0,
        -0.04560941085219383
      ]
    },
    {
      "pose": [
        0.9551130533218384,
        0.09328652173280716,
        0.2811700999736786,
        -2.390352725982666,
        -0.04407456889748573,
        0.9833090901374817,
        -0.1765240728855133,
        0.4430117905139923,
        -0.29294443130493164,
        0.15620805323123932,
        0.9432829022407532,
        0.8792007565498352
      ],
      "intrinsics": [
        703.74169921875,
        703.74169921875,
        960.0,
        540.0
      ],
      "appearance_weights": [
        0.9588929414749146,
        0.09902092814445496,
        -0.007743361406028271,
        0.0,
        0.0,
        -0.05017052963376045
      ]
    },
    {
      "pose": [
        0.9552575945854187,
        0.09302859753370285,
        0.28076422214508057,
        -2.4101779460906982,
        -0.044059235602617264,
        0.983414351940155,
        -0.17594030499458313,
        0.4413831830024719,
        -0.2924750745296478,
        0.15569810569286346,
        0.9435128569602966,
        0.873654842376709
      ],
      "intrinsics": [
        703.74169921875,
        703.74169921875,
        960.0,
        540.0
      ],
      "appearance_weights": [
        0.9485411047935486,
        0.11535503715276718,
        -0.009611120447516441,
        0.0,
        0.0,
        -0.05428503081202507
      ]
    },
    {
      "pose": [
        0.9555360674858093,
        0.09264464676380157,
        0.27994242310523987,
        -2.427399158477783,
        -0.044003017246723175,
        0.9835321307182312,
        -0.17529504001140594,
        0.43970340490341187,
        -0.2915725111961365,
        0.15518248081207275,
        0.9438770413398743,
        0.868525505065918
      ],
      "intrinsics": [
        703.74169921875,
        703.74169921875,
        960.0,
        540.0
      ],
      "appearance_weights": [
        0.9371708035469055,
        0.13242830336093903,
        -0.011632159352302551,
        0.0,
        0.0,
        -0.0579669289290905
      ]
    },
    {
      "pose": [
        0.9559422135353088,
        0.09213976562023163,
        0.27871960401535034,
        -2.442093849182129,
        -0.043906889855861664,
        0.9836616516113281,
        -0.17459088563919067,
        0.4379749000072479,
        -0.29025256633758545,
        0.1546611487865448,
        0.9443693161010742,
        0.8637994527816772
      ],
      "intrinsics": [
        703.74169921875,
        703.74169921875,
        960.0,
        540.0
      ],
      "appearance_weights": [
        0.9248239398002625,
        0.15019874274730682,
        -0.013792472891509533,
        0.0,
        0.0,
        -0.06123022362589836
      ]
    },
    {
      "pose": [
        0.9564695358276367,
        0.09151900559663773,
        0.2771105468273163,
        -2.4543397426605225,
        -0.04377176612615585,
        0.983802318572998,
        -0.17383046448230743,
        0.43620017170906067,
        -0.2885308265686035,
        0.15413397550582886,
        0.9449829459190369,
        0.859463632106781
      ],
      "intrinsics": [
        703.74169921875,
        703.74169921875,
        960.0,
        540.0
      ],
      "appearance_weights": [
        0.9115426540374756,
        0.16862429678440094,
        -0.016078056767582893,
        0.0,
        0.0,
        -0.06408891826868057
      ]
    },
    {
      "pose": [
        0.9571108222007751,
        0.09078744798898697,
        0.27512994408607483,
        -2.464214563369751,
        -0.04359852522611618,
        0.9839535355567932,
        -0.17301644384860992,
        0.4343816339969635,
        -0.28642281889915466,
        0.15360070765018463,
        0.9457107782363892,
        0.8555047512054443
      ],
      "intrinsics": [
        703.74169921875,
        703.74169921875,
        960.0,
        540.0
      ],
      "appearance_weights": [
        0.8973689675331116,
        0.1876629739999771,
        -0.01847490295767784,
        0.0,
        0.0,
        -0.06655702739953995
      ]
    },
    {
      "pose": [
        0.957858681678772,
        0.08995012938976288,
        0.27279233932495117,
        -2.4717955589294434,
        -0.04338802397251129,
        0.9841145277023315,
        -0.1721515655517578,
        0.4325218200683594,
        -0.2839439809322357,
        0.15306100249290466,
        0.946545422077179,
        0.8519097566604614
      ],
      "intrinsics": [
        703.74169921875,
        703.74169921875,
        960.0,
        540.0
      ],
      "appearance_weights": [
        0.8823447823524475,
        0.20727276802062988,
        -0.020969009026885033,
        0.0,
        0.0,
        -0.06864854693412781
      ]
    },
    {
      "pose": [
        0.9587054252624512,
        0.08901208639144897,
        0.2701122462749481,
        -2.4771604537963867,
        -0.043141093105077744,
        0.9842846393585205,
        -0.17123854160308838,
        0.4306231439113617,
        -0.28110963106155396,
        0.15251444280147552,
        0.9474791288375854,
        0.8486654162406921
      ],
      "intrinsics": [
        703.74169921875,
        703.74169921875,
        960.0,
        540.0
      ],
      "appearance_weights": [
        0.8665122389793396,
        0.2274116426706314,
        -0.0235463697463274,
        0.0,
        0.0,
        -0.07037748396396637
      ]
    },
    {
      "pose": [
        0.9596432447433472,
        0.08797835558652878,
        0.2671041190624237,
        -2.480386734008789,
        -0.042858559638261795,
        0.9844632148742676,
        -0.17028015851974487,
        0.4286881387233734,
        -0.2779351472854614,
        0.151960551738739,
        0.9485041499137878,
        0.8457586169242859
      ],
      "intrinsics": [
        703.74169921875,
        703.74169921875,
        960.0,
        540.0
      ],
      "appearance_weights": [
        0.8499132394790649,
        0.24803757667541504,
        -0.026192978024482727,
        0.0,
        0.0,
        -0.07175784558057785
      ]
    },
    {
      "pose": [
        0.960663914680481,
        0.08685394376516342,
        0.2637823522090912,
        -2.4815521240234375,
        -0.04254124313592911,
        0.9846495985984802,
        -0.16927918791770935,
        0.42671921849250793,
        -0.27443578839302063,
        0.15139883756637573,
        0.9496122598648071,
        0.8431761264801025
      ],
      "intrinsics": [
        703.74169921875,
        703.74169921875,
        960.0,
        540.0
      ],
      "appearance_weights": [
        0.832589864730835,
        0.2691085934638977,
        -0.028894828632473946,
        0.0,
        0.0,
        -0.07280363887548447
      ]
    },
    {
      "pose": [
        0.9617593884468079,
        0.08564385771751404,
        0.260161429643631,
        -2.480733871459961,
        -0.04218997806310654,
        0.9848430752754211,
        -0.16823843121528625,
        0.4247188866138458,
        -0.2706267833709717,
        0.1508287489414215,
        0.9507954120635986,
        0.8409048914909363
      ],
      "intrinsics": [
        703.74169921875,
        703.74169921875,
        960.0,
        540.0
      ],
      "appearance_weights": [
        0.8145841360092163,
        0.2905826270580292,
        -0.03163791820406914,
        0.0,
        0.0,
        -0.07352886348962784
      ]
    },
    {
      "pose": [
        0.9629213213920593,
        0.08435309678316116,
        0.2562558054924011,
        -2.4780099391937256,
        -0.04180561751127243,
        0.985042929649353,
        -0.16716071963310242,
        0.4226895868778229,
        -0.2665235102176666,
        0.15024974942207336,
        0.9520453214645386,
        0.8389316201210022
      ],
      "intrinsics": [
        703.74169921875,
        703.74169921875,
        960.0,
        540.0
      ],
      "appearance_weights": [
        0.7959380745887756,
        0.3124176859855652,
        -0.03440823778510094,
        0.0,
        0.0,
        -0.07394753396511078
      ]
    },
    {
      "pose": [
        0.9641414880752563,
        0.08298664540052414,
        0.25207990407943726,
        -2.4734578132629395,
        -0.04138903692364693,
        0.9852485656738281,
        -0.16604888439178467,
        0.42063382267951965,
        -0.26214122772216797,
        0.1496613323688507,
        0.9533538222312927,
        0.8372431993484497
      ],
      "intrinsics": [
        703.74169921875,
        703.74169921875,
        960.0,
        540.0
      ],
      "appearance_weights": [
        0.7766936421394348,
        0.3345717787742615,
        -0.037191785871982574,
        0.0,
        0.0,
        -0.07407364249229431
      ]
    },
    {
      "pose": [
        0.9654117822647095,
        0.08154947310686111,
        0.24764831364154816,
        -2.4671547412872314,
        -0.04094114527106285,
        0.9854592680931091,
        -0.16490572690963745,
        0.41855403780937195,
        -0.25749531388282776,
        0.14906297624111176,
        0.9547127485275269,
        0.8358265161514282
      ],
      "intrinsics": [
        703.74169921875,
        703.74169921875,
        960.0,
        540.0
      ],
      "appearance_weights": [
        0.7568929195404053,
        0.357002854347229,
        -0.03997455909848213,
        0.0,
        0.0,
        -0.07392120361328125
      ]
    },
    {
      "pose": [
        0.9667240381240845,
        0.08004654943943024,
        0.2429756224155426,
        -2.4591786861419678,
        -0.040462881326675415,
        0.9856743812561035,
        -0.1637340933084488,
        0.4164527356624603,
        -0.2526012063026428,
        0.1484542340040207,
        0.9561139941215515,
        0.8346683979034424
      ],
      "intrinsics": [
        703.74169921875,
        703.74169921875,
        960.0,
        540.0
      ],
      "appearance_weights": [
        0.7365778684616089,
        0.3796688914299011,
        -0.042742546647787094,
        0.0,
        0.0,
        -0.07350422441959381
      ]
    },
    {
      "pose": [
        0.9680702090263367,
        0.07848282158374786,
        0.23807653784751892,
        -2.4496068954467773,
        -0.03995524346828461,
        0.985893189907074,
        -0.16253679990768433,
        0.4143323600292206,
        -0.24747440218925476,
        0.1478346735239029,
        0.9575496912002563,
        0.833755612373352
      ],
      "intrinsics": [
        703.74169921875,
        703.74169921875,
        960.0,
        540.0
      ],
      "appearance_weights": [
        0.7157905697822571,
        0.40252789855003357,
        -0.04548174515366554,
        0.0,
        0.0,
        -0.07283670455217361
      ]
    },
    {
      "pose": [
        0.9694425463676453,
        0.07686322182416916,
        0.23296582698822021,
        -2.4385170936584473,
        -0.0394192673265934,
        0.9861151576042175,
        -0.1613166630268097,
        0.4121953845024109,
        -0.24213045835494995,
        0.1472039520740509,
        0.9590119123458862,
        0.8330749869346619
      ],
      "intrinsics": [
        703.74169921875,
        703.74169921875,
        960.0,
        540.0
      ],
      "appearance_weights": [
        0.694572925567627,
        0.4255378544330597,
        -0.04817814752459526,
        0.0,
        0.0,
        -0.07193265110254288
      ]
    },
    {
      "pose": [
        0.9708334803581238,
        0.07519267499446869,
        0.22765837609767914,
        -2.4259867668151855,
        -0.03885605186223984,
        0.9863395690917969,
        -0.16007649898529053,
        0.41004428267478943,
        -0.23658506572246552,
        0.14656177163124084,
        0.9604932069778442,
        0.832613468170166
      ],
      "intrinsics": [
        703.74169921875,
        703.74169921875,
        960.0,
        540.0
      ],
      "appearance_weights": [
        0.6729670763015747,
        0.44865673780441284,
        -0.05081775411963463,
        0.0,
        0.0,
        -0.07080607116222382
      ]
    },
    {
      "pose": [
        0.9722355604171753,
        0.07347609847784042,
        0.2221691906452179,
        -2.4120936393737793,
        -0.038266755640506744,
        0.986565887928009,
        -0.1588190793991089,
        0.40788155794143677,
        -0.23085395991802216,
        0.145907923579216,
        0.9619861245155334,
        0.8323578238487244
      ],
      "intrinsics": [
        703.74169921875,
        703.74169921875,
        960.0,
        540.0
      ],
      "appearance_weights": [
        0.6510149836540222,
        0.47184252738952637,
        -0.05338655412197113,
        0.0,
        0.0,
        -0.06947096437215805
      ]
    },
    {
      "pose": [
        0.9736418128013611,
        0.07171837240457535,
        0.21651339530944824,
        -2.3969149589538574,
        -0.037652596831321716,
        0.9867933988571167,
        -0.15754719078540802,
        0.4057096242904663,
        -0.22495302557945251,
        0.14524230360984802,
        0.9634836912155151,
        0.8322948217391968
      ],
      "intrinsics": [
        703.74169921875,
        703.74169921875,
        960.0,
        540.0
      ],
      "appearance_weights": [
        0.6287586688995361,
        0.495053231716156,
        -0.05587054416537285,
        0.0,
        0.0,
        -0.0679413452744484
      ]
    },
    {
      "pose": [
        0.9750453233718872,
        0.06992438435554504,
        0.2107061892747879,
        -2.380528688430786,
        -0.03701486811041832,
        0.9870216250419617,
        -0.1562635749578476,
        0.4035309851169586,
        -0.218898206949234,
        0.14456486701965332,
        0.9649790525436401,
        0.8324114680290222
      ],
      "intrinsics": [
        703.74169921875,
        703.74169921875,
        960.0,
        540.0
      ],
      "appearance_weights": [
        0.6062400937080383,
        0.5182468295097351,
        -0.058255720883607864,
        0.0,
        0.0,
        -0.06623120605945587
      ]
    },
    {
      "pose": [
        0.9764397740364075,
        0.06809896975755692,
        0.20476298034191132,
        -2.3630123138427734,
        -0.036354925483465195,
        0.9872499108314514,
        -0.1549709290266037,
        0.4013480842113495,
        -0.212705597281456,
        0.14387570321559906,
        0.9664658308029175,
        0.832694411277771
      ],
      "intrinsics": [
        703.74169921875,
        703.74169921875,
        960.0,
        540.0
      ],
      "appearance_weights": [
        0.583501398563385,
        0.5413812398910522,
        -0.06052807718515396,
        0.0,
        0.0,
        -0.06435456871986389
      ]
    },
    {
      "pose": [
        0.9778189659118652,
        0.06624697148799896,
        0.1986992210149765,
        -2.3444430828094482,
        -0.03567420318722725,
        0.9874777793884277,
        -0.1536719799041748,
        0.39916345477104187,
        -0.2063913643360138,
        0.14317499101161957,
        0.9679377675056458,
        0.8331306576728821
      ],
      "intrinsics": [
        703.74169921875,
        703.74169921875,
        960.0,
        540.0
      ],
      "appearance_weights": [
        0.5605844855308533,
        0.5644145607948303,
        -0.06267360597848892,
        0.0,
        0.0,
        -0.06232542172074318
      ]
    },
    {
      "pose": [
        0.9791772365570068,
        0.0643731951713562,
        0.1925305277109146,
        -2.3248989582061768,
        -0.03497420996427536,
        0.9877046346664429,
        -0.15236935019493103,
        0.39697951078414917,
        -0.19997180998325348,
        0.1424630582332611,
        0.9693892598152161,
        0.8337069153785706
      ],
      "intrinsics": [
        703.74169921875,
        703.74169921875,
        960.0,
        540.0
      ],
      "appearance_weights": [
        0.5375313758850098,
        0.5873047113418579,
        -0.06467831134796143,
        0.0,
        0.0,
        -0.06015777960419655
      ]
    },
    {
      "pose": [
        0.9805092215538025,
        0.06248241662979126,
        0.18627266585826874,
        -2.304457187652588,
        -0.034256529062986374,
        0.9879299998283386,
        -0.15106569230556488,
        0.39479872584342957,
        -0.1934633105993271,
        0.14174030721187592,
        0.9708149433135986,
        0.8344100713729858
      ],
      "intrinsics": [
        703.74169921875,
        703.74169921875,
        960.0,
        540.0
      ],
      "appearance_weights": [
        0.5143842101097107,
        0.6100096106529236,
        -0.06652817130088806,
        0.0,
        0.0,
        -0.057865649461746216
      ]
    },
    {
      "pose": [
        0.9818101525306702,
        0.06057938560843468,
        0.17994147539138794,
        -2.2831954956054688,
        -0.033522829413414,
        0.9881533980369568,
        -0.1497635543346405,
        0.3926236033439636,
        -0.1868823766708374,
        0.14100728929042816,
        0.9722098112106323,
        0.8352269530296326
      ],
      "intrinsics": [
        703.74169921875,
        703.74169921875,
        960.0,
        540.0
      ],
      "appearance_weights": [
        0.4911848306655884,
        0.632487416267395,
        -0.0682091936469078,
        0.0,
        0.0,
        -0.0554630309343338
      ]
    },
    {
      "pose": [
        0.9830754399299622,
        0.0586688295006752,
        0.17355293035507202,
        -2.2611913681030273,
        -0.032774847000837326,
        0.9883743524551392,
        -0.14846549928188324,
        0.39045658707618713,
        -0.18024557828903198,
        0.14026466012001038,
        0.973569393157959,
        0.8361444473266602
      ],
      "intrinsics": [
        703.74169921875,
        703.74169921875,
        960.0,
        540.0
      ],
      "appearance_weights": [
        0.467975378036499,
        0.6546959280967712,
        -0.06970737129449844,
        0.0,
        0.0,
        -0.05296393111348152
      ]
    },
    {
      "pose": [
        0.9843010902404785,
        0.0567554347217083,
        0.16712313890457153,
        -2.2385222911834717,
        -0.032014399766922,
        0.9885923862457275,
        -0.14717400074005127,
        0.3883001506328583,
        -0.17356960475444794,
        0.13951323926448822,
        0.9748895764350891,
        0.8371493220329285
      ],
      "intrinsics": [
        703.74169921875,
        703.74169921875,
        960.0,
        540.0
      ],
      "appearance_weights": [
        0.4447978138923645,
        0.6765932440757751,
        -0.07100868970155716,
        0.0,
        0.0,
        -0.050382357090711594
      ]
    },
    {
      "pose": [
        0.9854835271835327,
        0.054843854159116745,
        0.160668283700943,
        -2.215266227722168,
        -0.031243395060300827,
        0.9888071417808533,
        -0.14589151740074158,
        0.38615676760673523,
        -0.16687120497226715,
        0.13875392079353333,
        0.9761666655540466,
        0.8382284045219421
      ],
      "intrinsics": [
        703.74169921875,
        703.74169921875,
        960.0,
        540.0
      ],
      "appearance_weights": [
        0.42169415950775146,
        0.6981373429298401,
        -0.07209915667772293,
        0.0,
        0.0,
        -0.047732312232255936
      ]
    },
    {
      "pose": [
        0.9866196513175964,
        0.05293869972229004,
        0.15420468151569366,
        -2.191500425338745,
        -0.030463799834251404,
        0.9890181422233582,
        -0.14462046325206757,
        0.38402894139289856,
        -0.16016724705696106,
        0.13798779249191284,
        0.9773975014686584,
        0.8393685817718506
      ],
      "intrinsics": [
        703.74169921875,
        703.74169921875,
        960.0,
        540.0
      ],
      "appearance_weights": [
        0.39870643615722656,
        0.7192861437797546,
        -0.07296476513147354,
        0.0,
        0.0,
        -0.045027803629636765
      ]
    },
    {
      "pose": [
        0.9877067804336548,
        0.05104455724358559,
        0.1477486938238144,
        -2.167302370071411,
        -0.02967766858637333,
        0.9892250895500183,
        -0.14336316287517548,
        0.38191908597946167,
        -0.15347464382648468,
        0.1372160017490387,
        0.9785792231559753,
        0.8405566811561584
      ],
      "intrinsics": [
        703.74169921875,
        703.74169921875,
        960.0,
        540.0
      ],
      "appearance_weights": [
        0.37587666511535645,
        0.7399976849555969,
        -0.07359150052070618,
        0.0,
        0.0,
        -0.042282834649086
      ]
    },
    {
      "pose": [
        0.9887427091598511,
        0.049165960401296616,
        0.14131683111190796,
        -2.142749786376953,
        -0.028887124732136726,
        0.9894275665283203,
        -0.14212194085121155,
        0.3798297047615051,
        -0.14681033790111542,
        0.13643985986709595,
        0.9797096252441406,
        0.8417795300483704
      ],
      "intrinsics": [
        703.74169921875,
        703.74169921875,
        960.0,
        540.0
      ],
      "appearance_weights": [
        0.35324686765670776,
        0.7602298855781555,
        -0.07396536320447922,
        0.0,
        0.0,
        -0.039511412382125854
      ]
    },
    {
      "pose": [
        0.9897257089614868,
        0.04730740562081337,
        0.13492561876773834,
        -2.117920398712158,
        -0.028094366192817688,
        0.9896252751350403,
        -0.14089901745319366,
        0.3777632713317871,
        -0.14019137620925903,
        0.1356607973575592,
        0.9807866811752319,
        0.843023955821991
      ],
      "intrinsics": [
        703.74169921875,
        703.74169921875,
        960.0,
        540.0
      ],
      "appearance_weights": [
        0.33085906505584717,
        0.7799408435821533,
        -0.07407234609127045,
        0.0,
        0.0,
        -0.03672754019498825
      ]
    },
    {
      "pose": [
        0.990654468536377,
        0.04547334834933281,
        0.12859168648719788,
        -2.0928914546966553,
        -0.027301661670207977,
        0.9898179173469543,
        -0.1396966129541397,
        0.3757222592830658,
        -0.13363482058048248,
        0.13488036394119263,
        0.9818090796470642,
        0.8442767858505249
      ],
      "intrinsics": [
        703.74169921875,
        703.74169921875,
        960.0,
        540.0
      ],
      "appearance_weights": [
        0.30875521898269653,
        0.7990884184837341,
        -0.07389844954013824,
        0.0,
        0.0,
        -0.033945221453905106
      ]
    },
    {
      "pose": [
        0.9915280938148499,
        0.043668199330568314,
        0.12233169376850128,
        -2.0677404403686523,
        -0.02651134319603443,
        0.9900051951408386,
        -0.1385168582201004,
        0.373709112405777,
        -0.1271577924489975,
        0.13410022854804993,
        0.9827756881713867,
        0.8455249071121216
      ],
      "intrinsics": [
        703.74169921875,
        703.74169921875,
        960.0,
        540.0
      ],
      "appearance_weights": [
        0.2869774103164673,
        0.8176307082176208,
        -0.0734296590089798,
        0.0,
        0.0,
        -0.031178466975688934
      ]
    },
    {
      "pose": [
        0.9923461675643921,
        0.04189632460474968,
        0.11616238951683044,
        -2.0425453186035156,
        -0.02572580985724926,
        0.9901868104934692,
        -0.13736183941364288,
        0.3717263340950012,
        -0.120777428150177,
        0.13332217931747437,
        0.9836859703063965,
        0.8467551469802856
      ],
      "intrinsics": [
        703.74169921875,
        703.74169921875,
        960.0,
        540.0
      ],
      "appearance_weights": [
        0.2655676305294037,
        0.835525631904602,
        -0.07265197485685349,
        0.0,
        0.0,
        -0.028441278263926506
      ]
    },
    {
      "pose": [
        0.9931086301803589,
        0.04016204550862312,
        0.11010052263736725,
        -2.017383575439453,
        -0.02494751662015915,
        0.9903625845909119,
        -0.1362335979938507,
        0.3697763681411743,
        -0.11451086401939392,
        0.13254809379577637,
        0.9845396280288696,
        0.847954273223877
      ],
      "intrinsics": [
        703.74169921875,
        703.74169921875,
        960.0,
        540.0
      ],
      "appearance_weights": [
        0.2445678859949112,
        0.8527311682701111,
        -0.07155139744281769,
        0.0,
        0.0,
        -0.025747662410140038
      ]
    },
    {
      "pose": [
        0.9938159584999084,
        0.03846963867545128,
        0.10416289418935776,
        -1.9923325777053833,
        -0.02417897991836071,
        0.9905322790145874,
        -0.13513413071632385,
        0.36786168813705444,
        -0.10837527364492416,
        0.13177995383739471,
        0.98533695936203,
        0.8491091728210449
      ],
      "intrinsics": [
        703.74169921875,
        703.74169921875,
        960.0,
        540.0
      ],
      "appearance_weights": [
        0.22402019798755646,
        0.8692053556442261,
        -0.07011391222476959,
        0.0,
        0.0,
        -0.023111622780561447
      ]
    },
    {
      "pose": [
        0.9944686889648438,
        0.036823343485593796,
        0.09836632758378983,
        -1.9674699306488037,
        -0.023422764614224434,
        0.9906956553459167,
        -0.13406537473201752,
        0.36598479747772217,
        -0.10238783061504364,
        0.13101986050605774,
        0.9860783815383911,
        0.8502066731452942
      ],
      "intrinsics": [
        703.74169921875,
        703.74169921875,
        960.0,
        540.0
      ],
      "appearance_weights": [
        0.20396658778190613,
        0.8849061131477356,
        -0.06832551211118698,
        0.0,
        0.0,
        -0.02054716646671295
      ]
    },
    {
      "pose": [
        0.9950681328773499,
        0.035227350890636444,
        0.0927276536822319,
        -1.942873239517212,
        -0.02268148586153984,
        0.9908525943756104,
        -0.13302920758724213,
        0.3641481399536133,
        -0.09656570106744766,
        0.13026997447013855,
        0.9867648482322693,
        0.8512336015701294
      ],
      "intrinsics": [
        703.74169921875,
        703.74169921875,
        960.0,
        540.0
      ],
      "appearance_weights": [
        0.18444907665252686,
        0.899791419506073,
        -0.06617220491170883,
        0.0,
        0.0,
        -0.01806829683482647
      ]
    },
    {
      "pose": [
        0.9956154823303223,
        0.03368581086397171,
        0.08726371079683304,
        -1.9186201095581055,
        -0.021957797929644585,
        0.9910028576850891,
        -0.1320275068283081,
        0.36235418915748596,
        -0.09092604368925095,
        0.1295325607061386,
        0.9873974919319153,
        0.8521767854690552
      ],
      "intrinsics": [
        703.74169921875,
        703.74169921875,
        960.0,
        540.0
      ],
      "appearance_weights": [
        0.1655096560716629,
        0.9138193130493164,
        -0.06363997608423233,
        0.0,
        0.0,
        -0.015689020976424217
      ]
    },
    {
      "pose": [
        0.996112585067749,
        0.03220284357666969,
        0.08199135214090347,
        -1.894788146018982,
        -0.021254397928714752,
        0.9911463260650635,
        -0.13106206059455872,
        0.3606054186820984,
        -0.08548600226640701,
        0.12880994379520416,
        0.9879778027534485,
        0.853023111820221
      ],
      "intrinsics": [
        703.74169921875,
        703.74169921875,
        960.0,
        540.0
      ],
      "appearance_weights": [
        0.14719036221504211,
        0.9269477725028992,
        -0.06071481481194496,
        0.0,
        0.0,
        -0.013423343189060688
      ]
    },
    {
      "pose": [
        0.9965613484382629,
        0.03078252263367176,
        0.07692740112543106,
        -1.8714547157287598,
        -0.020574014633893967,
        0.9912828803062439,
        -0.13013464212417603,
        0.35890427231788635,
        -0.080262690782547,
        0.12810450792312622,
        0.9885075688362122,
        0.8537594079971313
      ],
      "intrinsics": [
        703.74169921875,
        703.74169921875,
        960.0,
        540.0
      ],
      "appearance_weights": [
        0.12953321635723114,
        0.9391347765922546,
        -0.057382725179195404,
        0.0,
        0.0,
        -0.011285269632935524
      ]
    },
    {
      "pose": [
        0.9969639182090759,
        0.02942889742553234,
        0.07208868861198425,
        -1.848697543144226,
        -0.01991940103471279,
        0.991412341594696,
        -0.1292470097541809,
        0.3572532832622528,
        -0.07527321577072144,
        0.12741869688034058,
        0.9889885783195496,
        0.8543724417686462
      ],
      "intrinsics": [
        703.74169921875,
        703.74169921875,
        960.0,
        540.0
      ],
      "appearance_weights": [
        0.11258021742105484,
        0.9503383040428162,
        -0.05362970009446144,
        0.0,
        0.0,
        -0.009288804605603218
      ]
    },
    {
      "pose": [
        0.997322678565979,
        0.028145981952548027,
        0.06749201565980911,
        -1.8265942335128784,
        -0.01929333806037903,
        0.9915347099304199,
        -0.12840086221694946,
        0.35565486550331116,
        -0.07053464651107788,
        0.1267549991607666,
        0.9894230961799622,
        0.854849100112915
      ],
      "intrinsics": [
        703.74169921875,
        703.74169921875,
        960.0,
        540.0
      ],
      "appearance_weights": [
        0.09637339413166046,
        0.9605162739753723,
        -0.049441736191511154,
        0.0,
        0.0,
        -0.007447953801602125
      ]
    },
    {
      "pose": [
        0.9976401329040527,
        0.02693776972591877,
        0.0631541833281517,
        -1.8052222728729248,
        -0.018698617815971375,
        0.9916497468948364,
        -0.1275978833436966,
        0.35411152243614197,
        -0.0660640299320221,
        0.12611593306064606,
        0.9898132681846619,
        0.8551762104034424
      ],
      "intrinsics": [
        703.74169921875,
        703.74169921875,
        960.0,
        540.0
      ],
      "appearance_weights": [
        0.08095475286245346,
        0.969626784324646,
        -0.04480482265353203,
        0.0,
        0.0,
        -0.005776722449809313
      ]
    },
    {
      "pose": [
        0.9979188442230225,
        0.02580822817981243,
        0.05909193679690361,
        -1.7846591472625732,
        -0.018138043582439423,
        0.9917573928833008,
        -0.1268397569656372,
        0.3526257276535034,
        -0.061878375709056854,
        0.1255040168762207,
        0.9901615381240845,
        0.8553406596183777
      ],
      "intrinsics": [
        703.74169921875,
        703.74169921875,
        960.0,
        540.0
      ],
      "appearance_weights": [
        0.06636630743741989,
        0.9776277542114258,
        -0.039704956114292145,
        0.0,
        0.0,
        -0.004289115779101849
      ]
    },
    {
      "pose": [
        0.9981614351272583,
        0.024761319160461426,
        0.05532201752066612,
        -1.7649825811386108,
        -0.017614424228668213,
        0.9918575882911682,
        -0.12612812221050262,
        0.3511999249458313,
        -0.05799466371536255,
        0.12492182105779648,
        0.9904701709747314,
        0.8553292155265808
      ],
      "intrinsics": [
        703.74169921875,
        703.74169921875,
        960.0,
        540.0
      ],
      "appearance_weights": [
        0.0526500903069973,
        0.984477162361145,
        -0.034128133207559586,
        0.0,
        0.0,
        -0.0029991390183568
      ]
    },
    {
      "pose": [
        0.9983705878257751,
        0.023800984025001526,
        0.05186112970113754,
        -1.746269941329956,
        -0.017130563035607338,
        0.9919502139091492,
        -0.12546466290950775,
        0.3498365879058838,
        -0.05442984402179718,
        0.12437187135219574,
        0.9907416701316833,
        0.8551287055015564
      ],
      "intrinsics": [
        703.74169921875,
        703.74169921875,
        960.0,
        540.0
      ],
      "appearance_weights": [
        0.039848100394010544,
        0.9901330471038818,
        -0.028060348704457283,
        0.0,
        0.0,
        -0.0019207976292818785
      ]
    },
    {
      "pose": [
        0.9985488653182983,
        0.022931165993213654,
        0.04872594773769379,
        -1.7285990715026855,
        -0.016689255833625793,
        0.9920351505279541,
        -0.12485100328922272,
        0.34853821992874146,
        -0.051200833171606064,
        0.12385669350624084,
        0.9909783005714417,
        0.8547260165214539
      ],
      "intrinsics": [
        703.74169921875,
        703.74169921875,
        960.0,
        540.0
      ],
      "appearance_weights": [
        0.028002358973026276,
        0.9945533275604248,
        -0.02148759365081787,
        0.0,
        0.0,
        -0.0010680968407541513
      ]
    },
    {
      "pose": [
        0.9986987709999084,
        0.02215581201016903,
        0.04593310505151749,
        -1.7120473384857178,
        -0.01629328355193138,
        0.9921123385429382,
        -0.12428884208202362,
        0.3473072350025177,
        -0.048324521631002426,
        0.12337876111268997,
        0.9911823272705078,
        0.8541079759597778
      ],
      "intrinsics": [
        703.74169921875,
        703.74169921875,
        960.0,
        540.0
      ],
      "appearance_weights": [
        0.017154885455965996,
        0.997696042060852,
        -0.014395867474377155,
        0.0,
        0.0,
        -0.00045504176523536444
      ]
    },
    {
      "pose": [
        0.9988225102424622,
        0.02147887833416462,
        0.04349921643733978,
        -1.6966923475265503,
        -0.015945397317409515,
        0.9921815991401672,
        -0.12377984076738358,
        0.3461461663246155,
        -0.0458177775144577,
        0.1229405328631401,
        0.991355836391449,
        0.853261411190033
      ],
      "intrinsics": [
        703.74169921875,
        703.74169921875,
        960.0,
        540.0
      ],
      "appearance_weights": [
        0.007347690407186747,
        0.9995191097259521,
        -0.006771161686629057,
        0.0,
        0.0,
        -9.56378789851442e-05
      ]
    },
    {
      "pose": [
        0.9989223480224609,
        0.020903542637825012,
        0.04143791273236275,
        -1.6825902462005615,
        -0.015647906810045242,
        0.9922429323196411,
        -0.123325414955616,
        0.3450571894645691,
        -0.04369441792368889,
        0.12254415452480316,
        0.991500735282898,
        0.8521763682365417
      ],
      "intrinsics": [
        703.74169921875,
        703.74169921875,
        960.0,
        540.0
      ],
      "appearance_weights": [
        -0.0013850093819200993,
        0.999980628490448,
        0.001408243435434997,
        -3.868741259793751e-06,
        0.0,
        0.0
      ]
    },
    {
      "pose": [
        0.9990063905715942,
        0.020396023988723755,
        0.03962568938732147,
        -1.6688182353973389,
        -0.015383726917207241,
        0.9922983050346375,
        -0.12291260808706284,
        0.3440299332141876,
        -0.04182743281126022,
        0.12218094617128372,
        0.9916260838508606,
        0.8509922027587891
      ],
      "intrinsics": [
        703.74169921875,
        703.74169921875,
        960.0,
        540.0
      ],
      "appearance_weights": [
        -0.009372814558446407,
        0.9990606307983398,
        0.010498574934899807,
        -0.00018639120389707386,
        0.0,
        0.0
      ]
    },
    {
      "pose": [
        0.9990793466567993,
        0.019935468211770058,
        0.037986062467098236,
        -1.654850721359253,
        -0.015142332762479782,
        0.9923489093780518,
        -0.12253301590681076,
        0.3430567681789398,
        -0.040138185024261475,
        0.1218450665473938,
        0.9917372465133667,
        0.8497897982597351
      ],
      "intrinsics": [
        703.74169921875,
        703.74169921875,
        960.0,
        540.0
      ],
      "appearance_weights": [
        -0.016818303614854813,
        0.9967930316925049,
        0.020657198503613472,
        -0.0006319016101770103,
        0.0,
        0.0
      ]
    },
    {
      "pose": [
        0.9991424679756165,
        0.019520213827490807,
        0.03651335462927818,
        -1.6406867504119873,
        -0.01492315623909235,
        0.9923951029777527,
        -0.12218555808067322,
        0.3421362042427063,
        -0.03862076252698898,
        0.12153594195842743,
        0.9918354153633118,
        0.8485705852508545
      ],
      "intrinsics": [
        703.74169921875,
        703.74169921875,
        960.0,
        540.0
      ],
      "appearance_weights": [
        -0.02373548410832882,
        0.993219792842865,
        0.03184209764003754,
        -0.0013263947330415249,
        0.0,
        0.0
      ]
    },
    {
      "pose": [
        0.9991967082023621,
        0.01914861984550953,
        0.03520186245441437,
        -1.6263259649276733,
        -0.014725604094564915,
        0.992436945438385,
        -0.12186914682388306,
        0.3412666618824005,
        -0.03726925700902939,
        0.12125293910503387,
        0.9919217228889465,
        0.8473361134529114
      ],
      "intrinsics": [
        703.74169921875,
        703.74169921875,
        960.0,
        540.0
      ],
      "appearance_weights": [
        -0.03013835847377777,
        0.9883829951286316,
        0.044011253863573074,
        -0.002255865139886737,
        0.0,
        0.0
      ]
    },
    {
      "pose": [
        0.9992430210113525,
        0.018819058313965797,
        0.03404587507247925,
        -1.6117675304412842,
        -0.014549060724675655,
        0.9924746751785278,
        -0.1215827465057373,
        0.3404465913772583,
        -0.036077745258808136,
        0.120995432138443,
        0.991997241973877,
        0.8460878729820251
      ],
      "intrinsics": [
        703.74169921875,
        703.74169921875,
        960.0,
        540.0
      ],
      "appearance_weights": [
        -0.036040935665369034,
        0.9823246002197266,
        0.05712265521287918,
        -0.0034063078928738832,
        0.0,
        0.0
      ]
    },
    {
      "pose": [
        0.9992822408676147,
        0.018529925495386124,
        0.033039674162864685,
        -1.597010850906372,
        -0.01439289003610611,
        0.9925084710121155,
        -0.1213253065943718,
        0.3396744728088379,
        -0.03504030779004097,
        0.12076274305582047,
        0.9920628070831299,
        0.84482741355896
      ],
      "intrinsics": [
        703.74169921875,
        703.74169921875,
        960.0,
        540.0
      ],
      "appearance_weights": [
        -0.04145721346139908,
        0.9750866293907166,
        0.0711342841386795,
        -0.004763717297464609,
        0.0,
        0.0
      ]
    },
    {
      "pose": [
        0.9993149638175964,
        0.018279626965522766,
        0.032177526503801346,
        -1.5820552110671997,
        -0.014256435446441174,
        0.9925384521484375,
        -0.12109579890966415,
        0.3389487862586975,
        -0.034151021391153336,
        0.12055416405200958,
        0.9921191930770874,
        0.8435561060905457
      ],
      "intrinsics": [
        703.74169921875,
        703.74169921875,
        960.0,
        540.0
      ],
      "appearance_weights": [
        -0.04640120640397072,
        0.966711163520813,
        0.08600413054227829,
        -0.006314088124781847,
        0.0,
        0.0
      ]
    },
    {
      "pose": [
        0.9993419051170349,
        0.018066586926579475,
        0.0314536951482296,
        -1.5669000148773193,
        -0.014139024540781975,
        0.992564857006073,
        -0.1208932027220726,
        0.3382679224014282,
        -0.03340396285057068,
        0.12036897242069244,
        0.992167055606842,
        0.8422756195068359
      ],
      "intrinsics": [
        703.74169921875,
        703.74169921875,
        960.0,
        540.0
      ],
      "appearance_weights": [
        -0.050886914134025574,
        0.9572401642799377,
        0.10169016569852829,
        -0.00804341584444046,
        0.0,
        0.0
      ]
    },
    {
      "pose": [
        0.9993634819984436,
        0.01788923889398575,
        0.030862431973218918,
        -1.5515445470809937,
        -0.014039969071745872,
        0.9925877451896667,
        -0.12071651220321655,
        0.33763039112091064,
        -0.03279320150613785,
        0.12020642310380936,
        0.9922071695327759,
        0.8409872651100159
      ],
      "intrinsics": [
        703.74169921875,
        703.74169921875,
        960.0,
        540.0
      ],
      "appearance_weights": [
        -0.05492834374308586,
        0.9467156529426575,
        0.11815038323402405,
        -0.009937694296240807,
        0.0,
        0.0
      ]
    },
    {
      "pose": [
        0.9993802905082703,
        0.017746031284332275,
        0.030397985130548477,
        -1.535988211631775,
        -0.013958564959466457,
        0.9926073551177979,
        -0.12056472152471542,
        0.3370346128940582,
        -0.03231281042098999,
        0.12006575614213943,
        0.9922399520874023,
        0.8396927118301392
      ],
      "intrinsics": [
        703.74169921875,
        703.74169921875,
        960.0,
        540.0
      ],
      "appearance_weights": [
        -0.0585395023226738,
        0.9351796507835388,
        0.1353427618741989,
        -0.011982917785644531,
        0.0,
        0.0
      ]
    },
    {
      "pose": [
        0.9993926286697388,
        0.017635421827435493,
        0.030054597184062004,
        -1.5202301740646362,
        -0.013894096948206425,
        0.9926238059997559,
        -0.12043685466051102,
        0.3364790976047516,
        -0.03195686265826225,
        0.1199461817741394,
        0.9922659397125244,
        0.8383933305740356
      ],
      "intrinsics": [
        703.74169921875,
        703.74169921875,
        960.0,
        540.0
      ],
      "appearance_weights": [
        -0.061734389513731,
        0.9226741790771484,
        0.15322530269622803,
        -0.014165082946419716,
        0.0,
        0.0
      ]
    },
    {
      "pose": [
        0.9994008541107178,
        0.017555883154273033,
        0.02982650324702263,
        -1.5042699575424194,
        -0.013845836743712425,
        0.9926371574401855,
        -0.12033191323280334,
        0.3359622359275818,
        -0.03171943128108978,
        0.1198469027876854,
        0.9922855496406555,
        0.8370907306671143
      ],
      "intrinsics": [
        703.74169921875,
        703.74169921875,
        960.0,
        540.0
      ],
      "appearance_weights": [
        -0.06452701985836029,
        0.909241259098053,
        0.17175596952438354,
        -0.016470182687044144,
        0.0,
        0.0
      ]
    },
    {
      "pose": [
        0.9994052648544312,
        0.017505887895822525,
        0.02970793843269348,
        -1.4881069660186768,
        -0.013813046738505363,
        0.9926477074623108,
        -0.12024892121553421,
        0.33548253774642944,
        -0.03159458190202713,
        0.11976710706949234,
        0.9922991991043091,
        0.8357862830162048
      ],
      "intrinsics": [
        703.74169921875,
        703.74169921875,
        960.0,
        540.0
      ],
      "appearance_weights": [
        -0.06693138182163239,
        0.8949228525161743,
        0.19089275598526,
        -0.018884211778640747,
        0.0,
        0.0
      ]
    },
    {
      "pose": [
        0.999406099319458,
        0.017483925446867943,
        0.029693128541111946,
        -1.4717402458190918,
        -0.013794980011880398,
        0.9926554560661316,
        -0.12018691748380661,
        0.335038423538208,
        -0.03157638758420944,
        0.11970597505569458,
        0.9923071265220642,
        0.8344815969467163
      ],
      "intrinsics": [
        703.74169921875,
        703.74169921875,
        960.0,
        540.0
      ],
      "appearance_weights": [
        -0.068961501121521,
        0.8797610402107239,
        0.21059364080429077,
        -0.021393166854977608,
        0.0,
        0.0
      ]
    },
    {
      "pose": [
        0.9994035363197327,
        0.01748848333954811,
        0.029776303097605705,
        -1.455169439315796,
        -0.01379088219255209,
        0.9926605820655823,
        -0.12014492601156235,
        0.3346283733844757,
        -0.03165891766548157,
        0.11966267973184586,
        0.9923097491264343,
        0.8331781625747681
      ],
      "intrinsics": [
        703.74169921875,
        703.74169921875,
        960.0,
        540.0
      ],
      "appearance_weights": [
        -0.07063136994838715,
        0.8637977838516235,
        0.23081660270690918,
        -0.02398304082453251,
        0.0,
        0.0
      ]
    },
    {
      "pose": [
        0.9993978142738342,
        0.017518064007163048,
        0.029951684176921844,
        -1.4383935928344727,
        -0.013799991458654404,
        0.9926632642745972,
        -0.12012198567390442,
        0.334250807762146,
        -0.031836241483688354,
        0.11963637173175812,
        0.9923072457313538,
        0.8318774104118347
      ],
      "intrinsics": [
        703.74169921875,
        703.74169921875,
        960.0,
        540.0
      ],
      "appearance_weights": [
        -0.07195500284433365,
        0.8470751643180847,
        0.25151965022087097,
        -0.026639828458428383,
        0.0,
        0.0
      ]
    },
    {
      "pose": [
        0.9993889927864075,
        0.017571166157722473,
        0.03021349385380745,
        -1.4214123487472534,
        -0.013821541331708431,
        0.9926635026931763,
        -0.12011713534593582,
        0.3339042365550995,
        -0.03210243210196495,
        0.11962620168924332,
        0.9922998547554016,
        0.8305808901786804
      ],
      "intrinsics": [
        703.74169921875,
        703.74169921875,
        960.0,
        540.0
      ],
      "appearance_weights": [
        -0.07294639199972153,
        0.8296352028846741,
        0.2726607322692871,
        -0.029349524527788162,
        0.0,
        0.0
      ]
    },
    {
      "pose": [
        0.9993772506713867,
        0.017646297812461853,
        0.030555948615074158,
        -1.4042248725891113,
        -0.01385476067662239,
        0.9926615953445435,
        -0.12012942135334015,
        0.33358708024024963,
        -0.032451558858156204,
        0.1196313202381134,
        0.9922878742218018,
        0.8292900919914246
      ],
      "intrinsics": [
        703.74169921875,
        703.74169921875,
        960.0,
        540.0
      ],
      "appearance_weights": [
        -0.0736195519566536,
        0.8115198016166687,
        0.29419785737991333,
        -0.03209812566637993,
        0.0,
        0.0
      ]
    },
    {
      "pose": [
        0.9993627071380615,
        0.017741970717906952,
        0.030973270535469055,
        -1.386830449104309,
        -0.013898873701691628,
        0.9926575422286987,
        -0.120157890021801,
        0.33329781889915466,
        -0.032877687364816666,
        0.11965087801218033,
        0.9922715425491333,
        0.8280065059661865
      ],
      "intrinsics": [
        703.74169921875,
        703.74169921875,
        960.0,
        540.0
      ],
      "appearance_weights": [
        -0.07398848980665207,
        0.7927711009979248,
        0.31608903408050537,
        -0.034871622920036316,
        0.0,
        0.0
      ]
    },
    {
      "pose": [
        0.9993454813957214,
        0.017856694757938385,
        0.03145967423915863,
        -1.369228482246399,
        -0.013953102752566338,
        0.9926514625549316,
        -0.12020158767700195,
        0.3330349028110504,
        -0.03337489441037178,
        0.11968401074409485,
        0.992250919342041,
        0.8267316222190857
      ],
      "intrinsics": [
        703.74169921875,
        703.74169921875,
        960.0,
        540.0
      ],
      "appearance_weights": [
        -0.07406720519065857,
        0.7734310626983643,
        0.3382921814918518,
        -0.037656016647815704,
        0.0,
        0.0
      ]
    },
    {
      "pose": [
        0.9993256330490112,
        0.017988983541727066,
        0.03200937435030937,
        -1.351418375968933,
        -0.014016667380928993,
        0.9926435351371765,
        -0.12025956064462662,
        0.33279675245285034,
        -0.0339372456073761,
        0.11972985416650772,
        0.9922263026237488,
        0.8254669904708862
      ],
      "intrinsics": [
        703.74169921875,
        703.74169921875,
        960.0,
        540.0
      ],
      "appearance_weights": [
        -0.07386970520019531,
        0.7535416483879089,
        0.36076533794403076,
        -0.04043729230761528,
        0.0,
        0.0
      ]
    },
    {
      "pose": [
        0.9993033409118652,
        0.018137356266379356,
        0.03261658549308777,
        -1.3333994150161743,
        -0.014088787138462067,
        0.9926338791847229,
        -0.12033084779977798,
        0.33258187770843506,
        -0.03455881401896477,
        0.1197875440120697,
        0.9921978712081909,
        0.8242140412330627
      ],
      "intrinsics": [
        703.74169921875,
        703.74169921875,
        960.0,
        540.0
      ],
      "appearance_weights": [
        -0.07340998947620392,
        0.733144998550415,
        0.3834664523601532,
        -0.04320145398378372,
        0.0,
        0.0
      ]
    },
    {
      "pose": [
        0.9992786049842834,
        0.01830032467842102,
        0.033275529742240906,
        -1.3151710033416748,
        -0.01416867971420288,
        0.9926226139068604,
        -0.12041451036930084,
        0.332388699054718,
        -0.035233668982982635,
        0.11985623091459274,
        0.9921658635139465,
        0.8229743242263794
      ],
      "intrinsics": [
        703.74169921875,
        703.74169921875,
        960.0,
        540.0
      ],
      "appearance_weights": [
        -0.0727020800113678,
        0.7122830152511597,
        0.40635353326797485,
        -0.04593449458479881,
        0.0,
        0.0
      ]
    },
    {
      "pose": [
        0.999251663684845,
        0.01847640611231327,
        0.033980414271354675,
        -1.2967323064804077,
        -0.014255564659833908,
        0.9926097989082336,
        -0.12050957977771759,
        0.33221566677093506,
        -0.03595587983727455,
        0.1199350506067276,
        0.99213045835495,
        0.8217493295669556
      ],
      "intrinsics": [
        703.74169921875,
        703.74169921875,
        960.0,
        540.0
      ],
      "appearance_weights": [
        -0.07175996154546738,
        0.6909977793693542,
        0.4293845593929291,
        -0.04862240329384804,
        0.0,
        0.0
      ]
    },
    {
      "pose": [
        0.9992225766181946,
        0.01866411603987217,
        0.03472546115517616,
        -1.2780828475952148,
        -0.014348660595715046,
        0.9925956726074219,
        -0.12061511725187302,
        0.3320612609386444,
        -0.03671951964497566,
        0.12002313882112503,
        0.9920918345451355,
        0.8205405473709106
      ],
      "intrinsics": [
        703.74169921875,
        703.74169921875,
        960.0,
        540.0
      ],
      "appearance_weights": [
        -0.07059765607118607,
        0.6693313121795654,
        0.4525175094604492,
        -0.05125118046998978,
        0.0,
        0.0
      ]
    },
    {
      "pose": [
        0.9991914629936218,
        0.01886196807026863,
        0.03550488501787186,
        -1.2592217922210693,
        -0.014447187073528767,
        0.992580235004425,
        -0.12073016166687012,
        0.3319239616394043,
        -0.03751865774393082,
        0.12011965364217758,
        0.9920502305030823,
        0.819349467754364
      ],
      "intrinsics": [
        703.74169921875,
        703.74169921875,
        960.0,
        540.0
      ],
      "appearance_weights": [
        -0.06922915577888489,
        0.6473255753517151,
        0.475710391998291,
        -0.05380681902170181,
        0.0,
        0.0
      ]
    },
    {
      "pose": [
        0.999158501625061,
        0.01906847395002842,
        0.036312900483608246,
        -1.240148663520813,
        -0.01455036923289299,
        0.9925637245178223,
        -0.12085374444723129,
        0.3318021595478058,
        -0.03834736347198486,
        0.12022373825311661,
        0.9920059442520142,
        0.8181776404380798
      ],
      "intrinsics": [
        703.74169921875,
        703.74169921875,
        960.0,
        540.0
      ],
      "appearance_weights": [
        -0.06766847521066666,
        0.6250226497650146,
        0.49892115592956543,
        -0.05627531558275223,
        0.0,
        0.0
      ]
    },
    {
      "pose": [
        0.9991238713264465,
        0.0192821454256773,
        0.03714372590184212,
        -1.220862627029419,
        -0.014657429419457912,
        0.9925461411476135,
        -0.12098491936922073,
        0.3316943645477295,
        -0.03919971361756325,
        0.12033454328775406,
        0.9919591546058655,
        0.8170264363288879
      ],
      "intrinsics": [
        703.74169921875,
        703.74169921875,
        960.0,
        540.0
      ],
      "appearance_weights": [
        -0.06592962145805359,
        0.602464497089386,
        0.5221077799797058,
        -0.058642659336328506,
        0.0,
        0.0
      ]
    },
    {
      "pose": [
        0.9990876913070679,
        0.019501490518450737,
        0.03799158334732056,
        -1.201363205909729,
        -0.014767596498131752,
        0.9925277233123779,
        -0.12112271785736084,
        0.33159902691841125,
        -0.04006977751851082,
        0.12045123428106308,
        0.9919102787971497,
        0.815897524356842
      ],
      "intrinsics": [
        703.74169921875,
        703.74169921875,
        960.0,
        540.0
      ],
      "appearance_weights": [
        -0.06402658671140671,
        0.5796931385993958,
        0.5452283024787903,
        -0.06089485064148903,
        0.0,
        0.0
      ]
    },
    {
      "pose": [
        0.9990502595901489,
        0.0197250135242939,
        0.03885069489479065,
        -1.1816495656967163,
        -0.014880100265145302,
        0.9925085306167603,
        -0.12126617878675461,
        0.3315145969390869,
        -0.040951624512672424,
        0.12057296931743622,
        0.9918594360351562,
        0.814792275428772
      ],
      "intrinsics": [
        703.74169921875,
        703.74169921875,
        960.0,
        540.0
      ],
      "appearance_weights": [
        -0.061973389238119125,
        0.5567505955696106,
        0.5682406425476074,
        -0.06301788240671158,
        0.0,
        0.0
      ]
    },
    {
      "pose": [
        0.9990118145942688,
        0.019951220601797104,
        0.03971527889370918,
        -1.161721110343933,
        -0.014994173310697079,
        0.99248868227005,
        -0.12141433358192444,
        0.3314394950866699,
        -0.04183933138847351,
        0.12069891393184662,
        0.9918071031570435,
        0.8137122392654419
      ],
      "intrinsics": [
        703.74169921875,
        703.74169921875,
        960.0,
        540.0
      ],
      "appearance_weights": [
        -0.05978402495384216,
        0.5336789488792419,
        0.5911028385162354,
        -0.06499774754047394,
        0.0,
        0.0
      ]
    },
    {
      "pose": [
        0.998972475528717,
        0.02017861232161522,
        0.04057955741882324,
        -1.1415772438049316,
        -0.015109053812921047,
        0.9924683570861816,
        -0.12156622111797333,
        0.3313722312450409,
        -0.042726967483758926,
        0.12082824856042862,
        0.9917534589767456,
        0.8126589059829712
      ],
      "intrinsics": [
        703.74169921875,
        703.74169921875,
        960.0,
        540.0
      ],
      "appearance_weights": [
        -0.057472508400678635,
        0.5105201005935669,
        0.6137728691101074,
        -0.06682044267654419,
        0.0,
        0.0
      ]
    },
    {
      "pose": [
        0.9989326596260071,
        0.020405683666467667,
        0.04143775999546051,
        -1.121217131614685,
        -0.015223981812596321,
        0.9924476146697998,
        -0.12172085046768188,
        0.33131125569343567,
        -0.04360860958695412,
        0.12096014618873596,
        0.9916990399360657,
        0.811633825302124
      ],
      "intrinsics": [
        703.74169921875,
        703.74169921875,
        960.0,
        540.0
      ],
      "appearance_weights": [
        -0.05505283549427986,
        0.48731616139411926,
        0.6362086534500122,
        -0.06847196817398071,
        0.0,
        0.0
      ]
    },
    {
      "pose": [
        0.9988925457000732,
        0.020630933344364166,
        0.04228411614894867,
        -1.1006402969360352,
        -0.015338201075792313,
        0.9924266934394836,
        -0.1218772679567337,
        0.3312549889087677,
        -0.04447832703590393,
        0.12109379470348358,
        0.9916440844535828,
        0.8106383681297302
      ],
      "intrinsics": [
        703.74169921875,
        703.74169921875,
        960.0,
        540.0
      ],
      "appearance_weights": [
        -0.05253902077674866,
        0.4641090929508209,
        0.6583682298660278,
        -0.0699383020401001,
        0.0,
        0.0
      ]
    },
    {
      "pose": [
        0.998852550983429,
        0.020852848887443542,
        0.043112847954034805,
        -1.0798460245132446,
        -0.015450959093868732,
        0.9924055933952332,
        -0.1220344826579094,
        0.3312019109725952,
        -0.04533020034432411,
        0.12122837454080582,
        0.9915890693664551,
        0.8096741437911987
      ],
      "intrinsics": [
        703.74169921875,
        703.74169921875,
        960.0,
        540.0
      ],
      "appearance_weights": [
        -0.04994506016373634,
        0.4409409165382385,
        0.6802095770835876,
        -0.07120545953512192,
        0.0,
        0.0
      ]
    },
    {
      "pose": [
        0.9988128542900085,
        0.021069921553134918,
        0.0439181923866272,
        -1.0588335990905762,
        -0.01556150708347559,
        0.9923845529556274,
        -0.12219152599573135,
        0.33115047216415405,
        -0.04615830257534981,
        0.1213630959391594,
        0.991534411907196,
        0.8087426424026489
      ],
      "intrinsics": [
        703.74169921875,
        703.74169921875,
        960.0,
        540.0
      ],
      "appearance_weights": [
        -0.047284964472055435,
        0.4178536832332611,
        0.701690673828125,
        -0.07225941866636276,
        0.0,
        0.0
      ]
    },
    {
      "pose": [
        0.998773992061615,
        0.021280638873577118,
        0.04469437524676323,
        -1.0376023054122925,
        -0.015669099986553192,
        0.9923636317253113,
        -0.12234741449356079,
        0.33109912276268005,
        -0.046956706792116165,
        0.12149714678525925,
        0.9914804697036743,
        0.8078453540802002
      ],
      "intrinsics": [
        703.74169921875,
        703.74169921875,
        960.0,
        540.0
      ],
      "appearance_weights": [
        -0.04457274079322815,
        0.39488938450813293,
        0.722769558429718,
        -0.07308618724346161,
        0.0,
        0.0
      ]
    },
    {
      "pose": [
        0.9987362027168274,
        0.02148348093032837,
        0.04543563723564148,
        -1.0161516666412354,
        -0.015772998332977295,
        0.9923430681228638,
        -0.12250115722417831,
        0.33104637265205383,
        -0.04771949350833893,
        0.1216297373175621,
        0.9914277791976929,
        0.8069837689399719
      ],
      "intrinsics": [
        703.74169921875,
        703.74169921875,
        960.0,
        540.0
      ],
      "appearance_weights": [
        -0.041822388768196106,
        0.37209001183509827,
        0.7434040904045105,
        -0.07367175072431564,
        0.0,
        0.0
      ]
    },
    {
      "pose": [
        0.9986999034881592,
        0.02167692966759205,
        0.04613621160387993,
        -0.9944809079170227,
        -0.01587245799601078,
        0.9923228621482849,
        -0.12265177071094513,
        0.33099058270454407,
        -0.048440735787153244,
        0.12176007032394409,
        0.9913768172264099,
        0.8061593770980835
      ],
      "intrinsics": [
        703.74169921875,
        703.74169921875,
        960.0,
        540.0
      ],
      "appearance_weights": [
        -0.03904791921377182,
        0.34949764609336853,
        0.7635523676872253,
        -0.07400210201740265,
        0.0,
        0.0
      ]
    },
    {
      "pose": [
        0.9986655116081238,
        0.021859461441636086,
        0.046790339052677155,
        -0.972589373588562,
        -0.01596674881875515,
        0.9923032522201538,
        -0.12279827147722244,
        0.33093029260635376,
        -0.04911451041698456,
        0.12188736349344254,
        0.9913280606269836,
        0.8053736686706543
      ],
      "intrinsics": [
        703.74169921875,
        703.74169921875,
        960.0,
        540.0
      ],
      "appearance_weights": [
        -0.03626333177089691,
        0.3271542191505432,
        0.7831723690032959,
        -0.0740632489323616,
        0.0,
        0.0
      ]
    },
    {
      "pose": [
        0.9986333847045898,
        0.022029556334018707,
        0.04739225283265114,
        -0.9504764080047607,
        -0.016055135056376457,
        0.9922842979431152,
        -0.12293966859579086,
        0.33086392283439636,
        -0.049734897911548615,
        0.12201081961393356,
        0.9912819266319275,
        0.8046281337738037
      ],
      "intrinsics": [
        703.74169921875,
        703.74169921875,
        960.0,
        540.0
      ],
      "appearance_weights": [
        -0.033482637256383896,
        0.30510181188583374,
        0.8022220134735107,
        -0.0738411694765091,
        0.0,
        0.0
      ]
    },
    {
      "pose": [
        0.9986039400100708,
        0.022185683250427246,
        0.047936197370290756,
        -0.9281413555145264,
        -0.016136884689331055,
        0.9922661781311035,
        -0.123074971139431,
        0.3307899534702301,
        -0.05029597133398056,
        0.12212967127561569,
        0.9912389516830444,
        0.8039243221282959
      ],
      "intrinsics": [
        703.74169921875,
        703.74169921875,
        960.0,
        540.0
      ],
      "appearance_weights": [
        -0.030719837173819542,
        0.2833824157714844,
        0.8206592798233032,
        -0.0733218789100647,
        0.0,
        0.0
      ]
    },
    {
      "pose": [
        0.9985776543617249,
        0.02232632040977478,
        0.04841640591621399,
        -0.9055835604667664,
        -0.016211271286010742,
        0.992249071598053,
        -0.12320319563150406,
        0.33070680499076843,
        -0.05079181119799614,
        0.12224312126636505,
        0.9911996722221375,
        0.8032637238502502
      ],
      "intrinsics": [
        703.74169921875,
        703.74169921875,
        960.0,
        540.0
      ],
      "appearance_weights": [
        -0.027988938614726067,
        0.26203805208206177,
        0.8384422063827515,
        -0.0724913477897644,
        0.0,
        0.0
      ]
    },
    {
      "pose": [
        0.9985548853874207,
        0.022449934855103493,
        0.04882713034749031,
        -0.8828023672103882,
        -0.01627756468951702,
        0.9922330379486084,
        -0.12332334369421005,
        0.3306129574775696,
        -0.0512164942920208,
        0.12235040217638016,
        0.9911646246910095,
        0.8026478290557861
      ],
      "intrinsics": [
        703.74169921875,
        703.74169921875,
        960.0,
        540.0
      ],
      "appearance_weights": [
        -0.025303944945335388,
        0.24111074209213257,
        0.8555287718772888,
        -0.07133559137582779,
        0.0,
        0.0
      ]
    },
    {
      "pose": [
        0.9985360503196716,
        0.022554999217391014,
        0.0491626001894474,
        -0.8597970604896545,
        -0.01633503846824169,
        0.9922183156013489,
        -0.12343443185091019,
        0.3305068612098694,
        -0.05156409740447998,
        0.12245071679353714,
        0.9911342263221741,
        0.8020780682563782
      ],
      "intrinsics": [
        703.74169921875,
        703.74169921875,
        960.0,
        540.0
      ],
      "appearance_weights": [
        -0.022678863257169724,
        0.22064247727394104,
        0.8718769550323486,
        -0.06984059512615204,
        0.0,
        0.0
      ]
    },
    {
      "pose": [
        0.9985215663909912,
        0.022639984264969826,
        0.04941706359386444,
        -0.8365669846534729,
        -0.016382964327931404,
        0.9922049045562744,
        -0.12353546917438507,
        0.3303869664669037,
        -0.05182870104908943,
        0.12254329025745392,
        0.9911089539527893,
        0.8015560507774353
      ],
      "intrinsics": [
        703.74169921875,
        703.74169921875,
        960.0,
        540.0
      ],
      "appearance_weights": [
        -0.02012769877910614,
        0.20067530870437622,
        0.8874447345733643,
        -0.06799235194921494,
        0.0,
        0.0
      ]
    },
    {
      "pose": [
        0.998511791229248,
        0.02270335890352726,
        0.04958476126194,
        -0.8131116032600403,
        -0.01642061397433281,
        0.9921931028366089,
        -0.12362546473741531,
        0.3302517235279083,
        -0.052004374563694,
        0.12262733280658722,
        0.9910893440246582,
        0.8010832071304321
      ],
      "intrinsics": [
        703.74169921875,
        703.74169921875,
        960.0,
        540.0
      ],
      "appearance_weights": [
        -0.017664456740021706,
        0.18125121295452118,
        0.902190089225769,
        -0.06577685475349426,
        0.0,
        0.0
      ]
    },
    {
      "pose": [
        0.9985071420669556,
        0.022743597626686096,
        0.04965992644429207,
        -0.7894300818443298,
        -0.01644725911319256,
        0.9921829700469971,
        -0.12370343506336212,
        0.3300996422767639,
        -0.05208519473671913,
        0.12270205467939377,
        0.991075873374939,
        0.8006610870361328
      ],
      "intrinsics": [
        703.74169921875,
        703.74169921875,
        960.0,
        540.0
      ],
      "appearance_weights": [
        -0.015303141437470913,
        0.16241224110126495,
        0.9160709977149963,
        -0.063180111348629,
        0.0,
        0.0
      ]
    },
    {
      "pose": [
        0.9985079765319824,
        0.022759173065423965,
        0.04963679984211922,
        -0.7655218243598938,
        -0.016462167724967003,
        0.9921745657920837,
        -0.1237683892250061,
        0.3299291133880615,
        -0.05206524208188057,
        0.1227666512131691,
        0.9910688996315002,
        0.800291121006012
      ],
      "intrinsics": [
        703.74169921875,
        703.74169921875,
        960.0,
        540.0
      ],
      "appearance_weights": [
        -0.01305775810033083,
        0.144200399518013,
        0.9290454983711243,
        -0.06018810346722603,
        0.0,
        0.0
      ]
    },
    {
      "pose": [
        0.9985145330429077,
        0.022748559713363647,
        0.04950961470603943,
        -0.7413862347602844,
        -0.016464605927467346,
        0.9921681880950928,
        -0.12381935864686966,
        0.3297386169433594,
        -0.051938582211732864,
        0.12282033264636993,
        0.9910688996315002,
        0.7999748587608337
      ],
      "intrinsics": [
        703.74169921875,
        703.74169921875,
        960.0,
        540.0
      ],
      "appearance_weights": [
        -0.010942312888801098,
        0.12665767967700958,
        0.9410714507102966,
        -0.056786831468343735,
        0.0,
        0.0
      ]
    },
    {
      "pose": [
        0.9985271096229553,
        0.02271023578941822,
        0.04927260801196098,
        -0.7170225381851196,
        -0.016453832387924194,
        0.992163896560669,
        -0.123855359852314,
        0.3295266330242157,
        -0.05169928818941116,
        0.12286227196455002,
        0.9910762310028076,
        0.7997137904167175
      ],
      "intrinsics": [
        703.74169921875,
        703.74169921875,
        960.0,
        540.0
      ],
      "appearance_weights": [
        -0.008970811031758785,
        0.10982613265514374,
        0.9521069526672363,
        -0.0529622882604599,
        0.0,
        0.0
      ]
    },
    {
      "pose": [
        0.9985460042953491,
        0.02264268323779106,
        0.048920001834630966,
        -0.6924301981925964,
        -0.016429107636213303,
        0.9921618103981018,
        -0.12387542426586151,
        0.32929158210754395,
        -0.05134143307805061,
        0.12289164960384369,
        0.9910911917686462,
        0.7995094060897827
      ],
      "intrinsics": [
        703.74169921875,
        703.74169921875,
        960.0,
        540.0
      ],
      "appearance_weights": [
        -0.007157257758080959,
        0.09374774992465973,
        0.9621099829673767,
        -0.048700470477342606,
        0.0,
        0.0
      ]
    },
    {
      "pose": [
        0.9985713362693787,
        0.022544389590620995,
        0.04844602569937706,
        -0.6676084399223328,
        -0.016389677301049232,
        0.9921620488166809,
        -0.12387857586145401,
        0.32903194427490234,
        -0.050859078764915466,
        0.12290763854980469,
        0.99111407995224,
        0.7993631958961487
      ],
      "intrinsics": [
        703.74169921875,
        703.74169921875,
        960.0,
        540.0
      ],
      "appearance_weights": [
        -0.0055156578309834,
        0.0784645602107048,
        0.9710384607315063,
        -0.043987371027469635,
        0.0,
        0.0
      ]
    },
    {
      "pose": [
        0.9986032247543335,
        0.022413846105337143,
        0.04784490168094635,
        -0.6425566673278809,
        -0.016334788873791695,
        0.9921647906303406,
        -0.12386386841535568,
        0.32874614000320435,
        -0.05024629458785057,
        0.12290938198566437,
        0.991145133972168,
        0.7992767095565796
      ],
      "intrinsics": [
        703.74169921875,
        703.74169921875,
        960.0,
        540.0
      ],
      "appearance_weights": [
        -0.004060016945004463,
        0.06401856988668442,
        0.9788504242897034,
        -0.03880898654460907,
        0.0,
        0.0
      ]
    },
    {
      "pose": [
        0.9986417889595032,
        0.022249547764658928,
        0.047110844403505325,
        -0.6172741651535034,
        -0.016263673081994057,
        0.9921701550483704,
        -0.12383034080266953,
        0.32843267917633057,
        -0.04949714615941048,
        0.12289601564407349,
        0.9911844730377197,
        0.79925137758255
      ],
      "intrinsics": [
        703.74169921875,
        703.74169921875,
        960.0,
        540.0
      ],
      "appearance_weights": [
        -0.0028043403290212154,
        0.05045180022716522,
        0.9855038523674011,
        -0.03315130993723869,
        0.0,
        0.0
      ]
    },
    {
      "pose": [
        0.9986870288848877,
        0.022050002589821815,
        0.046238064765930176,
        -0.5917603373527527,
        -0.016175558790564537,
        0.992178201675415,
        -0.12377704679965973,
        0.32809001207351685,
        -0.04860568791627884,
        0.1228666603565216,
        0.9912322163581848,
        0.7992887496948242
      ],
      "intrinsics": [
        703.74169921875,
        703.74169921875,
        960.0,
        540.0
      ],
      "appearance_weights": [
        -0.0017626330954954028,
        0.03780626878142357,
        0.990956723690033,
        -0.02700033411383629,
        0.0,
        0.0
      ]
    },
    {
      "pose": [
        0.9987387657165527,
        0.02181372418999672,
        0.045220766216516495,
        -0.5660145282745361,
        -0.01606965996325016,
        0.9921891689300537,
        -0.12370305508375168,
        0.32771652936935425,
        -0.04756598174571991,
        0.1228204071521759,
        0.9912883639335632,
        0.7993902564048767
      ],
      "intrinsics": [
        703.74169921875,
        703.74169921875,
        960.0,
        540.0
      ],
      "appearance_weights": [
        -0.0009489006479270756,
        0.02612398937344551,
        0.9951669573783875,
        -0.020342057570815086,
        0.0,
        0.0
      ]
    },
    {
      "pose": [
        0.9987969398498535,
        0.02153923362493515,
        0.044053152203559875,
        -0.5400359630584717,
        -0.015945179387927055,
        0.9922031164169312,
        -0.12360743433237076,
        0.3273107707500458,
        -0.04637208580970764,
        0.12275634706020355,
        0.9913528561592102,
        0.7995575070381165
      ],
      "intrinsics": [
        703.74169921875,
        703.74169921875,
        960.0,
        540.0
      ],
      "appearance_weights": [
        -0.0003771482442971319,
        0.015446975827217102,
        0.9980926513671875,
        -0.01316247321665287,
        0.0,
        0.0
      ]
    },
    {
      "pose": [
        0.9988611340522766,
        0.021225064992904663,
        0.04272941127419472,
        -0.5138241052627563,
        -0.015801306813955307,
        0.9922201037406921,
        -0.12348926812410355,
        0.3268711566925049,
        -0.04501805454492569,
        0.12267351150512695,
        0.9914255738258362,
        0.7997918725013733
      ],
      "intrinsics": [
        703.74169921875,
        703.74169921875,
        960.0,
        540.0
      ],
      "appearance_weights": [
        -6.138114986242726e-05,
        0.005817246623337269,
        0.9996917247772217,
        -0.005447576753795147,
        0.0,
        0.0
      ]
    },
    {
      "pose": [
        0.9989310503005981,
        0.020870111882686615,
        0.04124457389116287,
        -0.487341970205307,
        -0.015637435019016266,
        0.9922402501106262,
        -0.12334821373224258,
        0.3263969123363495,
        -0.043498821556568146,
        0.12257145345211029,
        0.9915059804916382,
        0.8000960946083069
      ],
      "intrinsics": [
        703.74169921875,
        703.74169921875,
        960.0,
        540.0
      ],
      "appearance_weights": [
        0.0,
        -0.002754565328359604,
        0.9999226927757263,
        0.002847328782081604,
        -1.543173857498914e-05,
        0.0
      ]
    },
    {
      "pose": [
        0.9990054368972778,
        0.020478228107094765,
        0.0396069772541523,
        -0.4601280093193054,
        -0.015455932356417179,
        0.9922626614570618,
        -0.12319091707468033,
        0.3258972465991974,
        -0.041823260486125946,
        0.12245628982782364,
        0.991592288017273,
        0.8004844784736633
      ],
      "intrinsics": [
        703.74169921875,
        703.74169921875,
        960.0,
        540.0
      ],
      "appearance_weights": [
        0.0,
        -0.01065101195126772,
        0.9987751245498657,
        0.0121186263859272,
        -0.00024275810574181378,
        0.0
      ]
    },
    {
      "pose": [
        0.9990831613540649,
        0.020051870495080948,
        0.03782421350479126,
        -0.43206822872161865,
        -0.015258059836924076,
        0.9922869205474854,
        -0.12302003055810928,
        0.3253759741783142,
        -0.039999257773160934,
        0.12233017385005951,
        0.9916831254959106,
        0.8009593486785889
      ],
      "intrinsics": [
        703.74169921875,
        703.74169921875,
        960.0,
        540.0
      ],
      "appearance_weights": [
        0.0,
        -0.01800747774541378,
        0.9962869882583618,
        0.022451212629675865,
        -0.000730738218408078,
        0.0
      ]
    },
    {
      "pose": [
        0.9991632103919983,
        0.019592301920056343,
        0.03590131551027298,
        -0.4031962454319,
        -0.01504430454224348,
        0.9923129677772522,
        -0.12283612787723541,
        0.3248338997364044,
        -0.038031984120607376,
        0.12219328433275223,
        0.9917774200439453,
        0.8015180826187134
      ],
      "intrinsics": [
        703.74169921875,
        703.74169921875,
        960.0,
        540.0
      ],
      "appearance_weights": [
        0.0,
        -0.02483796700835228,
        0.9925002455711365,
        0.033803071826696396,
        -0.0014653668040409684,
        0.0
      ]
    },
    {
      "pose": [
        0.9992445707321167,
        0.019100796431303024,
        0.03384331241250038,
        -0.3735455572605133,
        -0.014815151691436768,
        0.9923406839370728,
        -0.12263977527618408,
        0.32427194714546204,
        -0.035926613956689835,
        0.12204579263925552,
        0.9918740391731262,
        0.8021582365036011
      ],
      "intrinsics": [
        703.74169921875,
        703.74169921875,
        960.0,
        540.0
      ],
      "appearance_weights": [
        0.0,
        -0.03115648590028286,
        0.9874569177627563,
        0.04613218829035759,
        -0.0024326385464519262,
        0.0
      ]
    },
    {
      "pose": [
        0.9993261098861694,
        0.018578624352812767,
        0.03165523707866669,
        -0.34314975142478943,
        -0.01457108836621046,
        0.9923700094223022,
        -0.12243155390024185,
        0.32369092106819153,
        -0.033688321709632874,
        0.12188785523176193,
        0.991972029209137,
        0.8028773069381714
      ],
      "intrinsics": [
        703.74169921875,
        703.74169921875,
        960.0,
        540.0
      ],
      "appearance_weights": [
        0.0,
        -0.03697704151272774,
        0.9811990261077881,
        0.059396546334028244,
        -0.003618548158556223,
        0.0
      ]
    },
    {
      "pose": [
        0.9994068145751953,
        0.018027061596512794,
        0.029342133551836014,
        -0.3120424151420593,
        -0.01431259885430336,
        0.9924008250236511,
        -0.12221204489469528,
        0.3230917155742645,
        -0.031322281807661057,
        0.12171964347362518,
        0.992070198059082,
        0.803672730922699
      ],
      "intrinsics": [
        703.74169921875,
        703.74169921875,
        960.0,
        540.0
      ],
      "appearance_weights": [
        0.0,
        -0.04231363534927368,
        0.9737685918807983,
        0.073554128408432,
        -0.005009090527892113,
        0.0
      ]
    },
    {
      "pose": [
        0.9994855523109436,
        0.01744738407433033,
        0.02690904028713703,
        -0.28025704622268677,
        -0.01404016837477684,
        0.9924330711364746,
        -0.12198181450366974,
        0.3224751353263855,
        -0.02883368544280529,
        0.12154131382703781,
        0.9921675324440002,
        0.804542064666748
      ],
      "intrinsics": [
        703.74169921875,
        703.74169921875,
        960.0,
        540.0
      ],
      "appearance_weights": [
        0.0,
        -0.04718027263879776,
        0.9652076363563538,
        0.08856292068958282,
        -0.0065902601927518845,
        0.0
      ]
    },
    {
      "pose": [
        0.9995613098144531,
        0.016840863972902298,
        0.024361005052924156,
        -0.24782723188400269,
        -0.01375428307801485,
        0.9924665689468384,
        -0.12174144387245178,
        0.32184213399887085,
        -0.026227714493870735,
        0.12135302275419235,
        0.9922628402709961,
        0.8054827451705933
      ],
      "intrinsics": [
        703.74169921875,
        703.74169921875,
        960.0,
        540.0
      ],
      "appearance_weights": [
        0.0,
        -0.05159096047282219,
        0.9555581212043762,
        0.10438090562820435,
        -0.008348052389919758,
        0.0
      ]
    },
    {
      "pose": [
        0.9996330142021179,
        0.01620877906680107,
        0.021703077480196953,
        -0.21478654444217682,
        -0.01345543097704649,
        0.9925013184547424,
        -0.12149150669574738,
        0.32119348645210266,
        -0.023509563878178596,
        0.12115495651960373,
        0.9923551678657532,
        0.806492269039154
      ],
      "intrinsics": [
        703.74169921875,
        703.74169921875,
        960.0,
        540.0
      ],
      "appearance_weights": [
        0.0,
        -0.055559705942869186,
        0.9448620676994324,
        0.12096606940031052,
        -0.01026846095919609,
        0.0
      ]
    },
    {
      "pose": [
        0.999699592590332,
        0.015552404336631298,
        0.018940318375825882,
        -0.18116852641105652,
        -0.01314410287886858,
        0.9925371408462524,
        -0.12123258411884308,
        0.3205300569534302,
        -0.02068442851305008,
        0.12094726413488388,
        0.9924434423446655,
        0.8075682520866394
      ],
      "intrinsics": [
        703.74169921875,
        703.74169921875,
        960.0,
        540.0
      ],
      "appearance_weights": [
        0.0,
        -0.05910051241517067,
        0.9331616163253784,
        0.13827639818191528,
        -0.012337480671703815,
        0.0
      ]
    },
    {
      "pose": [
        0.999760091304779,
        0.014873016625642776,
        0.016077790409326553,
        -0.14700673520565033,
        -0.012820790521800518,
        0.9925739765167236,
        -0.12096523493528366,
        0.3198527693748474,
        -0.017757514491677284,
        0.12073014676570892,
        0.9925265312194824,
        0.8087080121040344
      ],
      "intrinsics": [
        703.74169921875,
        703.74169921875,
        960.0,
        540.0
      ],
      "appearance_weights": [
        0.0,
        -0.06222738325595856,
        0.9204986095428467,
        0.1562698781490326,
        -0.01454110722988844,
        0.0
      ]
    },
    {
      "pose": [
        0.999813437461853,
        0.014171888120472431,
        0.013120559975504875,
        -0.1123347282409668,
        -0.012485990300774574,
        0.9926117062568665,
        -0.12069004774093628,
        0.31916242837905884,
        -0.014734028838574886,
        0.12050376832485199,
        0.9926035404205322,
        0.8099091649055481
      ],
      "intrinsics": [
        703.74169921875,
        703.74169921875,
        960.0,
        540.0
      ],
      "appearance_weights": [
        0.0,
        -0.06495432555675507,
        0.9069151878356934,
        0.1749044805765152,
        -0.016865333542227745,
        0.0
      ]
    },
    {
      "pose": [
        0.9998587369918823,
        0.01345029380172491,
        0.0100737065076828,
        -0.07718606293201447,
        -0.012140202336013317,
        0.9926503300666809,
        -0.1204075738787651,
        0.3184598982334137,
        -0.011619186028838158,
        0.1202683299779892,
        0.9926734566688538,
        0.8111691474914551
      ],
      "intrinsics": [
        703.74169921875,
        703.74169921875,
        960.0,
        540.0
      ],
      "appearance_weights": [
        0.0,
        -0.06729535013437271,
        0.8924533128738403,
        0.19413818418979645,
        -0.019296158105134964,
        0.0
      ]
    },
    {
      "pose": [
        0.9998950958251953,
        0.012709504924714565,
        0.0069423094391822815,
        -0.04159429669380188,
        -0.011783930473029613,
        0.9926896691322327,
        -0.1201183870434761,
        0.31774604320526123,
        -0.008418204262852669,
        0.12002403289079666,
        0.9927353262901306,
        0.8124855160713196
      ],
      "intrinsics": [
        703.74169921875,
        703.74169921875,
        960.0,
        540.0
      ],
      "appearance_weights": [
        0.0,
        -0.06926444917917252,
        0.8771550059318542,
        0.21392901241779327,
        -0.021819571033120155,
        0.0
      ]
    },
    {
      "pose": [
        0.9999215602874756,
        0.011950789950788021,
        0.0037314589135348797,
        -0.005592990666627884,
        -0.011417682282626629,
        0.9927296042442322,
        -0.11982303857803345,
        0.3170217275619507,
        -0.005136310122907162,
        0.1197710931301117,
        0.9927882552146912,
        0.8138557076454163
      ],
      "intrinsics": [
        703.74169921875,
        703.74169921875,
        960.0,
        540.0
      ],
      "appearance_weights": [
        0.0,
        -0.07087564468383789,
        0.8610622882843018,
        0.23423489928245544,
        -0.0244215689599514,
        0.0
      ]
    },
    {
      "pose": [
        0.9999374151229858,
        0.011175415478646755,
        0.00044624958536587656,
        0.030784299597144127,
        -0.011041972786188126,
        0.9927701354026794,
        -0.1195220798254013,
        0.3162877857685089,
        -0.0017787327524274588,
        0.1195097342133522,
        0.9928314685821533,
        0.8152772188186646
      ],
      "intrinsics": [
        703.74169921875,
        703.74169921875,
        960.0,
        540.0
      ],
      "appearance_weights": [
        0.0,
        -0.07214292883872986,
        0.8442171812057495,
        0.2550138831138611,
        -0.027088148519396782,
        0.0
      ]
    },
    {
      "pose": [
        0.9999418258666992,
        0.01038464717566967,
        -0.0029082170221954584,
        0.06750401854515076,
        -0.01065731979906559,
        0.9928111433982849,
        -0.11921606957912445,
        0.31554511189460754,
        0.0016492930008098483,
        0.1192401871085167,
        0.9928640723228455,
        0.8167475461959839
      ],
      "intrinsics": [
        703.74169921875,
        703.74169921875,
        960.0,
        540.0
      ],
      "appearance_weights": [
        0.0,
        -0.07308030873537064,
        0.8266617059707642,
        0.27622389793395996,
        -0.029805300757288933,
        0.0
      ]
    },
    {
      "pose": [
        0.9999340772628784,
        0.009579746052622795,
        -0.00632683327421546,
        0.10453259944915771,
        -0.010264246724545956,
        0.992852509021759,
        -0.11890554428100586,
        0.3147945702075958,
        0.005142527632415295,
        0.11896270513534546,
        0.992885410785675,
        0.8182642459869385
      ],
      "intrinsics": [
        703.74169921875,
        703.74169921875,
        960.0,
        540.0
      ],
      "appearance_weights": [
        0.0,
        -0.07370179146528244,
        0.8084378838539124,
        0.2978229522705078,
        -0.032559022307395935,
        0.0
      ]
    },
    {
      "pose": [
        0.9999135136604309,
        0.008761968463659286,
        -0.00980448629707098,
        0.1418364942073822,
        -0.009863284416496754,
        0.9928942322731018,
        -0.11859104782342911,
        0.3140369653701782,
        0.008695727214217186,
        0.1186775490641594,
        0.9928947687149048,
        0.819824755191803
      ],
      "intrinsics": [
        703.74169921875,
        703.74169921875,
        960.0,
        540.0
      ],
      "appearance_weights": [
        0.0,
        -0.07402138411998749,
        0.789587676525116,
        0.319769024848938,
        -0.03533530980348587,
        0.0
      ]
    },
    {
      "pose": [
        0.9998795390129089,
        0.007932569831609726,
        -0.01333605870604515,
        0.17938214540481567,
        -0.009454969316720963,
        0.9929361343383789,
        -0.11827310174703598,
        0.31327322125434875,
        0.01230364479124546,
        0.11838500201702118,
        0.9928915500640869,
        0.821426510810852
      ],
      "intrinsics": [
        703.74169921875,
        703.74169921875,
        960.0,
        540.0
      ],
      "appearance_weights": [
        0.0,
        -0.0740530863404274,
        0.7701531648635864,
        0.34202009439468384,
        -0.03812015429139137,
        0.0
      ]
    },
    {
      "pose": [
        0.9998317360877991,
        0.007092798128724098,
        -0.016916424036026,
        0.21713599562644958,
        -0.009039844386279583,
        0.9929781556129456,
        -0.11795223504304886,
        0.3125041425228119,
        0.01596102863550186,
        0.1180853620171547,
        0.9928751587867737,
        0.8230671286582947
      ],
      "intrinsics": [
        703.74169921875,
        703.74169921875,
        960.0,
        540.0
      ],
      "appearance_weights": [
        0.0,
        -0.07381091266870499,
        0.7501763105392456,
        0.3645341694355011,
        -0.04089955613017082,
        0.0
      ]
    },
    {
      "pose": [
        0.9997695088386536,
        0.006243899464607239,
        -0.02054045908153057,
        0.2550644874572754,
        -0.008618457242846489,
        0.993020236492157,
        -0.11762896180152893,
        0.31173062324523926,
        0.019662627950310707,
        0.11777892708778381,
        0.9928451776504517,
        0.8247440457344055
      ],
      "intrinsics": [
        703.74169921875,
        703.74169921875,
        960.0,
        540.0
      ],
      "appearance_weights": [
        0.0,
        -0.07330886274576187,
        0.7296991944313049,
        0.38726919889450073,
        -0.043659500777721405,
        0.0
      ]
    },
    {
      "pose": [
        0.9996924996376038,
        0.005387113895267248,
        -0.02420302852988243,
        0.29313403367996216,
        -0.0081913648173213,
        0.9930623173713684,
        -0.11730379611253738,
        0.3109535276889801,
        0.023403186351060867,
        0.117466039955616,
        0.9928011298179626,
        0.826454758644104
      ],
      "intrinsics": [
        703.74169921875,
        703.74169921875,
        960.0,
        540.0
      ],
      "appearance_weights": [
        0.0,
        -0.07256094366312027,
